digraph Tree {
node [shape=box, style="filled, rounded", color="black", fontname=helvetica] ;
edge [fontname=helvetica] ;
0 [label="LLC-loads <= 0.69775\nmae = 0.07195\nsamples = 1575\nvalue = -0.99984", fillcolor="#e5813900"] ;
1 [label="L1-dcache-load-misses <= -0.59353\nmae = 0.00034\nsamples = 1396\nvalue = -0.99988", fillcolor="#e5813900"] ;
0 -> 1 [labeldistance=2.5, labelangle=45, headlabel="True"] ;
2 [label="L1-dcache-load-misses <= -0.96494\nmae = 8e-05\nsamples = 921\nvalue = -0.99993", fillcolor="#e5813900"] ;
1 -> 2 ;
3 [label="Thread <= -0.63636\nmae = 3e-05\nsamples = 484\nvalue = -0.99999", fillcolor="#e5813900"] ;
2 -> 3 ;
4 [label="Thread <= -0.90909\nmae = 3e-05\nsamples = 129\nvalue = -0.99993", fillcolor="#e5813900"] ;
3 -> 4 ;
5 [label="L1-dcache-stores <= -0.96502\nmae = 1e-05\nsamples = 63\nvalue = -0.99989", fillcolor="#e5813900"] ;
4 -> 5 ;
6 [label="context-switches <= -0.99939\nmae = 0.0\nsamples = 46\nvalue = -0.99989", fillcolor="#e5813900"] ;
5 -> 6 ;
7 [label="mae = 0.0\nsamples = 35\nvalue = -0.99989", fillcolor="#e5813900"] ;
6 -> 7 ;
8 [label="mae = 0.0\nsamples = 11\nvalue = -0.99989", fillcolor="#e5813900"] ;
6 -> 8 ;
9 [label="cycles <= -0.98821\nmae = 0.0\nsamples = 17\nvalue = -0.99986", fillcolor="#e5813900"] ;
5 -> 9 ;
10 [label="mae = 0.0\nsamples = 7\nvalue = -0.99986", fillcolor="#e5813900"] ;
9 -> 10 ;
11 [label="mae = 0.0\nsamples = 10\nvalue = -0.99986", fillcolor="#e5813900"] ;
9 -> 11 ;
12 [label="cache-references <= -0.99522\nmae = 1e-05\nsamples = 66\nvalue = -0.99994", fillcolor="#e5813900"] ;
4 -> 12 ;
13 [label="context-switches <= -0.98706\nmae = 0.0\nsamples = 18\nvalue = -0.99993", fillcolor="#e5813900"] ;
12 -> 13 ;
14 [label="mae = 0.0\nsamples = 11\nvalue = -0.99993", fillcolor="#e5813900"] ;
13 -> 14 ;
15 [label="mae = 0.0\nsamples = 7\nvalue = -0.99993", fillcolor="#e5813900"] ;
13 -> 15 ;
16 [label="context-switches <= -0.99642\nmae = 0.0\nsamples = 48\nvalue = -0.99994", fillcolor="#e5813900"] ;
12 -> 16 ;
17 [label="mae = 0.0\nsamples = 11\nvalue = -0.99995", fillcolor="#e5813900"] ;
16 -> 17 ;
18 [label="mae = 0.0\nsamples = 37\nvalue = -0.99994", fillcolor="#e5813900"] ;
16 -> 18 ;
19 [label="Thread <= 0.09091\nmae = 1e-05\nsamples = 355\nvalue = -0.99999", fillcolor="#e5813900"] ;
3 -> 19 ;
20 [label="Thread <= -0.27273\nmae = 1e-05\nsamples = 136\nvalue = -0.99998", fillcolor="#e5813900"] ;
19 -> 20 ;
21 [label="instructions <= -0.97219\nmae = 0.0\nsamples = 67\nvalue = -0.99998", fillcolor="#e5813900"] ;
20 -> 21 ;
22 [label="mae = 0.0\nsamples = 46\nvalue = -0.99998", fillcolor="#e5813900"] ;
21 -> 22 ;
23 [label="mae = 0.0\nsamples = 21\nvalue = -0.99997", fillcolor="#e5813900"] ;
21 -> 23 ;
24 [label="context-switches <= -0.97879\nmae = 0.0\nsamples = 69\nvalue = -0.99999", fillcolor="#e5813900"] ;
20 -> 24 ;
25 [label="mae = 0.0\nsamples = 44\nvalue = -0.99999", fillcolor="#e5813900"] ;
24 -> 25 ;
26 [label="mae = 0.0\nsamples = 25\nvalue = -0.99998", fillcolor="#e5813900"] ;
24 -> 26 ;
27 [label="cache-misses <= -0.99323\nmae = 0.0\nsamples = 219\nvalue = -0.99999", fillcolor="#e5813900"] ;
19 -> 27 ;
28 [label="branch-misses <= -0.96878\nmae = 0.0\nsamples = 72\nvalue = -1.0", fillcolor="#e5813900"] ;
27 -> 28 ;
29 [label="mae = 0.0\nsamples = 50\nvalue = -1.0", fillcolor="#e5813900"] ;
28 -> 29 ;
30 [label="mae = 0.0\nsamples = 22\nvalue = -1.0", fillcolor="#e5813900"] ;
28 -> 30 ;
31 [label="LLC-loads <= -0.99014\nmae = 0.0\nsamples = 147\nvalue = -0.99999", fillcolor="#e5813900"] ;
27 -> 31 ;
32 [label="mae = 0.0\nsamples = 23\nvalue = -0.99999", fillcolor="#e5813900"] ;
31 -> 32 ;
33 [label="mae = 0.0\nsamples = 124\nvalue = -0.99999", fillcolor="#e5813900"] ;
31 -> 33 ;
34 [label="cpu-migrations <= -0.99233\nmae = 9e-05\nsamples = 437\nvalue = -0.99989", fillcolor="#e5813900"] ;
2 -> 34 ;
35 [label="Thread <= -0.90909\nmae = 0.00011\nsamples = 100\nvalue = -0.99963", fillcolor="#e5813900"] ;
34 -> 35 ;
36 [label="LLC-stores <= -0.9697\nmae = 3e-05\nsamples = 43\nvalue = -0.99948", fillcolor="#e5813900"] ;
35 -> 36 ;
37 [label="cpu-migrations <= -0.99952\nmae = 0.0\nsamples = 2\nvalue = -0.99986", fillcolor="#e5813900"] ;
36 -> 37 ;
38 [label="mae = 0.0\nsamples = 1\nvalue = -0.99986", fillcolor="#e5813900"] ;
37 -> 38 ;
39 [label="mae = 0.0\nsamples = 1\nvalue = -0.99986", fillcolor="#e5813900"] ;
37 -> 39 ;
40 [label="instructions <= -0.76666\nmae = 1e-05\nsamples = 41\nvalue = -0.99947", fillcolor="#e5813900"] ;
36 -> 40 ;
41 [label="mae = 0.0\nsamples = 21\nvalue = -0.99948", fillcolor="#e5813900"] ;
40 -> 41 ;
42 [label="mae = 1e-05\nsamples = 20\nvalue = -0.99945", fillcolor="#e5813900"] ;
40 -> 42 ;
43 [label="cache-references <= -0.92012\nmae = 2e-05\nsamples = 57\nvalue = -0.9997", fillcolor="#e5813900"] ;
35 -> 43 ;
44 [label="context-switches <= -0.83533\nmae = 1e-05\nsamples = 13\nvalue = -0.99963", fillcolor="#e5813900"] ;
43 -> 44 ;
45 [label="mae = 0.0\nsamples = 3\nvalue = -0.99966", fillcolor="#e5813900"] ;
44 -> 45 ;
46 [label="mae = 0.0\nsamples = 10\nvalue = -0.99962", fillcolor="#e5813900"] ;
44 -> 46 ;
47 [label="branch-misses <= -0.35507\nmae = 1e-05\nsamples = 44\nvalue = -0.9997", fillcolor="#e5813900"] ;
43 -> 47 ;
48 [label="mae = 0.0\nsamples = 29\nvalue = -0.9997", fillcolor="#e5813900"] ;
47 -> 48 ;
49 [label="mae = 0.0\nsamples = 15\nvalue = -0.99969", fillcolor="#e5813900"] ;
47 -> 49 ;
50 [label="Thread <= -0.27273\nmae = 3e-05\nsamples = 337\nvalue = -0.9999", fillcolor="#e5813900"] ;
34 -> 50 ;
51 [label="cycles <= -0.82311\nmae = 1e-05\nsamples = 71\nvalue = -0.99983", fillcolor="#e5813900"] ;
50 -> 51 ;
52 [label="cache-misses <= -0.92783\nmae = 1e-05\nsamples = 41\nvalue = -0.99985", fillcolor="#e5813900"] ;
51 -> 52 ;
53 [label="mae = 0.0\nsamples = 26\nvalue = -0.99985", fillcolor="#e5813900"] ;
52 -> 53 ;
54 [label="mae = 0.0\nsamples = 15\nvalue = -0.99983", fillcolor="#e5813900"] ;
52 -> 54 ;
55 [label="cache-references <= -0.87587\nmae = 0.0\nsamples = 30\nvalue = -0.99981", fillcolor="#e5813900"] ;
51 -> 55 ;
56 [label="mae = 0.0\nsamples = 24\nvalue = -0.99981", fillcolor="#e5813900"] ;
55 -> 56 ;
57 [label="mae = 0.0\nsamples = 6\nvalue = -0.99983", fillcolor="#e5813900"] ;
55 -> 57 ;
58 [label="Thread <= 0.45455\nmae = 2e-05\nsamples = 266\nvalue = -0.99991", fillcolor="#e5813900"] ;
50 -> 58 ;
59 [label="Thread <= 0.09091\nmae = 1e-05\nsamples = 135\nvalue = -0.9999", fillcolor="#e5813900"] ;
58 -> 59 ;
60 [label="mae = 1e-05\nsamples = 66\nvalue = -0.99988", fillcolor="#e5813900"] ;
59 -> 60 ;
61 [label="mae = 1e-05\nsamples = 69\nvalue = -0.9999", fillcolor="#e5813900"] ;
59 -> 61 ;
62 [label="LLC-stores <= -0.58221\nmae = 1e-05\nsamples = 131\nvalue = -0.99993", fillcolor="#e5813900"] ;
58 -> 62 ;
63 [label="mae = 1e-05\nsamples = 88\nvalue = -0.99994", fillcolor="#e5813900"] ;
62 -> 63 ;
64 [label="mae = 0.0\nsamples = 43\nvalue = -0.99991", fillcolor="#e5813900"] ;
62 -> 64 ;
65 [label="Thread <= -0.63636\nmae = 0.00049\nsamples = 475\nvalue = -0.99939", fillcolor="#e5813900"] ;
1 -> 65 ;
66 [label="Thread <= -0.90909\nmae = 0.00063\nsamples = 161\nvalue = -0.99839", fillcolor="#e5813900"] ;
65 -> 66 ;
67 [label="context-switches <= -0.65028\nmae = 0.00055\nsamples = 92\nvalue = -0.99766", fillcolor="#e5813900"] ;
66 -> 67 ;
68 [label="LLC-stores <= -0.92264\nmae = 0.0\nsamples = 22\nvalue = -0.99934", fillcolor="#e5813900"] ;
67 -> 68 ;
69 [label="context-switches <= -0.85672\nmae = 0.0\nsamples = 19\nvalue = -0.99934", fillcolor="#e5813900"] ;
68 -> 69 ;
70 [label="mae = 0.0\nsamples = 5\nvalue = -0.99934", fillcolor="#e5813900"] ;
69 -> 70 ;
71 [label="mae = 0.0\nsamples = 14\nvalue = -0.99934", fillcolor="#e5813900"] ;
69 -> 71 ;
72 [label="page-faults <= -0.91317\nmae = 0.0\nsamples = 3\nvalue = -0.99934", fillcolor="#e5813900"] ;
68 -> 72 ;
73 [label="mae = 0.0\nsamples = 2\nvalue = -0.99934", fillcolor="#e5813900"] ;
72 -> 73 ;
74 [label="mae = 0.0\nsamples = 1\nvalue = -0.99933", fillcolor="#e5813900"] ;
72 -> 74 ;
75 [label="L1-dcache-stores <= 0.54119\nmae = 0.00019\nsamples = 70\nvalue = -0.99764", fillcolor="#e5813900"] ;
67 -> 75 ;
76 [label="LLC-store-misses <= -0.71056\nmae = 6e-05\nsamples = 47\nvalue = -0.99766", fillcolor="#e5813900"] ;
75 -> 76 ;
77 [label="mae = 1e-05\nsamples = 23\nvalue = -0.99775", fillcolor="#e5813900"] ;
76 -> 77 ;
78 [label="mae = 1e-05\nsamples = 24\nvalue = -0.99764", fillcolor="#e5813900"] ;
76 -> 78 ;
79 [label="cycles <= -0.08292\nmae = 1e-05\nsamples = 23\nvalue = -0.99718", fillcolor="#e5813900"] ;
75 -> 79 ;
80 [label="mae = 1e-05\nsamples = 12\nvalue = -0.99719", fillcolor="#e5813900"] ;
79 -> 80 ;
81 [label="mae = 1e-05\nsamples = 11\nvalue = -0.99717", fillcolor="#e5813900"] ;
79 -> 81 ;
82 [label="L1-dcache-loads <= 0.57423\nmae = 0.00016\nsamples = 69\nvalue = -0.99871", fillcolor="#e5813900"] ;
66 -> 82 ;
83 [label="instructions <= -0.21126\nmae = 0.0001\nsamples = 49\nvalue = -0.99871", fillcolor="#e5813900"] ;
82 -> 83 ;
84 [label="LLC-store-misses <= -0.98543\nmae = 0.0\nsamples = 5\nvalue = -0.99962", fillcolor="#e5813900"] ;
83 -> 84 ;
85 [label="mae = 0.0\nsamples = 4\nvalue = -0.99962", fillcolor="#e5813900"] ;
84 -> 85 ;
86 [label="mae = 0.0\nsamples = 1\nvalue = -0.99964", fillcolor="#e5813900"] ;
84 -> 86 ;
87 [label="context-switches <= -0.33997\nmae = 1e-05\nsamples = 44\nvalue = -0.99871", fillcolor="#e5813900"] ;
83 -> 87 ;
88 [label="mae = 1e-05\nsamples = 21\nvalue = -0.99872", fillcolor="#e5813900"] ;
87 -> 88 ;
89 [label="mae = 0.0\nsamples = 23\nvalue = -0.99871", fillcolor="#e5813900"] ;
87 -> 89 ;
90 [label="cycles <= -0.08275\nmae = 0.0\nsamples = 20\nvalue = -0.99839", fillcolor="#e5813900"] ;
82 -> 90 ;
91 [label="branches <= 0.25267\nmae = 0.0\nsamples = 12\nvalue = -0.99839", fillcolor="#e5813900"] ;
90 -> 91 ;
92 [label="mae = 0.0\nsamples = 8\nvalue = -0.99839", fillcolor="#e5813900"] ;
91 -> 92 ;
93 [label="mae = 0.0\nsamples = 4\nvalue = -0.99839", fillcolor="#e5813900"] ;
91 -> 93 ;
94 [label="cycles <= -0.07771\nmae = 0.0\nsamples = 8\nvalue = -0.99838", fillcolor="#e5813900"] ;
90 -> 94 ;
95 [label="mae = 0.0\nsamples = 6\nvalue = -0.99838", fillcolor="#e5813900"] ;
94 -> 95 ;
96 [label="mae = 0.0\nsamples = 2\nvalue = -0.99838", fillcolor="#e5813900"] ;
94 -> 96 ;
97 [label="page-faults <= -0.51113\nmae = 0.00015\nsamples = 314\nvalue = -0.99948", fillcolor="#e5813900"] ;
65 -> 97 ;
98 [label="LLC-load-misses <= -0.80406\nmae = 6e-05\nsamples = 131\nvalue = -0.99964", fillcolor="#e5813900"] ;
97 -> 98 ;
99 [label="branch-misses <= -0.76821\nmae = 1e-05\nsamples = 9\nvalue = -0.99992", fillcolor="#e5813900"] ;
98 -> 99 ;
100 [label="mae = 0.0\nsamples = 2\nvalue = -0.99987", fillcolor="#e5813900"] ;
99 -> 100 ;
101 [label="L1-dcache-loads <= -0.56171\nmae = 0.0\nsamples = 7\nvalue = -0.99992", fillcolor="#e5813900"] ;
99 -> 101 ;
102 [label="mae = 0.0\nsamples = 6\nvalue = -0.99992", fillcolor="#e5813900"] ;
101 -> 102 ;
103 [label="mae = 0.0\nsamples = 1\nvalue = -0.9999", fillcolor="#e5813900"] ;
101 -> 103 ;
104 [label="Thread <= 0.45455\nmae = 4e-05\nsamples = 122\nvalue = -0.99963", fillcolor="#e5813900"] ;
98 -> 104 ;
105 [label="Thread <= 0.09091\nmae = 4e-05\nsamples = 32\nvalue = -0.99955", fillcolor="#e5813900"] ;
104 -> 105 ;
106 [label="mae = 4e-05\nsamples = 5\nvalue = -0.99941", fillcolor="#e5813900"] ;
105 -> 106 ;
107 [label="mae = 2e-05\nsamples = 27\nvalue = -0.99955", fillcolor="#e5813900"] ;
105 -> 107 ;
108 [label="Thread <= 0.81818\nmae = 2e-05\nsamples = 90\nvalue = -0.99966", fillcolor="#e5813900"] ;
104 -> 108 ;
109 [label="mae = 1e-05\nsamples = 43\nvalue = -0.99963", fillcolor="#e5813900"] ;
108 -> 109 ;
110 [label="mae = 1e-05\nsamples = 47\nvalue = -0.99967", fillcolor="#e5813900"] ;
108 -> 110 ;
111 [label="Thread <= -0.27273\nmae = 9e-05\nsamples = 183\nvalue = -0.99939", fillcolor="#e5813900"] ;
97 -> 111 ;
112 [label="LLC-stores <= 0.14117\nmae = 4e-05\nsamples = 62\nvalue = -0.99924", fillcolor="#e5813900"] ;
111 -> 112 ;
113 [label="cycles <= -0.04356\nmae = 0.0\nsamples = 21\nvalue = -0.99916", fillcolor="#e5813900"] ;
112 -> 113 ;
114 [label="mae = 0.0\nsamples = 6\nvalue = -0.99916", fillcolor="#e5813900"] ;
113 -> 114 ;
115 [label="mae = 0.0\nsamples = 15\nvalue = -0.99916", fillcolor="#e5813900"] ;
113 -> 115 ;
116 [label="L1-dcache-load-misses <= 0.78796\nmae = 2e-05\nsamples = 41\nvalue = -0.99925", fillcolor="#e5813900"] ;
112 -> 116 ;
117 [label="mae = 0.0\nsamples = 20\nvalue = -0.99927", fillcolor="#e5813900"] ;
116 -> 117 ;
118 [label="mae = 1e-05\nsamples = 21\nvalue = -0.99924", fillcolor="#e5813900"] ;
116 -> 118 ;
119 [label="L1-dcache-load-misses <= 0.96907\nmae = 4e-05\nsamples = 121\nvalue = -0.99941", fillcolor="#e5813900"] ;
111 -> 119 ;
120 [label="cache-misses <= -0.63413\nmae = 3e-05\nsamples = 34\nvalue = -0.99949", fillcolor="#e5813900"] ;
119 -> 120 ;
121 [label="mae = 1e-05\nsamples = 25\nvalue = -0.99948", fillcolor="#e5813900"] ;
120 -> 121 ;
122 [label="mae = 1e-05\nsamples = 9\nvalue = -0.99958", fillcolor="#e5813900"] ;
120 -> 122 ;
123 [label="instructions <= 0.99147\nmae = 2e-05\nsamples = 87\nvalue = -0.9994", fillcolor="#e5813900"] ;
119 -> 123 ;
124 [label="mae = 1e-05\nsamples = 85\nvalue = -0.9994", fillcolor="#e5813900"] ;
123 -> 124 ;
125 [label="mae = 0.0\nsamples = 2\nvalue = -0.99955", fillcolor="#e5813900"] ;
123 -> 125 ;
126 [label="LLC-load-misses <= -0.69719\nmae = 0.42166\nsamples = 179\nvalue = -0.65338", fillcolor="#e581392c"] ;
0 -> 126 [labeldistance=2.5, labelangle=-45, headlabel="False"] ;
127 [label="cycles <= -0.36839\nmae = 0.00779\nsamples = 24\nvalue = 0.98606", fillcolor="#e58139fd"] ;
126 -> 127 ;
128 [label="cycles <= -0.37429\nmae = 0.00427\nsamples = 14\nvalue = 0.98251", fillcolor="#e58139fd"] ;
127 -> 128 ;
129 [label="branches <= -0.26694\nmae = 0.00033\nsamples = 2\nvalue = 0.96726", fillcolor="#e58139fb"] ;
128 -> 129 ;
130 [label="mae = 0.0\nsamples = 1\nvalue = 0.96758", fillcolor="#e58139fb"] ;
129 -> 130 ;
131 [label="mae = 0.0\nsamples = 1\nvalue = 0.96693", fillcolor="#e58139fb"] ;
129 -> 131 ;
132 [label="cycles <= -0.37075\nmae = 0.00241\nsamples = 12\nvalue = 0.98279", fillcolor="#e58139fd"] ;
128 -> 132 ;
133 [label="cycles <= -0.37151\nmae = 0.00149\nsamples = 7\nvalue = 0.98071", fillcolor="#e58139fd"] ;
132 -> 133 ;
134 [label="LLC-load-misses <= -0.69762\nmae = 0.00063\nsamples = 4\nvalue = 0.9794", fillcolor="#e58139fc"] ;
133 -> 134 ;
135 [label="mae = 0.0\nsamples = 1\nvalue = 0.98071", fillcolor="#e58139fd"] ;
134 -> 135 ;
136 [label="mae = 0.00032\nsamples = 3\nvalue = 0.97916", fillcolor="#e58139fc"] ;
134 -> 136 ;
137 [label="minor-faults <= -0.93492\nmae = 0.00019\nsamples = 3\nvalue = 0.9827", fillcolor="#e58139fd"] ;
133 -> 137 ;
138 [label="mae = 0.0\nsamples = 1\nvalue = 0.98231", fillcolor="#e58139fd"] ;
137 -> 138 ;
139 [label="mae = 9e-05\nsamples = 2\nvalue = 0.98279", fillcolor="#e58139fd"] ;
137 -> 139 ;
140 [label="LLC-stores <= -0.57125\nmae = 0.0006\nsamples = 5\nvalue = 0.98546", fillcolor="#e58139fd"] ;
132 -> 140 ;
141 [label="LLC-stores <= -0.57126\nmae = 0.00017\nsamples = 3\nvalue = 0.98541", fillcolor="#e58139fd"] ;
140 -> 141 ;
142 [label="mae = 3e-05\nsamples = 2\nvalue = 0.98543", fillcolor="#e58139fd"] ;
141 -> 142 ;
143 [label="mae = 0.0\nsamples = 1\nvalue = 0.98496", fillcolor="#e58139fd"] ;
141 -> 143 ;
144 [label="cache-references <= 0.50735\nmae = 1e-05\nsamples = 2\nvalue = 0.98668", fillcolor="#e58139fd"] ;
140 -> 144 ;
145 [label="mae = 0.0\nsamples = 1\nvalue = 0.98669", fillcolor="#e58139fd"] ;
144 -> 145 ;
146 [label="mae = 0.0\nsamples = 1\nvalue = 0.98667", fillcolor="#e58139fd"] ;
144 -> 146 ;
147 [label="instructions <= -0.33812\nmae = 0.00116\nsamples = 10\nvalue = 0.99654", fillcolor="#e58139ff"] ;
127 -> 147 ;
148 [label="minor-faults <= -0.94738\nmae = 0.00047\nsamples = 3\nvalue = 0.99879", fillcolor="#e58139ff"] ;
147 -> 148 ;
149 [label="mae = 0.0\nsamples = 1\nvalue = 1.0", fillcolor="#e58139ff"] ;
148 -> 149 ;
150 [label="cycles <= -0.36574\nmae = 0.0001\nsamples = 2\nvalue = 0.99869", fillcolor="#e58139ff"] ;
148 -> 150 ;
151 [label="mae = 0.0\nsamples = 1\nvalue = 0.99858", fillcolor="#e58139ff"] ;
150 -> 151 ;
152 [label="mae = 0.0\nsamples = 1\nvalue = 0.99879", fillcolor="#e58139ff"] ;
150 -> 152 ;
153 [label="cycles <= -0.36683\nmae = 0.00046\nsamples = 7\nvalue = 0.99614", fillcolor="#e58139ff"] ;
147 -> 153 ;
154 [label="mae = 0.0\nsamples = 1\nvalue = 0.9948", fillcolor="#e58139fe"] ;
153 -> 154 ;
155 [label="cycles <= -0.36648\nmae = 0.00031\nsamples = 6\nvalue = 0.99629", fillcolor="#e58139ff"] ;
153 -> 155 ;
156 [label="LLC-stores <= -0.57089\nmae = 0.00014\nsamples = 3\nvalue = 0.99606", fillcolor="#e58139fe"] ;
155 -> 156 ;
157 [label="mae = 4e-05\nsamples = 2\nvalue = 0.9961", fillcolor="#e58139ff"] ;
156 -> 157 ;
158 [label="mae = 0.0\nsamples = 1\nvalue = 0.99572", fillcolor="#e58139fe"] ;
156 -> 158 ;
159 [label="LLC-load-misses <= -0.69748\nmae = 0.0001\nsamples = 3\nvalue = 0.99664", fillcolor="#e58139ff"] ;
155 -> 159 ;
160 [label="mae = 5e-05\nsamples = 2\nvalue = 0.99669", fillcolor="#e58139ff"] ;
159 -> 160 ;
161 [label="mae = 0.0\nsamples = 1\nvalue = 0.99643", fillcolor="#e58139ff"] ;
159 -> 161 ;
162 [label="branch-misses <= -0.79591\nmae = 0.23252\nsamples = 155\nvalue = -0.65805", fillcolor="#e581392c"] ;
126 -> 162 ;
163 [label="context-switches <= -0.44207\nmae = 0.01237\nsamples = 19\nvalue = 0.11932", fillcolor="#e581398f"] ;
162 -> 163 ;
164 [label="cache-references <= 0.50721\nmae = 0.00489\nsamples = 11\nvalue = 0.11262", fillcolor="#e581398e"] ;
163 -> 164 ;
165 [label="page-faults <= -0.88763\nmae = 0.00297\nsamples = 3\nvalue = 0.10307", fillcolor="#e581398d"] ;
164 -> 165 ;
166 [label="mae = 0.0\nsamples = 1\nvalue = 0.09795", fillcolor="#e581398c"] ;
165 -> 166 ;
167 [label="page-faults <= -0.87048\nmae = 0.0019\nsamples = 2\nvalue = 0.10497", fillcolor="#e581398d"] ;
165 -> 167 ;
168 [label="mae = 0.0\nsamples = 1\nvalue = 0.10307", fillcolor="#e581398d"] ;
167 -> 168 ;
169 [label="mae = 0.0\nsamples = 1\nvalue = 0.10688", fillcolor="#e581398d"] ;
167 -> 169 ;
170 [label="L1-dcache-load-misses <= -0.42001\nmae = 0.00296\nsamples = 8\nvalue = 0.11278", fillcolor="#e581398e"] ;
164 -> 170 ;
171 [label="LLC-stores <= -0.56938\nmae = 0.00104\nsamples = 6\nvalue = 0.11266", fillcolor="#e581398e"] ;
170 -> 171 ;
172 [label="mae = 0.00014\nsamples = 3\nvalue = 0.11286", fillcolor="#e581398e"] ;
171 -> 172 ;
173 [label="mae = 0.00093\nsamples = 3\nvalue = 0.10997", fillcolor="#e581398e"] ;
171 -> 173 ;
174 [label="context-switches <= -0.44449\nmae = 0.00211\nsamples = 2\nvalue = 0.12143", fillcolor="#e581398f"] ;
170 -> 174 ;
175 [label="mae = 0.0\nsamples = 1\nvalue = 0.12354", fillcolor="#e581398f"] ;
174 -> 175 ;
176 [label="mae = 0.0\nsamples = 1\nvalue = 0.11932", fillcolor="#e581398f"] ;
174 -> 176 ;
177 [label="cycles <= -0.3779\nmae = 0.00451\nsamples = 8\nvalue = 0.13772", fillcolor="#e5813991"] ;
163 -> 177 ;
178 [label="cycles <= -0.38049\nmae = 0.00049\nsamples = 2\nvalue = 0.12757", fillcolor="#e5813990"] ;
177 -> 178 ;
179 [label="mae = 0.0\nsamples = 1\nvalue = 0.12806", fillcolor="#e5813990"] ;
178 -> 179 ;
180 [label="mae = 0.0\nsamples = 1\nvalue = 0.12709", fillcolor="#e5813990"] ;
178 -> 180 ;
181 [label="branch-misses <= -0.85617\nmae = 0.00248\nsamples = 6\nvalue = 0.13915", fillcolor="#e5813991"] ;
177 -> 181 ;
182 [label="mae = 0.0\nsamples = 1\nvalue = 0.14423", fillcolor="#e5813992"] ;
181 -> 182 ;
183 [label="cpu-migrations <= -0.78073\nmae = 0.00176\nsamples = 5\nvalue = 0.13819", fillcolor="#e5813991"] ;
181 -> 183 ;
184 [label="mae = 0.00113\nsamples = 3\nvalue = 0.13724", fillcolor="#e5813991"] ;
183 -> 184 ;
185 [label="mae = 0.00033\nsamples = 2\nvalue = 0.14043", fillcolor="#e5813991"] ;
183 -> 185 ;
186 [label="branch-misses <= -0.68394\nmae = 0.155\nsamples = 136\nvalue = -0.71655", fillcolor="#e5813924"] ;
162 -> 186 ;
187 [label="cycles <= -0.32895\nmae = 0.00266\nsamples = 23\nvalue = -0.34536", fillcolor="#e5813953"] ;
186 -> 187 ;
188 [label="instructions <= -0.33595\nmae = 0.00116\nsamples = 9\nvalue = -0.34859", fillcolor="#e5813953"] ;
187 -> 188 ;
189 [label="LLC-load-misses <= -0.69582\nmae = 0.00012\nsamples = 2\nvalue = -0.35138", fillcolor="#e5813953"] ;
188 -> 189 ;
190 [label="mae = 0.0\nsamples = 1\nvalue = -0.35126", fillcolor="#e5813953"] ;
189 -> 190 ;
191 [label="mae = 0.0\nsamples = 1\nvalue = -0.3515", fillcolor="#e5813953"] ;
189 -> 191 ;
192 [label="LLC-load-misses <= -0.69563\nmae = 0.00069\nsamples = 7\nvalue = -0.34851", fillcolor="#e5813953"] ;
188 -> 192 ;
193 [label="mae = 0.00028\nsamples = 6\nvalue = -0.34855", fillcolor="#e5813953"] ;
192 -> 193 ;
194 [label="mae = 0.0\nsamples = 1\nvalue = -0.34536", fillcolor="#e5813953"] ;
192 -> 194 ;
195 [label="cycles <= -0.32538\nmae = 0.00168\nsamples = 14\nvalue = -0.3442", fillcolor="#e5813954"] ;
187 -> 195 ;
196 [label="page-faults <= -0.68766\nmae = 0.00074\nsamples = 7\nvalue = -0.34486", fillcolor="#e5813954"] ;
195 -> 196 ;
197 [label="mae = 0.00024\nsamples = 3\nvalue = -0.34612", fillcolor="#e5813953"] ;
196 -> 197 ;
198 [label="mae = 0.00035\nsamples = 4\nvalue = -0.3444", fillcolor="#e5813954"] ;
196 -> 198 ;
199 [label="LLC-load-misses <= -0.69584\nmae = 0.00154\nsamples = 7\nvalue = -0.34181", fillcolor="#e5813954"] ;
195 -> 199 ;
200 [label="mae = 0.00095\nsamples = 4\nvalue = -0.34112", fillcolor="#e5813954"] ;
199 -> 200 ;
201 [label="mae = 0.00073\nsamples = 3\nvalue = -0.34428", fillcolor="#e5813954"] ;
199 -> 201 ;
202 [label="cache-references <= 0.72199\nmae = 0.1105\nsamples = 113\nvalue = -0.72092", fillcolor="#e5813924"] ;
186 -> 202 ;
203 [label="branch-misses <= -0.55132\nmae = 0.06713\nsamples = 90\nvalue = -0.71655", fillcolor="#e5813924"] ;
202 -> 203 ;
204 [label="cycles <= -0.32575\nmae = 0.00323\nsamples = 19\nvalue = -0.54991", fillcolor="#e5813939"] ;
203 -> 204 ;
205 [label="mae = 0.00096\nsamples = 3\nvalue = -0.55852", fillcolor="#e5813938"] ;
204 -> 205 ;
206 [label="mae = 0.00222\nsamples = 16\nvalue = -0.54848", fillcolor="#e581393a"] ;
204 -> 206 ;
207 [label="Thread <= 0.45455\nmae = 0.03985\nsamples = 71\nvalue = -0.72034", fillcolor="#e5813924"] ;
203 -> 207 ;
208 [label="mae = 0.00251\nsamples = 25\nvalue = -0.65664", fillcolor="#e581392c"] ;
207 -> 208 ;
209 [label="mae = 0.02362\nsamples = 46\nvalue = -0.76442", fillcolor="#e581391e"] ;
207 -> 209 ;
210 [label="branch-misses <= 0.98734\nmae = 1e-05\nsamples = 23\nvalue = -0.99946", fillcolor="#e5813900"] ;
202 -> 210 ;
211 [label="context-switches <= 0.90435\nmae = 0.0\nsamples = 11\nvalue = -0.99947", fillcolor="#e5813900"] ;
210 -> 211 ;
212 [label="mae = 0.0\nsamples = 2\nvalue = -0.99947", fillcolor="#e5813900"] ;
211 -> 212 ;
213 [label="mae = 0.0\nsamples = 9\nvalue = -0.99946", fillcolor="#e5813900"] ;
211 -> 213 ;
214 [label="cycles <= 0.96215\nmae = 0.0\nsamples = 12\nvalue = -0.99946", fillcolor="#e5813900"] ;
210 -> 214 ;
215 [label="mae = 0.0\nsamples = 8\nvalue = -0.99946", fillcolor="#e5813900"] ;
214 -> 215 ;
216 [label="mae = 0.0\nsamples = 4\nvalue = -0.99945", fillcolor="#e5813900"] ;
214 -> 216 ;
}