digraph Tree {
node [shape=box, style="filled, rounded", color="black", fontname=helvetica] ;
edge [fontname=helvetica] ;
0 [label="LLC-loads <= 0.69775\nmae = 0.07195\nsamples = 1575\nvalue = -0.99984", fillcolor="#e5813900"] ;
1 [label="L1-dcache-load-misses <= -0.59353\nmae = 0.00034\nsamples = 1396\nvalue = -0.99988", fillcolor="#e5813900"] ;
0 -> 1 [labeldistance=2.5, labelangle=45, headlabel="True"] ;
2 [label="L1-dcache-load-misses <= -0.96494\nmae = 8e-05\nsamples = 921\nvalue = -0.99993", fillcolor="#e5813900"] ;
1 -> 2 ;
3 [label="mae = 3e-05\nsamples = 484\nvalue = -0.99999", fillcolor="#e5813900"] ;
2 -> 3 ;
4 [label="mae = 9e-05\nsamples = 437\nvalue = -0.99989", fillcolor="#e5813900"] ;
2 -> 4 ;
5 [label="Thread <= -0.63636\nmae = 0.00049\nsamples = 475\nvalue = -0.99939", fillcolor="#e5813900"] ;
1 -> 5 ;
6 [label="mae = 0.00063\nsamples = 161\nvalue = -0.99839", fillcolor="#e5813900"] ;
5 -> 6 ;
7 [label="mae = 0.00015\nsamples = 314\nvalue = -0.99948", fillcolor="#e5813900"] ;
5 -> 7 ;
8 [label="LLC-load-misses <= -0.69719\nmae = 0.42166\nsamples = 179\nvalue = -0.65338", fillcolor="#e581392c"] ;
0 -> 8 [labeldistance=2.5, labelangle=-45, headlabel="False"] ;
9 [label="cycles <= -0.36839\nmae = 0.00779\nsamples = 24\nvalue = 0.98606", fillcolor="#e58139fe"] ;
8 -> 9 ;
10 [label="mae = 0.00427\nsamples = 14\nvalue = 0.98251", fillcolor="#e58139fd"] ;
9 -> 10 ;
11 [label="mae = 0.00116\nsamples = 10\nvalue = 0.99654", fillcolor="#e58139ff"] ;
9 -> 11 ;
12 [label="cycles <= -0.35194\nmae = 0.23252\nsamples = 155\nvalue = -0.65805", fillcolor="#e581392c"] ;
8 -> 12 ;
13 [label="mae = 0.01237\nsamples = 19\nvalue = 0.11932", fillcolor="#e581398f"] ;
12 -> 13 ;
14 [label="mae = 0.155\nsamples = 136\nvalue = -0.71655", fillcolor="#e5813924"] ;
12 -> 14 ;
}