digraph Tree {
node [shape=box, style="filled, rounded", color="black", fontname=helvetica] ;
edge [fontname=helvetica] ;
0 [label="LLC-loads <= 0.69775\nmae = 0.07195\nsamples = 1575\nvalue = -0.99984", fillcolor="#e5813900"] ;
1 [label="L1-dcache-load-misses <= -0.59353\nmae = 0.00034\nsamples = 1396\nvalue = -0.99988", fillcolor="#e5813900"] ;
0 -> 1 [labeldistance=2.5, labelangle=45, headlabel="True"] ;
2 [label="L1-dcache-load-misses <= -0.96494\nmae = 8e-05\nsamples = 921\nvalue = -0.99993", fillcolor="#e5813900"] ;
1 -> 2 ;
3 [label="Thread <= -0.63636\nmae = 3e-05\nsamples = 484\nvalue = -0.99999", fillcolor="#e5813900"] ;
2 -> 3 ;
4 [label="LLC-load-misses <= -0.9951\nmae = 3e-05\nsamples = 129\nvalue = -0.99993", fillcolor="#e5813900"] ;
3 -> 4 ;
5 [label="L1-dcache-loads <= -0.97394\nmae = 1e-05\nsamples = 66\nvalue = -0.99994", fillcolor="#e5813900"] ;
4 -> 5 ;
6 [label="mae = 0.0\nsamples = 48\nvalue = -0.99994", fillcolor="#e5813900"] ;
5 -> 6 ;
7 [label="mae = 0.0\nsamples = 18\nvalue = -0.99993", fillcolor="#e5813900"] ;
5 -> 7 ;
8 [label="cache-references <= -0.99497\nmae = 1e-05\nsamples = 63\nvalue = -0.99989", fillcolor="#e5813900"] ;
4 -> 8 ;
9 [label="mae = 0.0\nsamples = 17\nvalue = -0.99986", fillcolor="#e5813900"] ;
8 -> 9 ;
10 [label="mae = 0.0\nsamples = 46\nvalue = -0.99989", fillcolor="#e5813900"] ;
8 -> 10 ;
11 [label="Thread <= 0.09091\nmae = 1e-05\nsamples = 355\nvalue = -0.99999", fillcolor="#e5813900"] ;
3 -> 11 ;
12 [label="Thread <= -0.27273\nmae = 1e-05\nsamples = 136\nvalue = -0.99998", fillcolor="#e5813900"] ;
11 -> 12 ;
13 [label="mae = 0.0\nsamples = 67\nvalue = -0.99998", fillcolor="#e5813900"] ;
12 -> 13 ;
14 [label="mae = 0.0\nsamples = 69\nvalue = -0.99999", fillcolor="#e5813900"] ;
12 -> 14 ;
15 [label="LLC-load-misses <= -0.99411\nmae = 0.0\nsamples = 219\nvalue = -0.99999", fillcolor="#e5813900"] ;
11 -> 15 ;
16 [label="mae = 0.0\nsamples = 72\nvalue = -1.0", fillcolor="#e5813900"] ;
15 -> 16 ;
17 [label="mae = 0.0\nsamples = 147\nvalue = -0.99999", fillcolor="#e5813900"] ;
15 -> 17 ;
18 [label="Thread <= -0.63636\nmae = 9e-05\nsamples = 437\nvalue = -0.99989", fillcolor="#e5813900"] ;
2 -> 18 ;
19 [label="Thread <= -0.90909\nmae = 0.00011\nsamples = 100\nvalue = -0.99963", fillcolor="#e5813900"] ;
18 -> 19 ;
20 [label="cache-misses <= -0.97872\nmae = 3e-05\nsamples = 43\nvalue = -0.99948", fillcolor="#e5813900"] ;
19 -> 20 ;
21 [label="mae = 0.0\nsamples = 2\nvalue = -0.99986", fillcolor="#e5813900"] ;
20 -> 21 ;
22 [label="mae = 1e-05\nsamples = 41\nvalue = -0.99947", fillcolor="#e5813900"] ;
20 -> 22 ;
23 [label="LLC-stores <= -0.78813\nmae = 2e-05\nsamples = 57\nvalue = -0.9997", fillcolor="#e5813900"] ;
19 -> 23 ;
24 [label="mae = 1e-05\nsamples = 13\nvalue = -0.99963", fillcolor="#e5813900"] ;
23 -> 24 ;
25 [label="mae = 1e-05\nsamples = 44\nvalue = -0.9997", fillcolor="#e5813900"] ;
23 -> 25 ;
26 [label="Thread <= -0.27273\nmae = 3e-05\nsamples = 337\nvalue = -0.9999", fillcolor="#e5813900"] ;
18 -> 26 ;
27 [label="cycles <= -0.82311\nmae = 1e-05\nsamples = 71\nvalue = -0.99983", fillcolor="#e5813900"] ;
26 -> 27 ;
28 [label="mae = 1e-05\nsamples = 41\nvalue = -0.99985", fillcolor="#e5813900"] ;
27 -> 28 ;
29 [label="mae = 0.0\nsamples = 30\nvalue = -0.99981", fillcolor="#e5813900"] ;
27 -> 29 ;
30 [label="Thread <= 0.45455\nmae = 2e-05\nsamples = 266\nvalue = -0.99991", fillcolor="#e5813900"] ;
26 -> 30 ;
31 [label="mae = 1e-05\nsamples = 135\nvalue = -0.9999", fillcolor="#e5813900"] ;
30 -> 31 ;
32 [label="mae = 1e-05\nsamples = 131\nvalue = -0.99993", fillcolor="#e5813900"] ;
30 -> 32 ;
33 [label="Thread <= -0.63636\nmae = 0.00049\nsamples = 475\nvalue = -0.99939", fillcolor="#e5813900"] ;
1 -> 33 ;
34 [label="Thread <= -0.90909\nmae = 0.00063\nsamples = 161\nvalue = -0.99839", fillcolor="#e5813900"] ;
33 -> 34 ;
35 [label="LLC-loads <= -0.82086\nmae = 0.00055\nsamples = 92\nvalue = -0.99766", fillcolor="#e5813900"] ;
34 -> 35 ;
36 [label="LLC-loads <= -0.93092\nmae = 0.0\nsamples = 22\nvalue = -0.99934", fillcolor="#e5813900"] ;
35 -> 36 ;
37 [label="mae = 0.0\nsamples = 19\nvalue = -0.99934", fillcolor="#e5813900"] ;
36 -> 37 ;
38 [label="mae = 0.0\nsamples = 3\nvalue = -0.99934", fillcolor="#e5813900"] ;
36 -> 38 ;
39 [label="LLC-stores <= 0.36718\nmae = 0.00019\nsamples = 70\nvalue = -0.99764", fillcolor="#e5813900"] ;
35 -> 39 ;
40 [label="mae = 1e-05\nsamples = 23\nvalue = -0.99718", fillcolor="#e5813900"] ;
39 -> 40 ;
41 [label="mae = 6e-05\nsamples = 47\nvalue = -0.99766", fillcolor="#e5813900"] ;
39 -> 41 ;
42 [label="L1-dcache-loads <= 0.57423\nmae = 0.00016\nsamples = 69\nvalue = -0.99871", fillcolor="#e5813900"] ;
34 -> 42 ;
43 [label="L1-dcache-load-misses <= -0.00671\nmae = 0.0001\nsamples = 49\nvalue = -0.99871", fillcolor="#e5813900"] ;
42 -> 43 ;
44 [label="mae = 0.0\nsamples = 5\nvalue = -0.99962", fillcolor="#e5813900"] ;
43 -> 44 ;
45 [label="mae = 1e-05\nsamples = 44\nvalue = -0.99871", fillcolor="#e5813900"] ;
43 -> 45 ;
46 [label="cycles <= -0.08275\nmae = 0.0\nsamples = 20\nvalue = -0.99839", fillcolor="#e5813900"] ;
42 -> 46 ;
47 [label="mae = 0.0\nsamples = 12\nvalue = -0.99839", fillcolor="#e5813900"] ;
46 -> 47 ;
48 [label="mae = 0.0\nsamples = 8\nvalue = -0.99838", fillcolor="#e5813900"] ;
46 -> 48 ;
49 [label="minor-faults <= -0.51113\nmae = 0.00015\nsamples = 314\nvalue = -0.99948", fillcolor="#e5813900"] ;
33 -> 49 ;
50 [label="branch-misses <= -0.56643\nmae = 6e-05\nsamples = 131\nvalue = -0.99964", fillcolor="#e5813900"] ;
49 -> 50 ;
51 [label="cache-references <= -0.90315\nmae = 1e-05\nsamples = 9\nvalue = -0.99992", fillcolor="#e5813900"] ;
50 -> 51 ;
52 [label="mae = 0.0\nsamples = 2\nvalue = -0.99987", fillcolor="#e5813900"] ;
51 -> 52 ;
53 [label="mae = 0.0\nsamples = 7\nvalue = -0.99992", fillcolor="#e5813900"] ;
51 -> 53 ;
54 [label="Thread <= 0.45455\nmae = 4e-05\nsamples = 122\nvalue = -0.99963", fillcolor="#e5813900"] ;
50 -> 54 ;
55 [label="mae = 4e-05\nsamples = 32\nvalue = -0.99955", fillcolor="#e5813900"] ;
54 -> 55 ;
56 [label="mae = 2e-05\nsamples = 90\nvalue = -0.99966", fillcolor="#e5813900"] ;
54 -> 56 ;
57 [label="Thread <= -0.27273\nmae = 9e-05\nsamples = 183\nvalue = -0.99939", fillcolor="#e5813900"] ;
49 -> 57 ;
58 [label="L1-dcache-stores <= 0.54611\nmae = 4e-05\nsamples = 62\nvalue = -0.99924", fillcolor="#e5813900"] ;
57 -> 58 ;
59 [label="mae = 2e-05\nsamples = 41\nvalue = -0.99925", fillcolor="#e5813900"] ;
58 -> 59 ;
60 [label="mae = 0.0\nsamples = 21\nvalue = -0.99916", fillcolor="#e5813900"] ;
58 -> 60 ;
61 [label="L1-dcache-load-misses <= 0.96907\nmae = 4e-05\nsamples = 121\nvalue = -0.99941", fillcolor="#e5813900"] ;
57 -> 61 ;
62 [label="mae = 3e-05\nsamples = 34\nvalue = -0.99949", fillcolor="#e5813900"] ;
61 -> 62 ;
63 [label="mae = 2e-05\nsamples = 87\nvalue = -0.9994", fillcolor="#e5813900"] ;
61 -> 63 ;
64 [label="LLC-load-misses <= -0.69719\nmae = 0.42166\nsamples = 179\nvalue = -0.65338", fillcolor="#e581392c"] ;
0 -> 64 [labeldistance=2.5, labelangle=-45, headlabel="False"] ;
65 [label="cycles <= -0.36839\nmae = 0.00779\nsamples = 24\nvalue = 0.98606", fillcolor="#e58139fd"] ;
64 -> 65 ;
66 [label="context-switches <= -0.51866\nmae = 0.00427\nsamples = 14\nvalue = 0.98251", fillcolor="#e58139fd"] ;
65 -> 66 ;
67 [label="cache-misses <= -0.74193\nmae = 0.00033\nsamples = 2\nvalue = 0.96726", fillcolor="#e58139fb"] ;
66 -> 67 ;
68 [label="mae = 0.0\nsamples = 1\nvalue = 0.96693", fillcolor="#e58139fb"] ;
67 -> 68 ;
69 [label="mae = 0.0\nsamples = 1\nvalue = 0.96758", fillcolor="#e58139fb"] ;
67 -> 69 ;
70 [label="cycles <= -0.37075\nmae = 0.00241\nsamples = 12\nvalue = 0.98279", fillcolor="#e58139fd"] ;
66 -> 70 ;
71 [label="cycles <= -0.37151\nmae = 0.00149\nsamples = 7\nvalue = 0.98071", fillcolor="#e58139fd"] ;
70 -> 71 ;
72 [label="mae = 0.00063\nsamples = 4\nvalue = 0.9794", fillcolor="#e58139fc"] ;
71 -> 72 ;
73 [label="mae = 0.00019\nsamples = 3\nvalue = 0.9827", fillcolor="#e58139fd"] ;
71 -> 73 ;
74 [label="cycles <= -0.37012\nmae = 0.0006\nsamples = 5\nvalue = 0.98546", fillcolor="#e58139fd"] ;
70 -> 74 ;
75 [label="mae = 0.00017\nsamples = 3\nvalue = 0.98541", fillcolor="#e58139fd"] ;
74 -> 75 ;
76 [label="mae = 1e-05\nsamples = 2\nvalue = 0.98668", fillcolor="#e58139fd"] ;
74 -> 76 ;
77 [label="context-switches <= -0.51275\nmae = 0.00116\nsamples = 10\nvalue = 0.99654", fillcolor="#e58139ff"] ;
65 -> 77 ;
78 [label="LLC-load-misses <= -0.6976\nmae = 0.00046\nsamples = 7\nvalue = 0.99614", fillcolor="#e58139ff"] ;
77 -> 78 ;
79 [label="mae = 0.0\nsamples = 1\nvalue = 0.9948", fillcolor="#e58139fe"] ;
78 -> 79 ;
80 [label="cycles <= -0.36648\nmae = 0.00031\nsamples = 6\nvalue = 0.99629", fillcolor="#e58139ff"] ;
78 -> 80 ;
81 [label="mae = 0.00014\nsamples = 3\nvalue = 0.99606", fillcolor="#e58139fe"] ;
80 -> 81 ;
82 [label="mae = 0.0001\nsamples = 3\nvalue = 0.99664", fillcolor="#e58139ff"] ;
80 -> 82 ;
83 [label="branches <= -0.26635\nmae = 0.00047\nsamples = 3\nvalue = 0.99879", fillcolor="#e58139ff"] ;
77 -> 83 ;
84 [label="mae = 0.0\nsamples = 1\nvalue = 1.0", fillcolor="#e58139ff"] ;
83 -> 84 ;
85 [label="context-switches <= -0.5121\nmae = 0.0001\nsamples = 2\nvalue = 0.99869", fillcolor="#e58139ff"] ;
83 -> 85 ;
86 [label="mae = 0.0\nsamples = 1\nvalue = 0.99879", fillcolor="#e58139ff"] ;
85 -> 86 ;
87 [label="mae = 0.0\nsamples = 1\nvalue = 0.99858", fillcolor="#e58139ff"] ;
85 -> 87 ;
88 [label="cycles <= -0.35194\nmae = 0.23252\nsamples = 155\nvalue = -0.65805", fillcolor="#e581392c"] ;
64 -> 88 ;
89 [label="cache-misses <= -0.73803\nmae = 0.01237\nsamples = 19\nvalue = 0.11932", fillcolor="#e581398f"] ;
88 -> 89 ;
90 [label="cache-references <= 0.50721\nmae = 0.00489\nsamples = 11\nvalue = 0.11262", fillcolor="#e581398e"] ;
89 -> 90 ;
91 [label="context-switches <= -0.45352\nmae = 0.00297\nsamples = 3\nvalue = 0.10307", fillcolor="#e581398d"] ;
90 -> 91 ;
92 [label="mae = 0.0\nsamples = 1\nvalue = 0.09795", fillcolor="#e581398c"] ;
91 -> 92 ;
93 [label="mae = 0.0019\nsamples = 2\nvalue = 0.10497", fillcolor="#e581398d"] ;
91 -> 93 ;
94 [label="LLC-store-misses <= -0.98277\nmae = 0.00296\nsamples = 8\nvalue = 0.11278", fillcolor="#e581398e"] ;
90 -> 94 ;
95 [label="mae = 0.00104\nsamples = 6\nvalue = 0.11266", fillcolor="#e581398e"] ;
94 -> 95 ;
96 [label="mae = 0.00211\nsamples = 2\nvalue = 0.12143", fillcolor="#e581398f"] ;
94 -> 96 ;
97 [label="cycles <= -0.3779\nmae = 0.00451\nsamples = 8\nvalue = 0.13772", fillcolor="#e5813991"] ;
89 -> 97 ;
98 [label="LLC-stores <= -0.56734\nmae = 0.00049\nsamples = 2\nvalue = 0.12757", fillcolor="#e5813990"] ;
97 -> 98 ;
99 [label="mae = 0.0\nsamples = 1\nvalue = 0.12806", fillcolor="#e5813990"] ;
98 -> 99 ;
100 [label="mae = 0.0\nsamples = 1\nvalue = 0.12709", fillcolor="#e5813990"] ;
98 -> 100 ;
101 [label="cache-references <= 0.51077\nmae = 0.00248\nsamples = 6\nvalue = 0.13915", fillcolor="#e5813991"] ;
97 -> 101 ;
102 [label="mae = 0.00176\nsamples = 5\nvalue = 0.13819", fillcolor="#e5813991"] ;
101 -> 102 ;
103 [label="mae = 0.0\nsamples = 1\nvalue = 0.14423", fillcolor="#e5813992"] ;
101 -> 103 ;
104 [label="Thread <= -0.27273\nmae = 0.155\nsamples = 136\nvalue = -0.71655", fillcolor="#e5813924"] ;
88 -> 104 ;
105 [label="cycles <= -0.32895\nmae = 0.00266\nsamples = 23\nvalue = -0.34536", fillcolor="#e5813953"] ;
104 -> 105 ;
106 [label="instructions <= -0.33595\nmae = 0.00116\nsamples = 9\nvalue = -0.34859", fillcolor="#e5813953"] ;
105 -> 106 ;
107 [label="mae = 0.00012\nsamples = 2\nvalue = -0.35138", fillcolor="#e5813953"] ;
106 -> 107 ;
108 [label="mae = 0.00069\nsamples = 7\nvalue = -0.34851", fillcolor="#e5813953"] ;
106 -> 108 ;
109 [label="cycles <= -0.32538\nmae = 0.00168\nsamples = 14\nvalue = -0.3442", fillcolor="#e5813954"] ;
105 -> 109 ;
110 [label="mae = 0.00074\nsamples = 7\nvalue = -0.34486", fillcolor="#e5813954"] ;
109 -> 110 ;
111 [label="mae = 0.00154\nsamples = 7\nvalue = -0.34181", fillcolor="#e5813954"] ;
109 -> 111 ;
112 [label="cache-references <= 0.72199\nmae = 0.1105\nsamples = 113\nvalue = -0.72092", fillcolor="#e5813924"] ;
104 -> 112 ;
113 [label="branch-misses <= -0.55132\nmae = 0.06713\nsamples = 90\nvalue = -0.71655", fillcolor="#e5813924"] ;
112 -> 113 ;
114 [label="mae = 0.00323\nsamples = 19\nvalue = -0.54991", fillcolor="#e5813939"] ;
113 -> 114 ;
115 [label="mae = 0.03985\nsamples = 71\nvalue = -0.72034", fillcolor="#e5813924"] ;
113 -> 115 ;
116 [label="branch-misses <= 0.98734\nmae = 1e-05\nsamples = 23\nvalue = -0.99946", fillcolor="#e5813900"] ;
112 -> 116 ;
117 [label="mae = 0.0\nsamples = 11\nvalue = -0.99947", fillcolor="#e5813900"] ;
116 -> 117 ;
118 [label="mae = 0.0\nsamples = 12\nvalue = -0.99946", fillcolor="#e5813900"] ;
116 -> 118 ;
}