digraph Tree {
node [shape=box, style="filled, rounded", color="black", fontname=helvetica] ;
edge [fontname=helvetica] ;
0 [label="LLC-loads <= 2.20302\nmae = 0.25186\nsamples = 1575\nvalue = -0.254", fillcolor="#e5813900"] ;
1 [label="L1-dcache-load-misses <= -0.40828\nmae = 0.00118\nsamples = 1396\nvalue = -0.25414", fillcolor="#e5813900"] ;
0 -> 1 [labeldistance=2.5, labelangle=45, headlabel="True"] ;
2 [label="L1-dcache-load-misses <= -0.89293\nmae = 0.00027\nsamples = 921\nvalue = -0.25432", fillcolor="#e5813900"] ;
1 -> 2 ;
3 [label="Thread <= -0.82798\nmae = 9e-05\nsamples = 484\nvalue = -0.25451", fillcolor="#e5813900"] ;
2 -> 3 ;
4 [label="Thread <= -1.22315\nmae = 0.00011\nsamples = 129\nvalue = -0.25429", fillcolor="#e5813900"] ;
3 -> 4 ;
5 [label="mae = 3e-05\nsamples = 63\nvalue = -0.25416", fillcolor="#e5813900"] ;
4 -> 5 ;
6 [label="mae = 2e-05\nsamples = 66\nvalue = -0.25436", fillcolor="#e5813900"] ;
4 -> 6 ;
7 [label="Thread <= 0.22581\nmae = 2e-05\nsamples = 355\nvalue = -0.25453", fillcolor="#e5813900"] ;
3 -> 7 ;
8 [label="mae = 2e-05\nsamples = 136\nvalue = -0.25449", fillcolor="#e5813900"] ;
7 -> 8 ;
9 [label="mae = 1e-05\nsamples = 219\nvalue = -0.25454", fillcolor="#e5813900"] ;
7 -> 9 ;
10 [label="Thread <= -0.82798\nmae = 0.00032\nsamples = 437\nvalue = -0.25418", fillcolor="#e5813900"] ;
2 -> 10 ;
11 [label="Thread <= -1.22315\nmae = 0.00037\nsamples = 100\nvalue = -0.25327", fillcolor="#e5813900"] ;
10 -> 11 ;
12 [label="mae = 0.00011\nsamples = 43\nvalue = -0.25272", fillcolor="#e5813900"] ;
11 -> 12 ;
13 [label="mae = 7e-05\nsamples = 57\nvalue = -0.25351", fillcolor="#e5813900"] ;
11 -> 13 ;
14 [label="Thread <= -0.30108\nmae = 0.00011\nsamples = 337\nvalue = -0.25421", fillcolor="#e5813900"] ;
10 -> 14 ;
15 [label="mae = 5e-05\nsamples = 71\nvalue = -0.25396", fillcolor="#e5813900"] ;
14 -> 15 ;
16 [label="mae = 7e-05\nsamples = 266\nvalue = -0.25423", fillcolor="#e5813900"] ;
14 -> 16 ;
17 [label="Thread <= -0.82798\nmae = 0.00171\nsamples = 475\nvalue = -0.2524", fillcolor="#e5813900"] ;
1 -> 17 ;
18 [label="Thread <= -1.22315\nmae = 0.00222\nsamples = 161\nvalue = -0.24892", fillcolor="#e5813900"] ;
17 -> 18 ;
19 [label="instructions <= 0.3011\nmae = 0.00192\nsamples = 92\nvalue = -0.24635", fillcolor="#e5813900"] ;
18 -> 19 ;
20 [label="mae = 0.0\nsamples = 22\nvalue = -0.25224", fillcolor="#e5813900"] ;
19 -> 20 ;
21 [label="mae = 0.00067\nsamples = 70\nvalue = -0.24628", fillcolor="#e5813900"] ;
19 -> 21 ;
22 [label="context-switches <= 0.68443\nmae = 0.00058\nsamples = 69\nvalue = -0.25003", fillcolor="#e5813900"] ;
18 -> 22 ;
23 [label="mae = 0.00035\nsamples = 49\nvalue = -0.25004", fillcolor="#e5813900"] ;
22 -> 23 ;
24 [label="mae = 2e-05\nsamples = 20\nvalue = -0.24891", fillcolor="#e5813900"] ;
22 -> 24 ;
25 [label="minor-faults <= 1.00355\nmae = 0.00052\nsamples = 314\nvalue = -0.25274", fillcolor="#e5813900"] ;
17 -> 25 ;
26 [label="minor-faults <= -0.40466\nmae = 0.00021\nsamples = 131\nvalue = -0.25328", fillcolor="#e5813900"] ;
25 -> 26 ;
27 [label="mae = 5e-05\nsamples = 9\nvalue = -0.25429", fillcolor="#e5813900"] ;
26 -> 27 ;
28 [label="mae = 0.00015\nsamples = 122\nvalue = -0.25327", fillcolor="#e5813900"] ;
26 -> 28 ;
29 [label="Thread <= -0.30108\nmae = 0.00031\nsamples = 183\nvalue = -0.25244", fillcolor="#e5813900"] ;
25 -> 29 ;
30 [label="mae = 0.00014\nsamples = 62\nvalue = -0.25188", fillcolor="#e5813900"] ;
29 -> 30 ;
31 [label="mae = 0.00014\nsamples = 121\nvalue = -0.25249", fillcolor="#e5813900"] ;
29 -> 31 ;
32 [label="LLC-load-misses <= 0.23285\nmae = 1.47596\nsamples = 179\nvalue = 0.95873", fillcolor="#e581392c"] ;
0 -> 32 [labeldistance=2.5, labelangle=-45, headlabel="False"] ;
33 [label="cycles <= 0.42071\nmae = 0.02726\nsamples = 24\nvalue = 6.69734", fillcolor="#e58139fd"] ;
32 -> 33 ;
34 [label="cycles <= 0.4078\nmae = 0.01495\nsamples = 14\nvalue = 6.68489", fillcolor="#e58139fd"] ;
33 -> 34 ;
35 [label="branch-misses <= -0.71247\nmae = 0.00115\nsamples = 2\nvalue = 6.63151", fillcolor="#e58139fb"] ;
34 -> 35 ;
36 [label="mae = 0.0\nsamples = 1\nvalue = 6.63265", fillcolor="#e58139fb"] ;
35 -> 36 ;
37 [label="mae = 0.0\nsamples = 1\nvalue = 6.63036", fillcolor="#e58139fb"] ;
35 -> 37 ;
38 [label="cycles <= 0.41555\nmae = 0.00843\nsamples = 12\nvalue = 6.6859", fillcolor="#e58139fd"] ;
34 -> 38 ;
39 [label="mae = 0.00522\nsamples = 7\nvalue = 6.67859", fillcolor="#e58139fd"] ;
38 -> 39 ;
40 [label="mae = 0.00209\nsamples = 5\nvalue = 6.69522", fillcolor="#e58139fd"] ;
38 -> 40 ;
41 [label="instructions <= 0.10017\nmae = 0.00406\nsamples = 10\nvalue = 6.734", fillcolor="#e58139ff"] ;
33 -> 41 ;
42 [label="branches <= 0.23531\nmae = 0.00165\nsamples = 3\nvalue = 6.7419", fillcolor="#e58139ff"] ;
41 -> 42 ;
43 [label="mae = 0.0\nsamples = 1\nvalue = 6.74612", fillcolor="#e58139ff"] ;
42 -> 43 ;
44 [label="mae = 0.00037\nsamples = 2\nvalue = 6.74153", fillcolor="#e58139ff"] ;
42 -> 44 ;
45 [label="LLC-load-misses <= 0.23164\nmae = 0.00161\nsamples = 7\nvalue = 6.73262", fillcolor="#e58139ff"] ;
41 -> 45 ;
46 [label="mae = 0.0\nsamples = 1\nvalue = 6.72793", fillcolor="#e58139fe"] ;
45 -> 46 ;
47 [label="mae = 0.0011\nsamples = 6\nvalue = 6.73312", fillcolor="#e58139ff"] ;
45 -> 47 ;
48 [label="branches <= 0.25259\nmae = 0.81389\nsamples = 155\nvalue = 0.94238", fillcolor="#e581392c"] ;
32 -> 48 ;
49 [label="context-switches <= 0.27548\nmae = 0.04329\nsamples = 19\nvalue = 3.66343", fillcolor="#e581398f"] ;
48 -> 49 ;
50 [label="cache-references <= 2.05168\nmae = 0.01713\nsamples = 11\nvalue = 3.64", fillcolor="#e581398e"] ;
49 -> 50 ;
51 [label="mae = 0.01041\nsamples = 3\nvalue = 3.60656", fillcolor="#e581398d"] ;
50 -> 51 ;
52 [label="mae = 0.01037\nsamples = 8\nvalue = 3.64056", fillcolor="#e581398e"] ;
50 -> 52 ;
53 [label="cycles <= 0.39987\nmae = 0.01579\nsamples = 8\nvalue = 3.72784", fillcolor="#e5813991"] ;
49 -> 53 ;
54 [label="mae = 0.0017\nsamples = 2\nvalue = 3.69233", fillcolor="#e5813990"] ;
53 -> 54 ;
55 [label="mae = 0.00867\nsamples = 6\nvalue = 3.73285", fillcolor="#e5813991"] ;
53 -> 55 ;
56 [label="branch-misses <= -0.37703\nmae = 0.54256\nsamples = 136\nvalue = 0.73763", fillcolor="#e5813924"] ;
48 -> 56 ;
57 [label="cycles <= 0.50717\nmae = 0.00932\nsamples = 23\nvalue = 2.03692", fillcolor="#e5813953"] ;
56 -> 57 ;
58 [label="mae = 0.00407\nsamples = 9\nvalue = 2.02562", fillcolor="#e5813953"] ;
57 -> 58 ;
59 [label="mae = 0.00589\nsamples = 14\nvalue = 2.04096", fillcolor="#e5813954"] ;
57 -> 59 ;
60 [label="context-switches <= 1.92927\nmae = 0.38678\nsamples = 113\nvalue = 0.72233", fillcolor="#e5813924"] ;
56 -> 60 ;
61 [label="mae = 0.23498\nsamples = 90\nvalue = 0.73763", fillcolor="#e5813924"] ;
60 -> 61 ;
62 [label="mae = 2e-05\nsamples = 23\nvalue = -0.25267", fillcolor="#e5813900"] ;
60 -> 62 ;
}