digraph Tree {
node [shape=box, style="filled, rounded", color="black", fontname=helvetica] ;
edge [fontname=helvetica] ;
0 [label="LLC-loads <= 36810123264.0\nmae = 27412.21538\nsamples = 1575\nvalue = 67.02", fillcolor="#e5813900"] ;
1 [label="L1-dcache-load-misses <= 29649180672.0\nmae = 128.30727\nsamples = 1396\nvalue = 51.715", fillcolor="#e5813900"] ;
0 -> 1 [labeldistance=2.5, labelangle=45, headlabel="True"] ;
2 [label="L1-dcache-load-misses <= 6942796032.0\nmae = 29.66929\nsamples = 921\nvalue = 32.19", fillcolor="#e5813900"] ;
1 -> 2 ;
3 [label="Thread <= 3.0\nmae = 9.8318\nsamples = 484\nvalue = 10.505", fillcolor="#e5813900"] ;
2 -> 3 ;
4 [label="LLC-load-misses <= 202261864.0\nmae = 11.58519\nsamples = 129\nvalue = 34.64", fillcolor="#e5813900"] ;
3 -> 4 ;
5 [label="cycles <= 166622740480.0\nmae = 1.92076\nsamples = 66\nvalue = 27.53", fillcolor="#e5813900"] ;
4 -> 5 ;
6 [label="context-switches <= 4474.5\nmae = 0.57458\nsamples = 48\nvalue = 27.315", fillcolor="#e5813900"] ;
5 -> 6 ;
7 [label="mae = 0.48545\nsamples = 11\nvalue = 25.63", fillcolor="#e5813900"] ;
6 -> 7 ;
8 [label="mae = 0.25838\nsamples = 37\nvalue = 27.47", fillcolor="#e5813900"] ;
6 -> 8 ;
9 [label="context-switches <= 5617.0\nmae = 1.10944\nsamples = 18\nvalue = 32.85", fillcolor="#e5813900"] ;
5 -> 9 ;
10 [label="mae = 0.62636\nsamples = 11\nvalue = 32.19", fillcolor="#e5813900"] ;
9 -> 10 ;
11 [label="mae = 0.3\nsamples = 7\nvalue = 34.51", fillcolor="#e5813900"] ;
9 -> 11 ;
12 [label="L1-dcache-stores <= 37602385920.0\nmae = 3.4627\nsamples = 63\nvalue = 48.99", fillcolor="#e5813900"] ;
4 -> 12 ;
13 [label="context-switches <= 4111.0\nmae = 0.28109\nsamples = 46\nvalue = 48.71", fillcolor="#e5813900"] ;
12 -> 13 ;
14 [label="mae = 0.148\nsamples = 35\nvalue = 48.68", fillcolor="#e5813900"] ;
13 -> 14 ;
15 [label="mae = 0.11545\nsamples = 11\nvalue = 49.38", fillcolor="#e5813900"] ;
13 -> 15 ;
16 [label="cycles <= 184876474368.0\nmae = 0.07294\nsamples = 17\nvalue = 60.87", fillcolor="#e5813900"] ;
12 -> 16 ;
17 [label="mae = 0.00571\nsamples = 7\nvalue = 60.8", fillcolor="#e5813900"] ;
16 -> 17 ;
18 [label="mae = 0.065\nsamples = 10\nvalue = 60.915", fillcolor="#e5813900"] ;
16 -> 18 ;
19 [label="Thread <= 7.0\nmae = 2.32575\nsamples = 355\nvalue = 8.76", fillcolor="#e5813900"] ;
3 -> 19 ;
20 [label="Thread <= 5.0\nmae = 2.18169\nsamples = 136\nvalue = 13.24", fillcolor="#e5813900"] ;
19 -> 20 ;
21 [label="L1-dcache-loads <= 85604401152.0\nmae = 1.52209\nsamples = 67\nvalue = 14.76", fillcolor="#e5813900"] ;
20 -> 21 ;
22 [label="mae = 0.37696\nsamples = 46\nvalue = 14.39", fillcolor="#e5813900"] ;
21 -> 22 ;
23 [label="mae = 0.0781\nsamples = 21\nvalue = 18.58", fillcolor="#e5813900"] ;
21 -> 23 ;
24 [label="cache-references <= 729469440.0\nmae = 0.9658\nsamples = 69\nvalue = 10.67", fillcolor="#e5813900"] ;
20 -> 24 ;
25 [label="mae = 0.1696\nsamples = 25\nvalue = 12.92", fillcolor="#e5813900"] ;
24 -> 25 ;
26 [label="mae = 0.21068\nsamples = 44\nvalue = 10.495", fillcolor="#e5813900"] ;
24 -> 26 ;
27 [label="instructions <= 243726483456.0\nmae = 0.67731\nsamples = 219\nvalue = 8.22", fillcolor="#e5813900"] ;
19 -> 27 ;
28 [label="LLC-stores <= 1783061824.0\nmae = 0.56931\nsamples = 72\nvalue = 7.21", fillcolor="#e5813900"] ;
27 -> 28 ;
29 [label="mae = 0.07227\nsamples = 22\nvalue = 6.335", fillcolor="#e5813900"] ;
28 -> 29 ;
30 [label="mae = 0.3716\nsamples = 50\nvalue = 7.765", fillcolor="#e5813900"] ;
28 -> 30 ;
31 [label="LLC-load-misses <= 261161360.0\nmae = 0.42014\nsamples = 147\nvalue = 8.56", fillcolor="#e5813900"] ;
27 -> 31 ;
32 [label="mae = 0.14739\nsamples = 23\nvalue = 9.46", fillcolor="#e5813900"] ;
31 -> 32 ;
33 [label="mae = 0.31798\nsamples = 124\nvalue = 8.48", fillcolor="#e5813900"] ;
31 -> 33 ;
34 [label="cpu-migrations <= 16.0\nmae = 35.16622\nsamples = 437\nvalue = 47.14", fillcolor="#e5813900"] ;
2 -> 34 ;
35 [label="Thread <= 1.5\nmae = 40.2234\nsamples = 100\nvalue = 146.48", fillcolor="#e5813900"] ;
34 -> 35 ;
36 [label="LLC-loads <= 1083144816.0\nmae = 11.77442\nsamples = 43\nvalue = 206.15", fillcolor="#e5813900"] ;
35 -> 36 ;
37 [label="LLC-stores <= 473506592.0\nmae = 0.14\nsamples = 2\nvalue = 61.24", fillcolor="#e5813900"] ;
36 -> 37 ;
38 [label="mae = 0.0\nsamples = 1\nvalue = 61.38", fillcolor="#e5813900"] ;
37 -> 38 ;
39 [label="mae = 0.0\nsamples = 1\nvalue = 61.1", fillcolor="#e5813900"] ;
37 -> 39 ;
40 [label="instructions <= 992158154752.0\nmae = 5.27512\nsamples = 41\nvalue = 206.35", fillcolor="#e5813900"] ;
36 -> 40 ;
41 [label="mae = 0.39429\nsamples = 21\nvalue = 205.67", fillcolor="#e5813900"] ;
40 -> 41 ;
42 [label="mae = 2.727\nsamples = 20\nvalue = 214.51", fillcolor="#e5813900"] ;
40 -> 42 ;
43 [label="branch-misses <= 60491374.0\nmae = 7.61474\nsamples = 57\nvalue = 119.91", fillcolor="#e5813900"] ;
35 -> 43 ;
44 [label="context-switches <= 24150.5\nmae = 3.38769\nsamples = 13\nvalue = 148.31", fillcolor="#e5813900"] ;
43 -> 44 ;
45 [label="mae = 1.21\nsamples = 3\nvalue = 137.41", fillcolor="#e5813900"] ;
44 -> 45 ;
46 [label="mae = 1.183\nsamples = 10\nvalue = 149.325", fillcolor="#e5813900"] ;
44 -> 46 ;
47 [label="branch-misses <= 146745504.0\nmae = 2.02136\nsamples = 44\nvalue = 119.525", fillcolor="#e5813900"] ;
43 -> 47 ;
48 [label="mae = 0.93517\nsamples = 29\nvalue = 118.8", fillcolor="#e5813900"] ;
47 -> 48 ;
49 [label="mae = 1.39333\nsamples = 15\nvalue = 123.1", fillcolor="#e5813900"] ;
47 -> 49 ;
50 [label="Thread <= 5.0\nmae = 11.60487\nsamples = 337\nvalue = 43.52", fillcolor="#e5813900"] ;
34 -> 50 ;
51 [label="cycles <= 753181556736.0\nmae = 5.46465\nsamples = 71\nvalue = 70.48", fillcolor="#e5813900"] ;
50 -> 51 ;
52 [label="LLC-load-misses <= 1505486528.0\nmae = 2.43976\nsamples = 41\nvalue = 64.07", fillcolor="#e5813900"] ;
51 -> 52 ;
53 [label="mae = 0.32692\nsamples = 26\nvalue = 63.73", fillcolor="#e5813900"] ;
52 -> 53 ;
54 [label="mae = 0.75067\nsamples = 15\nvalue = 70.14", fillcolor="#e5813900"] ;
52 -> 54 ;
55 [label="branches <= 55282853888.0\nmae = 1.42833\nsamples = 30\nvalue = 78.175", fillcolor="#e5813900"] ;
51 -> 55 ;
56 [label="mae = 0.2825\nsamples = 24\nvalue = 78.37", fillcolor="#e5813900"] ;
55 -> 56 ;
57 [label="mae = 0.56167\nsamples = 6\nvalue = 71.87", fillcolor="#e5813900"] ;
55 -> 57 ;
58 [label="Thread <= 9.0\nmae = 7.14628\nsamples = 266\nvalue = 41.085", fillcolor="#e5813900"] ;
50 -> 58 ;
59 [label="Thread <= 7.0\nmae = 4.9583\nsamples = 135\nvalue = 44.93", fillcolor="#e5813900"] ;
58 -> 59 ;
60 [label="mae = 3.61364\nsamples = 66\nvalue = 53.14", fillcolor="#e5813900"] ;
59 -> 60 ;
61 [label="mae = 3.50333\nsamples = 69\nvalue = 43.33", fillcolor="#e5813900"] ;
59 -> 61 ;
62 [label="cache-references <= 7191141888.0\nmae = 4.81321\nsamples = 131\nvalue = 33.0", fillcolor="#e5813900"] ;
58 -> 62 ;
63 [label="mae = 2.95886\nsamples = 88\nvalue = 29.97", fillcolor="#e5813900"] ;
62 -> 63 ;
64 [label="mae = 1.09\nsamples = 43\nvalue = 40.94", fillcolor="#e5813900"] ;
62 -> 64 ;
65 [label="Thread <= 3.0\nmae = 186.13162\nsamples = 475\nvalue = 240.22", fillcolor="#e5813900"] ;
1 -> 65 ;
66 [label="Thread <= 1.5\nmae = 241.09826\nsamples = 161\nvalue = 619.78", fillcolor="#e5813900"] ;
65 -> 66 ;
67 [label="cycles <= 1706306863104.0\nmae = 209.37022\nsamples = 92\nvalue = 899.31", fillcolor="#e5813900"] ;
66 -> 67 ;
68 [label="LLC-stores <= 2482478976.0\nmae = 0.34864\nsamples = 22\nvalue = 258.07", fillcolor="#e5813900"] ;
67 -> 68 ;
69 [label="context-switches <= 21537.5\nmae = 0.16579\nsamples = 19\nvalue = 258.05", fillcolor="#e5813900"] ;
68 -> 69 ;
70 [label="mae = 0.132\nsamples = 5\nvalue = 257.78", fillcolor="#e5813900"] ;
69 -> 70 ;
71 [label="mae = 0.09\nsamples = 14\nvalue = 258.09", fillcolor="#e5813900"] ;
69 -> 71 ;
72 [label="L1-dcache-stores <= 201557540864.0\nmae = 0.48667\nsamples = 3\nvalue = 259.11", fillcolor="#e5813900"] ;
68 -> 72 ;
73 [label="mae = 0.025\nsamples = 2\nvalue = 259.085", fillcolor="#e5813900"] ;
72 -> 73 ;
74 [label="mae = 0.0\nsamples = 1\nvalue = 260.52", fillcolor="#e5813900"] ;
72 -> 74 ;
75 [label="instructions <= 5427737264128.0\nmae = 72.51329\nsamples = 70\nvalue = 906.635", fillcolor="#e5813900"] ;
67 -> 75 ;
76 [label="LLC-stores <= 43658752000.0\nmae = 21.17468\nsamples = 47\nvalue = 898.92", fillcolor="#e5813900"] ;
75 -> 76 ;
77 [label="mae = 3.14625\nsamples = 24\nvalue = 906.635", fillcolor="#e5813900"] ;
76 -> 77 ;
78 [label="mae = 2.04391\nsamples = 23\nvalue = 863.49", fillcolor="#e5813900"] ;
76 -> 78 ;
79 [label="cycles <= 3301109137408.0\nmae = 4.54783\nsamples = 23\nvalue = 1079.04", fillcolor="#e5813900"] ;
75 -> 79 ;
80 [label="mae = 2.03667\nsamples = 12\nvalue = 1076.19", fillcolor="#e5813900"] ;
79 -> 80 ;
81 [label="mae = 3.24364\nsamples = 11\nvalue = 1083.18", fillcolor="#e5813900"] ;
79 -> 81 ;
82 [label="instructions <= 5430504325120.0\nmae = 62.69725\nsamples = 69\nvalue = 498.33", fillcolor="#e5813900"] ;
66 -> 82 ;
83 [label="cache-misses <= 2835346752.0\nmae = 38.12306\nsamples = 49\nvalue = 497.11", fillcolor="#e5813900"] ;
82 -> 83 ;
84 [label="LLC-store-misses <= 49049288.0\nmae = 1.604\nsamples = 5\nvalue = 149.7", fillcolor="#e5813900"] ;
83 -> 84 ;
85 [label="mae = 0.65\nsamples = 4\nvalue = 150.08", fillcolor="#e5813900"] ;
84 -> 85 ;
86 [label="mae = 0.0\nsamples = 1\nvalue = 144.28", fillcolor="#e5813900"] ;
84 -> 86 ;
87 [label="context-switches <= 84655.5\nmae = 2.86727\nsamples = 44\nvalue = 497.34", fillcolor="#e5813900"] ;
83 -> 87 ;
88 [label="mae = 2.56952\nsamples = 21\nvalue = 494.8", fillcolor="#e5813900"] ;
87 -> 88 ;
89 [label="mae = 1.34696\nsamples = 23\nvalue = 499.1", fillcolor="#e5813900"] ;
87 -> 89 ;
90 [label="cycles <= 3301684674560.0\nmae = 1.724\nsamples = 20\nvalue = 620.15", fillcolor="#e5813900"] ;
82 -> 90 ;
91 [label="branches <= 176041238528.0\nmae = 0.76167\nsamples = 12\nvalue = 619.315", fillcolor="#e5813900"] ;
90 -> 91 ;
92 [label="mae = 0.47\nsamples = 8\nvalue = 619.635", fillcolor="#e5813900"] ;
91 -> 92 ;
93 [label="mae = 0.57\nsamples = 4\nvalue = 618.61", fillcolor="#e5813900"] ;
91 -> 93 ;
94 [label="cache-references <= 14988838400.0\nmae = 0.885\nsamples = 8\nvalue = 622.425", fillcolor="#e5813900"] ;
90 -> 94 ;
95 [label="mae = 0.42333\nsamples = 6\nvalue = 622.22", fillcolor="#e5813900"] ;
94 -> 95 ;
96 [label="mae = 0.08\nsamples = 2\nvalue = 624.58", fillcolor="#e5813900"] ;
94 -> 96 ;
97 [label="minor-faults <= 108463.0\nmae = 56.14382\nsamples = 314\nvalue = 203.58", fillcolor="#e5813900"] ;
65 -> 97 ;
98 [label="cache-misses <= 4625084288.0\nmae = 22.7058\nsamples = 131\nvalue = 144.48", fillcolor="#e5813900"] ;
97 -> 98 ;
99 [label="cache-misses <= 1696578368.0\nmae = 5.51333\nsamples = 9\nvalue = 35.34", fillcolor="#e5813900"] ;
98 -> 99 ;
100 [label="L1-dcache-stores <= 201524281344.0\nmae = 0.015\nsamples = 2\nvalue = 54.925", fillcolor="#e5813900"] ;
99 -> 100 ;
101 [label="mae = 0.0\nsamples = 1\nvalue = 54.94", fillcolor="#e5813900"] ;
100 -> 101 ;
102 [label="mae = 0.0\nsamples = 1\nvalue = 54.91", fillcolor="#e5813900"] ;
100 -> 102 ;
103 [label="LLC-stores <= 2714418816.0\nmae = 1.45429\nsamples = 7\nvalue = 35.07", fillcolor="#e5813900"] ;
99 -> 103 ;
104 [label="mae = 0.24333\nsamples = 6\nvalue = 35.055", fillcolor="#e5813900"] ;
103 -> 104 ;
105 [label="mae = 0.0\nsamples = 1\nvalue = 43.79", fillcolor="#e5813900"] ;
103 -> 105 ;
106 [label="Thread <= 9.0\nmae = 16.66754\nsamples = 122\nvalue = 145.615", fillcolor="#e5813900"] ;
98 -> 106 ;
107 [label="Thread <= 7.0\nmae = 15.82625\nsamples = 32\nvalue = 177.475", fillcolor="#e5813900"] ;
106 -> 107 ;
108 [label="mae = 13.64\nsamples = 5\nvalue = 232.6", fillcolor="#e5813900"] ;
107 -> 108 ;
109 [label="mae = 6.38074\nsamples = 27\nvalue = 177.2", fillcolor="#e5813900"] ;
107 -> 109 ;
110 [label="Thread <= 11.0\nmae = 8.07933\nsamples = 90\nvalue = 135.72", fillcolor="#e5813900"] ;
106 -> 110 ;
111 [label="mae = 3.15395\nsamples = 43\nvalue = 148.78", fillcolor="#e5813900"] ;
110 -> 111 ;
112 [label="mae = 2.00319\nsamples = 47\nvalue = 131.71", fillcolor="#e5813900"] ;
110 -> 112 ;
113 [label="Thread <= 5.0\nmae = 33.78842\nsamples = 183\nvalue = 236.78", fillcolor="#e5813900"] ;
97 -> 113 ;
114 [label="cache-misses <= 6545384960.0\nmae = 15.17774\nsamples = 62\nvalue = 297.525", fillcolor="#e5813900"] ;
113 -> 114 ;
115 [label="cycles <= 3436574277632.0\nmae = 0.68524\nsamples = 21\nvalue = 327.89", fillcolor="#e5813900"] ;
114 -> 115 ;
116 [label="mae = 0.54833\nsamples = 6\nvalue = 326.485", fillcolor="#e5813900"] ;
115 -> 116 ;
117 [label="mae = 0.422\nsamples = 15\nvalue = 327.96", fillcolor="#e5813900"] ;
115 -> 117 ;
118 [label="cycles <= 3002504577024.0\nmae = 6.2022\nsamples = 41\nvalue = 291.83", fillcolor="#e5813900"] ;
114 -> 118 ;
119 [label="mae = 0.7995\nsamples = 20\nvalue = 284.045", fillcolor="#e5813900"] ;
118 -> 119 ;
120 [label="mae = 1.95905\nsamples = 21\nvalue = 297.33", fillcolor="#e5813900"] ;
118 -> 120 ;
121 [label="L1-dcache-load-misses <= 125178646528.0\nmae = 15.58678\nsamples = 121\nvalue = 231.32", fillcolor="#e5813900"] ;
113 -> 121 ;
122 [label="Thread <= 7.0\nmae = 10.21235\nsamples = 34\nvalue = 202.33", fillcolor="#e5813900"] ;
121 -> 122 ;
123 [label="mae = 2.1088\nsamples = 25\nvalue = 203.1", fillcolor="#e5813900"] ;
122 -> 123 ;
124 [label="mae = 4.44667\nsamples = 9\nvalue = 167.64", fillcolor="#e5813900"] ;
122 -> 124 ;
125 [label="instructions <= 6727633207296.0\nmae = 6.86586\nsamples = 87\nvalue = 234.05", fillcolor="#e5813900"] ;
121 -> 125 ;
126 [label="mae = 5.70871\nsamples = 85\nvalue = 234.09", fillcolor="#e5813900"] ;
125 -> 126 ;
127 [label="mae = 1.165\nsamples = 2\nvalue = 178.025", fillcolor="#e5813900"] ;
125 -> 127 ;
128 [label="Thread <= 1.5\nmae = 160643.97872\nsamples = 179\nvalue = 132060.0", fillcolor="#e581392c"] ;
0 -> 128 [labeldistance=2.5, labelangle=-45, headlabel="False"] ;
129 [label="cycles <= 2318424211456.0\nmae = 2966.66667\nsamples = 24\nvalue = 756650.0", fillcolor="#e58139fd"] ;
128 -> 129 ;
130 [label="context-switches <= 62830.0\nmae = 1627.14286\nsamples = 14\nvalue = 755295.0", fillcolor="#e58139fd"] ;
129 -> 130 ;
131 [label="minor-faults <= 18151.0\nmae = 125.0\nsamples = 2\nvalue = 749485.0", fillcolor="#e58139fb"] ;
130 -> 131 ;
132 [label="mae = 0.0\nsamples = 1\nvalue = 749610.0", fillcolor="#e58139fb"] ;
131 -> 132 ;
133 [label="mae = 0.0\nsamples = 1\nvalue = 749360.0", fillcolor="#e58139fb"] ;
131 -> 133 ;
134 [label="cycles <= 2310314131456.0\nmae = 917.5\nsamples = 12\nvalue = 755405.0", fillcolor="#e58139fd"] ;
130 -> 134 ;
135 [label="cycles <= 2307704356864.0\nmae = 568.57143\nsamples = 7\nvalue = 754610.0", fillcolor="#e58139fd"] ;
134 -> 135 ;
136 [label="cycles <= 2306350907392.0\nmae = 240.0\nsamples = 4\nvalue = 754110.0", fillcolor="#e58139fc"] ;
135 -> 136 ;
137 [label="mae = 123.33333\nsamples = 3\nvalue = 754020.0", fillcolor="#e58139fc"] ;
136 -> 137 ;
138 [label="mae = 0.0\nsamples = 1\nvalue = 754610.0", fillcolor="#e58139fd"] ;
136 -> 138 ;
139 [label="cycles <= 2308935254016.0\nmae = 73.33333\nsamples = 3\nvalue = 755370.0", fillcolor="#e58139fd"] ;
135 -> 139 ;
140 [label="mae = 0.0\nsamples = 1\nvalue = 755220.0", fillcolor="#e58139fd"] ;
139 -> 140 ;
141 [label="mae = 35.0\nsamples = 2\nvalue = 755405.0", fillcolor="#e58139fd"] ;
139 -> 141 ;
142 [label="LLC-stores <= 11789570560.0\nmae = 228.0\nsamples = 5\nvalue = 756420.0", fillcolor="#e58139fd"] ;
134 -> 142 ;
143 [label="page-faults <= 19689.0\nmae = 63.33333\nsamples = 3\nvalue = 756400.0", fillcolor="#e58139fd"] ;
142 -> 143 ;
144 [label="mae = 0.0\nsamples = 1\nvalue = 756230.0", fillcolor="#e58139fd"] ;
143 -> 144 ;
145 [label="mae = 10.0\nsamples = 2\nvalue = 756410.0", fillcolor="#e58139fd"] ;
143 -> 145 ;
146 [label="context-switches <= 63441.5\nmae = 5.0\nsamples = 2\nvalue = 756885.0", fillcolor="#e58139fd"] ;
142 -> 146 ;
147 [label="mae = 0.0\nsamples = 1\nvalue = 756880.0", fillcolor="#e58139fd"] ;
146 -> 147 ;
148 [label="mae = 0.0\nsamples = 1\nvalue = 756890.0", fillcolor="#e58139fd"] ;
146 -> 148 ;
149 [label="cycles <= 2326301114368.0\nmae = 442.0\nsamples = 10\nvalue = 760640.0", fillcolor="#e58139ff"] ;
129 -> 149 ;
150 [label="cycles <= 2323808780288.0\nmae = 175.71429\nsamples = 7\nvalue = 760490.0", fillcolor="#e58139ff"] ;
149 -> 150 ;
151 [label="mae = 0.0\nsamples = 1\nvalue = 759980.0", fillcolor="#e58139fe"] ;
150 -> 151 ;
152 [label="context-switches <= 63506.5\nmae = 120.0\nsamples = 6\nvalue = 760545.0", fillcolor="#e58139ff"] ;
150 -> 152 ;
153 [label="L1-dcache-loads <= 946185830400.0\nmae = 53.33333\nsamples = 3\nvalue = 760460.0", fillcolor="#e58139fe"] ;
152 -> 153 ;
154 [label="mae = 15.0\nsamples = 2\nvalue = 760475.0", fillcolor="#e58139ff"] ;
153 -> 154 ;
155 [label="mae = 0.0\nsamples = 1\nvalue = 760330.0", fillcolor="#e58139fe"] ;
153 -> 155 ;
156 [label="page-faults <= 19408.0\nmae = 40.0\nsamples = 3\nvalue = 760680.0", fillcolor="#e58139ff"] ;
152 -> 156 ;
157 [label="mae = 0.0\nsamples = 1\nvalue = 760600.0", fillcolor="#e58139ff"] ;
156 -> 157 ;
158 [label="mae = 20.0\nsamples = 2\nvalue = 760700.0", fillcolor="#e58139ff"] ;
156 -> 158 ;
159 [label="branches <= 106072956928.0\nmae = 180.0\nsamples = 3\nvalue = 761500.0", fillcolor="#e58139ff"] ;
149 -> 159 ;
160 [label="mae = 0.0\nsamples = 1\nvalue = 761960.0", fillcolor="#e58139ff"] ;
159 -> 160 ;
161 [label="L1-dcache-stores <= 505096634368.0\nmae = 40.0\nsamples = 2\nvalue = 761460.0", fillcolor="#e58139ff"] ;
159 -> 161 ;
162 [label="mae = 0.0\nsamples = 1\nvalue = 761420.0", fillcolor="#e58139ff"] ;
161 -> 162 ;
163 [label="mae = 0.0\nsamples = 1\nvalue = 761500.0", fillcolor="#e58139ff"] ;
161 -> 163 ;
164 [label="instructions <= 2394822672384.0\nmae = 88583.30445\nsamples = 155\nvalue = 130280.0", fillcolor="#e581392c"] ;
128 -> 164 ;
165 [label="cache-misses <= 5862743808.0\nmae = 4712.10526\nsamples = 19\nvalue = 426440.0", fillcolor="#e581398f"] ;
164 -> 165 ;
166 [label="cache-references <= 38367258624.0\nmae = 1864.54545\nsamples = 11\nvalue = 423890.0", fillcolor="#e581398e"] ;
165 -> 166 ;
167 [label="cycles <= 2244099702784.0\nmae = 1133.33333\nsamples = 3\nvalue = 420250.0", fillcolor="#e581398d"] ;
166 -> 167 ;
168 [label="mae = 0.0\nsamples = 1\nvalue = 418300.0", fillcolor="#e581398c"] ;
167 -> 168 ;
169 [label="L1-dcache-loads <= 946355994624.0\nmae = 725.0\nsamples = 2\nvalue = 420975.0", fillcolor="#e581398d"] ;
167 -> 169 ;
170 [label="mae = 0.0\nsamples = 1\nvalue = 421700.0", fillcolor="#e581398d"] ;
169 -> 170 ;
171 [label="mae = 0.0\nsamples = 1\nvalue = 420250.0", fillcolor="#e581398d"] ;
169 -> 171 ;
172 [label="LLC-store-misses <= 57418528.0\nmae = 1128.75\nsamples = 8\nvalue = 423950.0", fillcolor="#e581398e"] ;
166 -> 172 ;
173 [label="LLC-loads <= 38163621888.0\nmae = 396.66667\nsamples = 6\nvalue = 423905.0", fillcolor="#e581398e"] ;
172 -> 173 ;
174 [label="mae = 53.33333\nsamples = 3\nvalue = 423980.0", fillcolor="#e581398e"] ;
173 -> 174 ;
175 [label="mae = 353.33333\nsamples = 3\nvalue = 422880.0", fillcolor="#e581398e"] ;
173 -> 175 ;
176 [label="L1-dcache-stores <= 505034768384.0\nmae = 805.0\nsamples = 2\nvalue = 427245.0", fillcolor="#e581398f"] ;
172 -> 176 ;
177 [label="mae = 0.0\nsamples = 1\nvalue = 428050.0", fillcolor="#e581398f"] ;
176 -> 177 ;
178 [label="mae = 0.0\nsamples = 1\nvalue = 426440.0", fillcolor="#e581398f"] ;
176 -> 178 ;
179 [label="cycles <= 2285691076608.0\nmae = 1718.75\nsamples = 8\nvalue = 433450.0", fillcolor="#e5813991"] ;
165 -> 179 ;
180 [label="instructions <= 2392609521664.0\nmae = 185.0\nsamples = 2\nvalue = 429585.0", fillcolor="#e5813990"] ;
179 -> 180 ;
181 [label="mae = 0.0\nsamples = 1\nvalue = 429400.0", fillcolor="#e5813990"] ;
180 -> 181 ;
182 [label="mae = 0.0\nsamples = 1\nvalue = 429770.0", fillcolor="#e5813990"] ;
180 -> 182 ;
183 [label="cache-references <= 38456756224.0\nmae = 943.33333\nsamples = 6\nvalue = 433995.0", fillcolor="#e5813991"] ;
179 -> 183 ;
184 [label="cache-misses <= 5884904704.0\nmae = 672.0\nsamples = 5\nvalue = 433630.0", fillcolor="#e5813991"] ;
183 -> 184 ;
185 [label="mae = 430.0\nsamples = 3\nvalue = 433270.0", fillcolor="#e5813991"] ;
184 -> 185 ;
186 [label="mae = 125.0\nsamples = 2\nvalue = 434485.0", fillcolor="#e5813991"] ;
184 -> 186 ;
187 [label="mae = 0.0\nsamples = 1\nvalue = 435930.0", fillcolor="#e5813992"] ;
183 -> 187 ;
188 [label="branches <= 108494970880.0\nmae = 59052.36904\nsamples = 136\nvalue = 107995.0", fillcolor="#e5813924"] ;
164 -> 188 ;
189 [label="cycles <= 2454197239808.0\nmae = 1014.78261\nsamples = 23\nvalue = 249410.0", fillcolor="#e5813953"] ;
188 -> 189 ;
190 [label="instructions <= 2397236887552.0\nmae = 443.33333\nsamples = 9\nvalue = 248180.0", fillcolor="#e5813953"] ;
189 -> 190 ;
191 [label="L1-dcache-load-misses <= 40334061568.0\nmae = 45.0\nsamples = 2\nvalue = 247115.0", fillcolor="#e5813953"] ;
190 -> 191 ;
192 [label="mae = 0.0\nsamples = 1\nvalue = 247160.0", fillcolor="#e5813953"] ;
191 -> 192 ;
193 [label="mae = 0.0\nsamples = 1\nvalue = 247070.0", fillcolor="#e5813953"] ;
191 -> 193 ;
194 [label="minor-faults <= 55390.0\nmae = 261.42857\nsamples = 7\nvalue = 248210.0", fillcolor="#e5813953"] ;
190 -> 194 ;
195 [label="mae = 0.0\nsamples = 1\nvalue = 249410.0", fillcolor="#e5813953"] ;
194 -> 195 ;
196 [label="mae = 105.0\nsamples = 6\nvalue = 248195.0", fillcolor="#e5813953"] ;
194 -> 196 ;
197 [label="cycles <= 2466494152704.0\nmae = 641.42857\nsamples = 14\nvalue = 249850.0", fillcolor="#e5813954"] ;
189 -> 197 ;
198 [label="context-switches <= 85388.5\nmae = 281.42857\nsamples = 7\nvalue = 249600.0", fillcolor="#e5813954"] ;
197 -> 198 ;
199 [label="mae = 90.0\nsamples = 3\nvalue = 249120.0", fillcolor="#e5813953"] ;
198 -> 199 ;
200 [label="mae = 135.0\nsamples = 4\nvalue = 249775.0", fillcolor="#e5813954"] ;
198 -> 200 ;
201 [label="LLC-load-misses <= 5781822208.0\nmae = 587.14286\nsamples = 7\nvalue = 250760.0", fillcolor="#e5813954"] ;
197 -> 201 ;
202 [label="mae = 362.5\nsamples = 4\nvalue = 251025.0", fillcolor="#e5813954"] ;
201 -> 202 ;
203 [label="mae = 280.0\nsamples = 3\nvalue = 249820.0", fillcolor="#e5813954"] ;
201 -> 203 ;
204 [label="cycles <= 4643868901376.0\nmae = 42097.5415\nsamples = 113\nvalue = 106330.0", fillcolor="#e5813924"] ;
188 -> 204 ;
205 [label="Thread <= 7.0\nmae = 25575.44444\nsamples = 90\nvalue = 107995.0", fillcolor="#e5813924"] ;
204 -> 205 ;
206 [label="cycles <= 2465204535296.0\nmae = 1232.10526\nsamples = 19\nvalue = 171480.0", fillcolor="#e5813939"] ;
205 -> 206 ;
207 [label="mae = 366.66667\nsamples = 3\nvalue = 168200.0", fillcolor="#e5813938"] ;
206 -> 207 ;
208 [label="mae = 845.625\nsamples = 16\nvalue = 172025.0", fillcolor="#e581393a"] ;
206 -> 208 ;
209 [label="branches <= 110604480512.0\nmae = 15180.70423\nsamples = 71\nvalue = 106550.0", fillcolor="#e5813924"] ;
205 -> 209 ;
210 [label="mae = 955.6\nsamples = 25\nvalue = 130820.0", fillcolor="#e581392c"] ;
209 -> 210 ;
211 [label="mae = 8998.04348\nsamples = 46\nvalue = 89755.0", fillcolor="#e581391e"] ;
209 -> 211 ;
212 [label="branch-misses <= 448071184.0\nmae = 2.12\nsamples = 23\nvalue = 211.61", fillcolor="#e5813900"] ;
204 -> 212 ;
213 [label="context-switches <= 236640.5\nmae = 0.66545\nsamples = 11\nvalue = 209.88", fillcolor="#e5813900"] ;
212 -> 213 ;
214 [label="mae = 0.26\nsamples = 2\nvalue = 208.26", fillcolor="#e5813900"] ;
213 -> 214 ;
215 [label="mae = 0.44111\nsamples = 9\nvalue = 209.99", fillcolor="#e5813900"] ;
213 -> 215 ;
216 [label="cycles <= 6898464587776.0\nmae = 1.4625\nsamples = 12\nvalue = 213.6", fillcolor="#e5813900"] ;
212 -> 216 ;
217 [label="mae = 0.7075\nsamples = 8\nvalue = 213.07", fillcolor="#e5813900"] ;
216 -> 217 ;
218 [label="mae = 1.3175\nsamples = 4\nvalue = 215.61", fillcolor="#e5813900"] ;
216 -> 218 ;
}