digraph Tree {
node [shape=box, style="filled, rounded", color="black", fontname=helvetica] ;
edge [fontname=helvetica] ;
0 [label="context-switches <= 0.4139\nmae = 0.54307\nsamples = 1417\nvalue = -0.41248", fillcolor="#e5813908"] ;
1 [label="L1-dcache-loads <= -0.53992\nmae = 0.14851\nsamples = 990\nvalue = -0.53759", fillcolor="#e5813903"] ;
0 -> 1 [labeldistance=2.5, labelangle=45, headlabel="True"] ;
2 [label="LLC-load-misses <= -0.43297\nmae = 0.06423\nsamples = 645\nvalue = -0.55784", fillcolor="#e5813902"] ;
1 -> 2 ;
3 [label="LLC-loads <= -0.72141\nmae = 0.05936\nsamples = 593\nvalue = -0.55902", fillcolor="#e5813902"] ;
2 -> 3 ;
4 [label="LLC-load-misses <= -0.59759\nmae = 0.05219\nsamples = 67\nvalue = -0.41248", fillcolor="#e5813908"] ;
3 -> 4 ;
5 [label="cpu-migrations <= -0.56916\nmae = 0.01233\nsamples = 28\nvalue = -0.48007", fillcolor="#e5813905"] ;
4 -> 5 ;
6 [label="context-switches <= -0.85086\nmae = 0.0\nsamples = 22\nvalue = -0.48007", fillcolor="#e5813905"] ;
5 -> 6 ;
7 [label="mae = 0.0\nsamples = 11\nvalue = -0.48007", fillcolor="#e5813905"] ;
6 -> 7 ;
8 [label="mae = 0.0\nsamples = 11\nvalue = -0.48007", fillcolor="#e5813905"] ;
6 -> 8 ;
9 [label="page-faults <= -0.56772\nmae = 0.0\nsamples = 6\nvalue = -0.53759", fillcolor="#e5813903"] ;
5 -> 9 ;
10 [label="mae = 0.0\nsamples = 5\nvalue = -0.53759", fillcolor="#e5813903"] ;
9 -> 10 ;
11 [label="mae = 0.0\nsamples = 1\nvalue = -0.53759", fillcolor="#e5813903"] ;
9 -> 11 ;
12 [label="instructions <= -0.85961\nmae = 0.0224\nsamples = 39\nvalue = -0.37748", fillcolor="#e5813909"] ;
4 -> 12 ;
13 [label="LLC-loads <= -0.72265\nmae = 0.0\nsamples = 25\nvalue = -0.37748", fillcolor="#e5813909"] ;
12 -> 13 ;
14 [label="mae = 0.0\nsamples = 16\nvalue = -0.37748", fillcolor="#e5813909"] ;
13 -> 14 ;
15 [label="mae = 0.0\nsamples = 9\nvalue = -0.37748", fillcolor="#e5813909"] ;
13 -> 15 ;
16 [label="page-faults <= -0.54601\nmae = 0.02741\nsamples = 14\nvalue = -0.41248", fillcolor="#e5813908"] ;
12 -> 16 ;
17 [label="mae = 0.0\nsamples = 12\nvalue = -0.41248", fillcolor="#e5813908"] ;
16 -> 17 ;
18 [label="mae = 0.0\nsamples = 2\nvalue = -0.60432", fillcolor="#e5813900"] ;
16 -> 18 ;
19 [label="LLC-stores <= -0.37071\nmae = 0.0511\nsamples = 526\nvalue = -0.56103", fillcolor="#e5813902"] ;
3 -> 19 ;
20 [label="cycles <= -0.68136\nmae = 0.05026\nsamples = 431\nvalue = -0.55902", fillcolor="#e5813902"] ;
19 -> 20 ;
21 [label="cycles <= -0.87202\nmae = 0.02086\nsamples = 405\nvalue = -0.55902", fillcolor="#e5813902"] ;
20 -> 21 ;
22 [label="mae = 0.0\nsamples = 21\nvalue = -0.48764", fillcolor="#e5813905"] ;
21 -> 22 ;
23 [label="mae = 0.01806\nsamples = 384\nvalue = -0.55989", fillcolor="#e5813902"] ;
21 -> 23 ;
24 [label="LLC-load-misses <= -0.4807\nmae = 0.0\nsamples = 26\nvalue = -0.05079", fillcolor="#e5813917"] ;
20 -> 24 ;
25 [label="mae = 0.0\nsamples = 6\nvalue = -0.05079", fillcolor="#e5813917"] ;
24 -> 25 ;
26 [label="mae = 0.0\nsamples = 20\nvalue = -0.05078", fillcolor="#e5813917"] ;
24 -> 26 ;
27 [label="instructions <= -0.53267\nmae = 0.01282\nsamples = 95\nvalue = -0.60436", fillcolor="#e5813900"] ;
19 -> 27 ;
28 [label="context-switches <= -0.57496\nmae = 0.00035\nsamples = 93\nvalue = -0.60436", fillcolor="#e5813900"] ;
27 -> 28 ;
29 [label="mae = 3e-05\nsamples = 45\nvalue = -0.60372", fillcolor="#e5813900"] ;
28 -> 29 ;
30 [label="mae = 4e-05\nsamples = 48\nvalue = -0.60437", fillcolor="#e5813900"] ;
28 -> 30 ;
31 [label="context-switches <= -0.56935\nmae = 0.0\nsamples = 2\nvalue = -0.01169", fillcolor="#e5813919"] ;
27 -> 31 ;
32 [label="mae = 0.0\nsamples = 1\nvalue = -0.01169", fillcolor="#e5813919"] ;
31 -> 32 ;
33 [label="mae = 0.0\nsamples = 1\nvalue = -0.01169", fillcolor="#e5813919"] ;
31 -> 33 ;
34 [label="L1-dcache-load-misses <= -0.51064\nmae = 0.01944\nsamples = 52\nvalue = -0.43903", fillcolor="#e5813907"] ;
2 -> 34 ;
35 [label="cache-misses <= -0.42115\nmae = 0.01336\nsamples = 50\nvalue = -0.43903", fillcolor="#e5813907"] ;
34 -> 35 ;
36 [label="LLC-load-misses <= -0.4258\nmae = 0.0\nsamples = 24\nvalue = -0.43902", fillcolor="#e5813907"] ;
35 -> 36 ;
37 [label="LLC-store-misses <= -0.41382\nmae = 0.0\nsamples = 3\nvalue = -0.43902", fillcolor="#e5813907"] ;
36 -> 37 ;
38 [label="mae = 0.0\nsamples = 2\nvalue = -0.43902", fillcolor="#e5813907"] ;
37 -> 38 ;
39 [label="mae = 0.0\nsamples = 1\nvalue = -0.43902", fillcolor="#e5813907"] ;
37 -> 39 ;
40 [label="L1-dcache-loads <= -0.54158\nmae = 0.0\nsamples = 21\nvalue = -0.43903", fillcolor="#e5813907"] ;
36 -> 40 ;
41 [label="mae = 0.0\nsamples = 18\nvalue = -0.43903", fillcolor="#e5813907"] ;
40 -> 41 ;
42 [label="mae = 0.0\nsamples = 3\nvalue = -0.43902", fillcolor="#e5813907"] ;
40 -> 42 ;
43 [label="LLC-loads <= -0.41405\nmae = 0.01092\nsamples = 26\nvalue = -0.46303", fillcolor="#e5813906"] ;
35 -> 43 ;
44 [label="LLC-loads <= -0.44974\nmae = 0.0\nsamples = 21\nvalue = -0.46303", fillcolor="#e5813906"] ;
43 -> 44 ;
45 [label="mae = 0.0\nsamples = 14\nvalue = -0.46303", fillcolor="#e5813906"] ;
44 -> 45 ;
46 [label="mae = 0.0\nsamples = 7\nvalue = -0.46303", fillcolor="#e5813906"] ;
44 -> 46 ;
47 [label="cycles <= -0.37975\nmae = 0.00756\nsamples = 5\nvalue = -0.41382", fillcolor="#e5813908"] ;
43 -> 47 ;
48 [label="mae = 0.0\nsamples = 4\nvalue = -0.41382", fillcolor="#e5813908"] ;
47 -> 48 ;
49 [label="mae = 0.0\nsamples = 1\nvalue = -0.37602", fillcolor="#e5813909"] ;
47 -> 49 ;
50 [label="L1-dcache-stores <= -0.56568\nmae = 0.0\nsamples = 2\nvalue = -0.26756", fillcolor="#e581390e"] ;
34 -> 50 ;
51 [label="mae = 0.0\nsamples = 1\nvalue = -0.26756", fillcolor="#e581390e"] ;
50 -> 51 ;
52 [label="mae = 0.0\nsamples = 1\nvalue = -0.26757", fillcolor="#e581390e"] ;
50 -> 52 ;
53 [label="LLC-load-misses <= -0.45561\nmae = 0.22276\nsamples = 345\nvalue = -0.36005", fillcolor="#e581390a"] ;
1 -> 53 ;
54 [label="branches <= -0.49445\nmae = 0.29471\nsamples = 59\nvalue = 0.25314", fillcolor="#e5813924"] ;
53 -> 54 ;
55 [label="cache-misses <= -0.48217\nmae = 0.05336\nsamples = 23\nvalue = 0.86674", fillcolor="#e581393d"] ;
54 -> 55 ;
56 [label="L1-dcache-loads <= -0.22642\nmae = 0.0\nsamples = 21\nvalue = 0.86674", fillcolor="#e581393d"] ;
55 -> 56 ;
57 [label="LLC-store-misses <= -0.49603\nmae = 0.0\nsamples = 10\nvalue = 0.86673", fillcolor="#e581393d"] ;
56 -> 57 ;
58 [label="mae = 0.0\nsamples = 1\nvalue = 0.86674", fillcolor="#e581393d"] ;
57 -> 58 ;
59 [label="mae = 0.0\nsamples = 9\nvalue = 0.86673", fillcolor="#e581393d"] ;
57 -> 59 ;
60 [label="context-switches <= -0.55922\nmae = 0.0\nsamples = 11\nvalue = 0.86674", fillcolor="#e581393d"] ;
56 -> 60 ;
61 [label="mae = 0.0\nsamples = 3\nvalue = 0.86674", fillcolor="#e581393d"] ;
60 -> 61 ;
62 [label="mae = 0.0\nsamples = 8\nvalue = 0.86674", fillcolor="#e581393d"] ;
60 -> 62 ;
63 [label="L1-dcache-load-misses <= -0.40737\nmae = 0.0\nsamples = 2\nvalue = 0.25314", fillcolor="#e5813924"] ;
55 -> 63 ;
64 [label="mae = 0.0\nsamples = 1\nvalue = 0.25314", fillcolor="#e5813924"] ;
63 -> 64 ;
65 [label="mae = 0.0\nsamples = 1\nvalue = 0.25314", fillcolor="#e5813924"] ;
63 -> 65 ;
66 [label="LLC-store-misses <= -0.43846\nmae = 0.12506\nsamples = 36\nvalue = 0.25314", fillcolor="#e5813924"] ;
54 -> 66 ;
67 [label="branch-misses <= -0.55841\nmae = 0.0\nsamples = 19\nvalue = 0.25314", fillcolor="#e5813924"] ;
66 -> 67 ;
68 [label="LLC-stores <= -0.79236\nmae = 0.0\nsamples = 10\nvalue = 0.25314", fillcolor="#e5813924"] ;
67 -> 68 ;
69 [label="mae = 0.0\nsamples = 2\nvalue = 0.25314", fillcolor="#e5813924"] ;
68 -> 69 ;
70 [label="mae = 0.0\nsamples = 8\nvalue = 0.25314", fillcolor="#e5813924"] ;
68 -> 70 ;
71 [label="L1-dcache-load-misses <= -0.40718\nmae = 0.0\nsamples = 9\nvalue = 0.25314", fillcolor="#e5813924"] ;
67 -> 71 ;
72 [label="mae = 0.0\nsamples = 6\nvalue = 0.25314", fillcolor="#e5813924"] ;
71 -> 72 ;
73 [label="mae = 0.0\nsamples = 3\nvalue = 0.25314", fillcolor="#e5813924"] ;
71 -> 73 ;
74 [label="L1-dcache-stores <= -0.5625\nmae = 0.0\nsamples = 17\nvalue = -0.01169", fillcolor="#e5813919"] ;
66 -> 74 ;
75 [label="L1-dcache-loads <= -0.53986\nmae = 0.0\nsamples = 14\nvalue = -0.01169", fillcolor="#e5813919"] ;
74 -> 75 ;
76 [label="mae = 0.0\nsamples = 2\nvalue = -0.01169", fillcolor="#e5813919"] ;
75 -> 76 ;
77 [label="mae = 0.0\nsamples = 12\nvalue = -0.01169", fillcolor="#e5813919"] ;
75 -> 77 ;
78 [label="LLC-stores <= -0.20359\nmae = 0.0\nsamples = 3\nvalue = -0.01169", fillcolor="#e5813919"] ;
74 -> 78 ;
79 [label="mae = 0.0\nsamples = 1\nvalue = -0.0117", fillcolor="#e5813919"] ;
78 -> 79 ;
80 [label="mae = 0.0\nsamples = 2\nvalue = -0.01169", fillcolor="#e5813919"] ;
78 -> 80 ;
81 [label="cpu-migrations <= -0.49303\nmae = 0.11245\nsamples = 286\nvalue = -0.37602", fillcolor="#e5813909"] ;
53 -> 81 ;
82 [label="LLC-stores <= -0.1874\nmae = 0.06576\nsamples = 87\nvalue = -0.60038", fillcolor="#e5813900"] ;
81 -> 82 ;
83 [label="branches <= -0.26123\nmae = 0.09256\nsamples = 26\nvalue = -0.40144", fillcolor="#e5813908"] ;
82 -> 83 ;
84 [label="context-switches <= -0.40574\nmae = 0.05218\nsamples = 23\nvalue = -0.41382", fillcolor="#e5813908"] ;
83 -> 84 ;
85 [label="mae = 0.00017\nsamples = 5\nvalue = -0.60446", fillcolor="#e5813900"] ;
84 -> 85 ;
86 [label="mae = 0.01101\nsamples = 18\nvalue = -0.38906", fillcolor="#e5813909"] ;
84 -> 86 ;
87 [label="cpu-migrations <= -0.57311\nmae = 0.0\nsamples = 3\nvalue = -0.01169", fillcolor="#e5813919"] ;
83 -> 87 ;
88 [label="mae = 0.0\nsamples = 1\nvalue = -0.0117", fillcolor="#e5813919"] ;
87 -> 88 ;
89 [label="mae = 0.0\nsamples = 2\nvalue = -0.01169", fillcolor="#e5813919"] ;
87 -> 89 ;
90 [label="L1-dcache-load-misses <= -0.51435\nmae = 0.0054\nsamples = 61\nvalue = -0.60048", fillcolor="#e5813900"] ;
82 -> 90 ;
91 [label="mae = 0.0\nsamples = 1\nvalue = -0.35426", fillcolor="#e581390a"] ;
90 -> 91 ;
92 [label="L1-dcache-loads <= 0.15252\nmae = 0.00138\nsamples = 60\nvalue = -0.60048", fillcolor="#e5813900"] ;
90 -> 92 ;
93 [label="mae = 0.0\nsamples = 20\nvalue = -0.60445", fillcolor="#e5813900"] ;
92 -> 93 ;
94 [label="mae = 5e-05\nsamples = 40\nvalue = -0.60038", fillcolor="#e5813900"] ;
92 -> 94 ;
95 [label="LLC-load-misses <= -0.43107\nmae = 0.07379\nsamples = 199\nvalue = -0.35426", fillcolor="#e581390a"] ;
81 -> 95 ;
96 [label="cycles <= -0.45262\nmae = 0.0\nsamples = 22\nvalue = -0.16172", fillcolor="#e5813912"] ;
95 -> 96 ;
97 [label="context-switches <= -0.4537\nmae = 0.0\nsamples = 19\nvalue = -0.16172", fillcolor="#e5813912"] ;
96 -> 97 ;
98 [label="mae = 0.0\nsamples = 4\nvalue = -0.16171", fillcolor="#e5813912"] ;
97 -> 98 ;
99 [label="mae = 0.0\nsamples = 15\nvalue = -0.16172", fillcolor="#e5813912"] ;
97 -> 99 ;
100 [label="LLC-loads <= -0.52803\nmae = 0.0\nsamples = 3\nvalue = -0.16171", fillcolor="#e5813912"] ;
96 -> 100 ;
101 [label="mae = 0.0\nsamples = 1\nvalue = -0.16171", fillcolor="#e5813912"] ;
100 -> 101 ;
102 [label="mae = 0.0\nsamples = 2\nvalue = -0.16171", fillcolor="#e5813912"] ;
100 -> 102 ;
103 [label="cycles <= -0.43131\nmae = 0.05894\nsamples = 177\nvalue = -0.36005", fillcolor="#e581390a"] ;
95 -> 103 ;
104 [label="LLC-loads <= -0.30863\nmae = 0.02535\nsamples = 65\nvalue = -0.29602", fillcolor="#e581390d"] ;
103 -> 104 ;
105 [label="mae = 0.01324\nsamples = 43\nvalue = -0.29602", fillcolor="#e581390d"] ;
104 -> 105 ;
106 [label="mae = 0.0\nsamples = 22\nvalue = -0.34504", fillcolor="#e581390b"] ;
104 -> 106 ;
107 [label="context-switches <= -0.38277\nmae = 0.05824\nsamples = 112\nvalue = -0.37602", fillcolor="#e5813909"] ;
103 -> 107 ;
108 [label="mae = 0.0671\nsamples = 20\nvalue = -0.60446", fillcolor="#e5813900"] ;
107 -> 108 ;
109 [label="mae = 0.03481\nsamples = 92\nvalue = -0.36804", fillcolor="#e581390a"] ;
107 -> 109 ;
110 [label="cache-misses <= 0.23677\nmae = 0.75276\nsamples = 427\nvalue = 0.64221", fillcolor="#e5813934"] ;
0 -> 110 [labeldistance=2.5, labelangle=-45, headlabel="False"] ;
111 [label="cpu-migrations <= -0.57459\nmae = 1.06806\nsamples = 110\nvalue = 1.83119", fillcolor="#e5813965"] ;
110 -> 111 ;
112 [label="instructions <= 1.51856\nmae = 0.16128\nsamples = 23\nvalue = 5.53883", fillcolor="#e58139ff"] ;
111 -> 112 ;
113 [label="mae = 0.0\nsamples = 1\nvalue = 1.83119", fillcolor="#e5813965"] ;
112 -> 113 ;
114 [label="L1-dcache-load-misses <= 1.5343\nmae = 8e-05\nsamples = 22\nvalue = 5.53884", fillcolor="#e58139ff"] ;
112 -> 114 ;
115 [label="minor-faults <= -0.14212\nmae = 3e-05\nsamples = 4\nvalue = 5.53871", fillcolor="#e58139ff"] ;
114 -> 115 ;
116 [label="mae = 0.0\nsamples = 1\nvalue = 5.53876", fillcolor="#e58139ff"] ;
115 -> 116 ;
117 [label="cache-misses <= -0.0739\nmae = 1e-05\nsamples = 3\nvalue = 5.5387", fillcolor="#e58139ff"] ;
115 -> 117 ;
118 [label="mae = 1e-05\nsamples = 2\nvalue = 5.53869", fillcolor="#e58139ff"] ;
117 -> 118 ;
119 [label="mae = 0.0\nsamples = 1\nvalue = 5.53872", fillcolor="#e58139ff"] ;
117 -> 119 ;
120 [label="instructions <= 2.11396\nmae = 7e-05\nsamples = 18\nvalue = 5.53888", fillcolor="#e58139ff"] ;
114 -> 120 ;
121 [label="L1-dcache-stores <= 2.24615\nmae = 5e-05\nsamples = 9\nvalue = 5.53892", fillcolor="#e58139ff"] ;
120 -> 121 ;
122 [label="mae = 4e-05\nsamples = 6\nvalue = 5.53889", fillcolor="#e58139ff"] ;
121 -> 122 ;
123 [label="mae = 1e-05\nsamples = 3\nvalue = 5.53899", fillcolor="#e58139ff"] ;
121 -> 123 ;
124 [label="page-faults <= -0.2067\nmae = 5e-05\nsamples = 9\nvalue = 5.53882", fillcolor="#e58139ff"] ;
120 -> 124 ;
125 [label="mae = 0.0\nsamples = 1\nvalue = 5.5387", fillcolor="#e58139ff"] ;
124 -> 125 ;
126 [label="mae = 4e-05\nsamples = 8\nvalue = 5.53882", fillcolor="#e58139ff"] ;
124 -> 126 ;
127 [label="LLC-load-misses <= -0.00242\nmae = 0.41025\nsamples = 87\nvalue = 1.75585", fillcolor="#e5813962"] ;
111 -> 127 ;
128 [label="cycles <= 1.05693\nmae = 2e-05\nsamples = 19\nvalue = 2.98691", fillcolor="#e5813995"] ;
127 -> 128 ;
129 [label="cache-misses <= -0.06623\nmae = 1e-05\nsamples = 6\nvalue = 2.98694", fillcolor="#e5813995"] ;
128 -> 129 ;
130 [label="cpu-migrations <= -0.56817\nmae = 0.0\nsamples = 5\nvalue = 2.98694", fillcolor="#e5813995"] ;
129 -> 130 ;
131 [label="mae = 0.0\nsamples = 2\nvalue = 2.98693", fillcolor="#e5813995"] ;
130 -> 131 ;
132 [label="mae = 0.0\nsamples = 3\nvalue = 2.98694", fillcolor="#e5813995"] ;
130 -> 132 ;
133 [label="mae = 0.0\nsamples = 1\nvalue = 2.98691", fillcolor="#e5813995"] ;
129 -> 133 ;
134 [label="instructions <= 2.11508\nmae = 2e-05\nsamples = 13\nvalue = 2.9869", fillcolor="#e5813995"] ;
128 -> 134 ;
135 [label="LLC-loads <= 0.46415\nmae = 1e-05\nsamples = 6\nvalue = 2.98688", fillcolor="#e5813995"] ;
134 -> 135 ;
136 [label="mae = 0.0\nsamples = 1\nvalue = 2.98691", fillcolor="#e5813995"] ;
135 -> 136 ;
137 [label="mae = 1e-05\nsamples = 5\nvalue = 2.98688", fillcolor="#e5813995"] ;
135 -> 137 ;
138 [label="cache-misses <= -0.05752\nmae = 1e-05\nsamples = 7\nvalue = 2.98691", fillcolor="#e5813995"] ;
134 -> 138 ;
139 [label="mae = 0.0\nsamples = 6\nvalue = 2.98691", fillcolor="#e5813995"] ;
138 -> 139 ;
140 [label="mae = 0.0\nsamples = 1\nvalue = 2.98688", fillcolor="#e5813995"] ;
138 -> 140 ;
141 [label="cycles <= 0.90323\nmae = 0.1809\nsamples = 68\nvalue = 1.75583", fillcolor="#e5813962"] ;
127 -> 141 ;
142 [label="LLC-stores <= 1.64663\nmae = 0.03768\nsamples = 46\nvalue = 1.79352", fillcolor="#e5813964"] ;
141 -> 142 ;
143 [label="L1-dcache-stores <= 0.82883\nmae = 1e-05\nsamples = 23\nvalue = 1.75583", fillcolor="#e5813962"] ;
142 -> 143 ;
144 [label="mae = 1e-05\nsamples = 17\nvalue = 1.75583", fillcolor="#e5813962"] ;
143 -> 144 ;
145 [label="mae = 1e-05\nsamples = 6\nvalue = 1.75582", fillcolor="#e5813962"] ;
143 -> 145 ;
146 [label="instructions <= 0.92419\nmae = 0.0\nsamples = 23\nvalue = 1.83119", fillcolor="#e5813965"] ;
142 -> 146 ;
147 [label="mae = 0.0\nsamples = 9\nvalue = 1.83119", fillcolor="#e5813965"] ;
146 -> 147 ;
148 [label="mae = 0.0\nsamples = 14\nvalue = 1.83119", fillcolor="#e5813965"] ;
146 -> 148 ;
149 [label="L1-dcache-load-misses <= 1.53524\nmae = 0.0\nsamples = 22\nvalue = 1.27547", fillcolor="#e581394e"] ;
141 -> 149 ;
150 [label="branches <= 1.10715\nmae = 0.0\nsamples = 13\nvalue = 1.27547", fillcolor="#e581394e"] ;
149 -> 150 ;
151 [label="mae = 0.0\nsamples = 10\nvalue = 1.27547", fillcolor="#e581394e"] ;
150 -> 151 ;
152 [label="mae = 0.0\nsamples = 3\nvalue = 1.27547", fillcolor="#e581394e"] ;
150 -> 152 ;
153 [label="instructions <= 2.11721\nmae = 0.0\nsamples = 9\nvalue = 1.27547", fillcolor="#e581394e"] ;
149 -> 153 ;
154 [label="mae = 0.0\nsamples = 1\nvalue = 1.27547", fillcolor="#e581394e"] ;
153 -> 154 ;
155 [label="mae = 0.0\nsamples = 8\nvalue = 1.27547", fillcolor="#e581394e"] ;
153 -> 155 ;
156 [label="L1-dcache-stores <= 0.84182\nmae = 0.2717\nsamples = 317\nvalue = 0.37558", fillcolor="#e5813929"] ;
110 -> 156 ;
157 [label="LLC-store-misses <= 0.49913\nmae = 0.26867\nsamples = 134\nvalue = 0.66289", fillcolor="#e5813935"] ;
156 -> 157 ;
158 [label="branches <= 2.09393\nmae = 0.0\nsamples = 20\nvalue = 0.88468", fillcolor="#e581393e"] ;
157 -> 158 ;
159 [label="cycles <= 0.93011\nmae = 0.0\nsamples = 13\nvalue = 0.88469", fillcolor="#e581393e"] ;
158 -> 159 ;
160 [label="L1-dcache-loads <= 0.88144\nmae = 0.0\nsamples = 12\nvalue = 0.88469", fillcolor="#e581393e"] ;
159 -> 160 ;
161 [label="mae = 0.0\nsamples = 11\nvalue = 0.88469", fillcolor="#e581393e"] ;
160 -> 161 ;
162 [label="mae = 0.0\nsamples = 1\nvalue = 0.88468", fillcolor="#e581393e"] ;
160 -> 162 ;
163 [label="mae = 0.0\nsamples = 1\nvalue = 0.88468", fillcolor="#e581393e"] ;
159 -> 163 ;
164 [label="minor-faults <= 2.61803\nmae = 0.0\nsamples = 7\nvalue = 0.88468", fillcolor="#e581393e"] ;
158 -> 164 ;
165 [label="instructions <= 0.93443\nmae = 0.0\nsamples = 5\nvalue = 0.88468", fillcolor="#e581393e"] ;
164 -> 165 ;
166 [label="mae = 0.0\nsamples = 3\nvalue = 0.88468", fillcolor="#e581393e"] ;
165 -> 166 ;
167 [label="mae = 0.0\nsamples = 2\nvalue = 0.88468", fillcolor="#e581393e"] ;
165 -> 167 ;
168 [label="cycles <= 0.91761\nmae = 0.0\nsamples = 2\nvalue = 0.88468", fillcolor="#e581393e"] ;
164 -> 168 ;
169 [label="mae = 0.0\nsamples = 1\nvalue = 0.88469", fillcolor="#e581393e"] ;
168 -> 169 ;
170 [label="mae = 0.0\nsamples = 1\nvalue = 0.88468", fillcolor="#e581393e"] ;
168 -> 170 ;
171 [label="L1-dcache-stores <= 0.69427\nmae = 0.27326\nsamples = 114\nvalue = 0.64222", fillcolor="#e5813934"] ;
157 -> 171 ;
172 [label="cache-references <= 2.00351\nmae = 0.49826\nsamples = 10\nvalue = -0.60343", fillcolor="#e5813900"] ;
171 -> 172 ;
173 [label="branch-misses <= 2.36159\nmae = 0.0\nsamples = 4\nvalue = 0.64222", fillcolor="#e5813934"] ;
172 -> 173 ;
174 [label="mae = 0.0\nsamples = 3\nvalue = 0.64222", fillcolor="#e5813934"] ;
173 -> 174 ;
175 [label="mae = 0.0\nsamples = 1\nvalue = 0.64221", fillcolor="#e5813934"] ;
173 -> 175 ;
176 [label="cpu-migrations <= 2.13318\nmae = 0.0\nsamples = 6\nvalue = -0.60344", fillcolor="#e5813900"] ;
172 -> 176 ;
177 [label="mae = 0.0\nsamples = 3\nvalue = -0.60343", fillcolor="#e5813900"] ;
176 -> 177 ;
178 [label="mae = 0.0\nsamples = 3\nvalue = -0.60344", fillcolor="#e5813900"] ;
176 -> 178 ;
179 [label="L1-dcache-stores <= 0.76804\nmae = 0.22767\nsamples = 104\nvalue = 0.64222", fillcolor="#e5813934"] ;
171 -> 179 ;
180 [label="LLC-store-misses <= 4.43871\nmae = 0.2545\nsamples = 84\nvalue = 0.64221", fillcolor="#e5813934"] ;
179 -> 180 ;
181 [label="mae = 0.35016\nsamples = 57\nvalue = 0.62782", fillcolor="#e5813933"] ;
180 -> 181 ;
182 [label="mae = 0.0\nsamples = 27\nvalue = 0.68355", fillcolor="#e5813935"] ;
180 -> 182 ;
183 [label="L1-dcache-load-misses <= 1.0514\nmae = 1e-05\nsamples = 20\nvalue = 0.75722", fillcolor="#e5813939"] ;
179 -> 183 ;
184 [label="mae = 0.0\nsamples = 13\nvalue = 0.75722", fillcolor="#e5813939"] ;
183 -> 184 ;
185 [label="mae = 0.0\nsamples = 7\nvalue = 0.75723", fillcolor="#e5813939"] ;
183 -> 185 ;
186 [label="branch-misses <= 0.21311\nmae = 0.10906\nsamples = 183\nvalue = 0.2481", fillcolor="#e5813923"] ;
156 -> 186 ;
187 [label="L1-dcache-stores <= 2.24721\nmae = 0.0\nsamples = 16\nvalue = 0.71897", fillcolor="#e5813937"] ;
186 -> 187 ;
188 [label="cache-misses <= 0.44734\nmae = 0.0\nsamples = 12\nvalue = 0.71897", fillcolor="#e5813937"] ;
187 -> 188 ;
189 [label="context-switches <= 1.19873\nmae = 0.0\nsamples = 10\nvalue = 0.71896", fillcolor="#e5813937"] ;
188 -> 189 ;
190 [label="mae = 0.0\nsamples = 5\nvalue = 0.71897", fillcolor="#e5813937"] ;
189 -> 190 ;
191 [label="mae = 0.0\nsamples = 5\nvalue = 0.71896", fillcolor="#e5813937"] ;
189 -> 191 ;
192 [label="cache-misses <= 0.45336\nmae = 0.0\nsamples = 2\nvalue = 0.71897", fillcolor="#e5813937"] ;
188 -> 192 ;
193 [label="mae = 0.0\nsamples = 1\nvalue = 0.71897", fillcolor="#e5813937"] ;
192 -> 193 ;
194 [label="mae = 0.0\nsamples = 1\nvalue = 0.71897", fillcolor="#e5813937"] ;
192 -> 194 ;
195 [label="branch-misses <= 0.20335\nmae = 0.0\nsamples = 4\nvalue = 0.71897", fillcolor="#e5813937"] ;
187 -> 195 ;
196 [label="LLC-store-misses <= -0.05145\nmae = 0.0\nsamples = 3\nvalue = 0.71897", fillcolor="#e5813937"] ;
195 -> 196 ;
197 [label="mae = 0.0\nsamples = 1\nvalue = 0.71897", fillcolor="#e5813937"] ;
196 -> 197 ;
198 [label="mae = 0.0\nsamples = 2\nvalue = 0.71897", fillcolor="#e5813937"] ;
196 -> 198 ;
199 [label="mae = 0.0\nsamples = 1\nvalue = 0.71896", fillcolor="#e5813937"] ;
195 -> 199 ;
200 [label="LLC-store-misses <= 0.06613\nmae = 0.07439\nsamples = 167\nvalue = 0.2481", fillcolor="#e5813923"] ;
186 -> 200 ;
201 [label="branches <= 1.14048\nmae = 0.0\nsamples = 23\nvalue = 0.41867", fillcolor="#e581392a"] ;
200 -> 201 ;
202 [label="cache-misses <= 0.65588\nmae = 0.0\nsamples = 19\nvalue = 0.41867", fillcolor="#e581392a"] ;
201 -> 202 ;
203 [label="mae = 0.0\nsamples = 2\nvalue = 0.41867", fillcolor="#e581392a"] ;
202 -> 203 ;
204 [label="mae = 0.0\nsamples = 17\nvalue = 0.41868", fillcolor="#e581392a"] ;
202 -> 204 ;
205 [label="page-faults <= 0.97081\nmae = 0.0\nsamples = 4\nvalue = 0.41866", fillcolor="#e581392a"] ;
201 -> 205 ;
206 [label="mae = 0.0\nsamples = 3\nvalue = 0.41866", fillcolor="#e581392a"] ;
205 -> 206 ;
207 [label="mae = 0.0\nsamples = 1\nvalue = 0.41867", fillcolor="#e581392a"] ;
205 -> 207 ;
208 [label="context-switches <= 1.07465\nmae = 0.05868\nsamples = 144\nvalue = 0.22298", fillcolor="#e5813922"] ;
200 -> 208 ;
209 [label="cpu-migrations <= 2.6349\nmae = 1e-05\nsamples = 25\nvalue = 0.37558", fillcolor="#e5813929"] ;
208 -> 209 ;
210 [label="mae = 0.0\nsamples = 17\nvalue = 0.37558", fillcolor="#e5813929"] ;
209 -> 210 ;
211 [label="mae = 0.0\nsamples = 8\nvalue = 0.37558", fillcolor="#e5813929"] ;
209 -> 211 ;
212 [label="branch-misses <= 0.77084\nmae = 0.03895\nsamples = 119\nvalue = 0.22296", fillcolor="#e5813922"] ;
208 -> 212 ;
213 [label="mae = 0.01029\nsamples = 72\nvalue = 0.2481", fillcolor="#e5813923"] ;
212 -> 213 ;
214 [label="mae = 0.03771\nsamples = 47\nvalue = 0.18853", fillcolor="#e5813921"] ;
212 -> 214 ;
}