digraph Tree {
node [shape=box, style="filled, rounded", color="black", fontname=helvetica] ;
edge [fontname=helvetica] ;
0 [label="context-switches <= -0.39498\nmae = 0.17679\nsamples = 1417\nvalue = -0.9375", fillcolor="#e5813908"] ;
1 [label="L1-dcache-loads <= -0.77103\nmae = 0.04835\nsamples = 990\nvalue = -0.97823", fillcolor="#e5813903"] ;
0 -> 1 [labeldistance=2.5, labelangle=45, headlabel="True"] ;
2 [label="cache-misses <= -0.94311\nmae = 0.02068\nsamples = 643\nvalue = -0.98482", fillcolor="#e5813902"] ;
1 -> 2 ;
3 [label="LLC-loads <= -0.99791\nmae = 0.01906\nsamples = 591\nvalue = -0.9852", fillcolor="#e5813902"] ;
2 -> 3 ;
4 [label="LLC-load-misses <= -0.99779\nmae = 0.01699\nsamples = 67\nvalue = -0.9375", fillcolor="#e5813908"] ;
3 -> 4 ;
5 [label="mae = 0.00401\nsamples = 28\nvalue = -0.9595", fillcolor="#e5813905"] ;
4 -> 5 ;
6 [label="mae = 0.00729\nsamples = 39\nvalue = -0.9261", fillcolor="#e5813909"] ;
4 -> 6 ;
7 [label="LLC-stores <= -0.66617\nmae = 0.01633\nsamples = 524\nvalue = -0.98586", fillcolor="#e5813902"] ;
3 -> 7 ;
8 [label="mae = 0.01636\nsamples = 431\nvalue = -0.9852", fillcolor="#e5813902"] ;
7 -> 8 ;
9 [label="mae = 0.00219\nsamples = 93\nvalue = -0.99996", fillcolor="#e5813900"] ;
7 -> 9 ;
10 [label="cpu-migrations <= -0.82411\nmae = 0.00633\nsamples = 52\nvalue = -0.94614", fillcolor="#e5813907"] ;
2 -> 10 ;
11 [label="LLC-loads <= -0.9074\nmae = 0.00435\nsamples = 50\nvalue = -0.94614", fillcolor="#e5813907"] ;
10 -> 11 ;
12 [label="mae = 0.0\nsamples = 24\nvalue = -0.94614", fillcolor="#e5813907"] ;
11 -> 12 ;
13 [label="mae = 0.00355\nsamples = 26\nvalue = -0.95395", fillcolor="#e5813906"] ;
11 -> 13 ;
14 [label="LLC-loads <= -0.85605\nmae = 0.0\nsamples = 2\nvalue = -0.89032", fillcolor="#e581390e"] ;
10 -> 14 ;
15 [label="mae = 0.0\nsamples = 1\nvalue = -0.89032", fillcolor="#e581390e"] ;
14 -> 15 ;
16 [label="mae = 0.0\nsamples = 1\nvalue = -0.89032", fillcolor="#e581390e"] ;
14 -> 16 ;
17 [label="LLC-load-misses <= -0.94894\nmae = 0.07266\nsamples = 347\nvalue = -0.92043", fillcolor="#e581390a"] ;
1 -> 17 ;
18 [label="branches <= -0.73303\nmae = 0.09594\nsamples = 59\nvalue = -0.72081", fillcolor="#e5813924"] ;
17 -> 18 ;
19 [label="L1-dcache-stores <= -0.55448\nmae = 0.01737\nsamples = 23\nvalue = -0.52105", fillcolor="#e581393d"] ;
18 -> 19 ;
20 [label="mae = 0.0\nsamples = 21\nvalue = -0.52105", fillcolor="#e581393d"] ;
19 -> 20 ;
21 [label="mae = 0.0\nsamples = 2\nvalue = -0.72081", fillcolor="#e5813924"] ;
19 -> 21 ;
22 [label="LLC-stores <= -0.72404\nmae = 0.04071\nsamples = 36\nvalue = -0.72081", fillcolor="#e5813924"] ;
18 -> 22 ;
23 [label="mae = 0.0\nsamples = 19\nvalue = -0.72081", fillcolor="#e5813924"] ;
22 -> 23 ;
24 [label="mae = 0.0\nsamples = 17\nvalue = -0.80702", fillcolor="#e5813919"] ;
22 -> 24 ;
25 [label="cpu-migrations <= -0.95854\nmae = 0.03702\nsamples = 288\nvalue = -0.92563", fillcolor="#e5813909"] ;
17 -> 25 ;
26 [label="LLC-load-misses <= -0.82219\nmae = 0.02309\nsamples = 89\nvalue = -0.99867", fillcolor="#e5813900"] ;
25 -> 26 ;
27 [label="mae = 0.03486\nsamples = 28\nvalue = -0.9339", fillcolor="#e5813908"] ;
26 -> 27 ;
28 [label="mae = 0.00176\nsamples = 61\nvalue = -0.9987", fillcolor="#e5813900"] ;
26 -> 28 ;
29 [label="LLC-load-misses <= -0.93849\nmae = 0.02402\nsamples = 199\nvalue = -0.91855", fillcolor="#e581390a"] ;
25 -> 29 ;
30 [label="mae = 0.0\nsamples = 22\nvalue = -0.85586", fillcolor="#e5813912"] ;
29 -> 30 ;
31 [label="mae = 0.01919\nsamples = 177\nvalue = -0.92043", fillcolor="#e581390a"] ;
29 -> 31 ;
32 [label="cache-misses <= -0.70678\nmae = 0.24506\nsamples = 427\nvalue = -0.59414", fillcolor="#e5813934"] ;
0 -> 32 [labeldistance=2.5, labelangle=-45, headlabel="False"] ;
33 [label="cpu-migrations <= -0.99808\nmae = 0.3477\nsamples = 110\nvalue = -0.20707", fillcolor="#e5813965"] ;
32 -> 33 ;
34 [label="LLC-loads <= -0.43419\nmae = 0.0525\nsamples = 23\nvalue = 0.99994", fillcolor="#e58139ff"] ;
33 -> 34 ;
35 [label="L1-dcache-load-misses <= 0.97209\nmae = 3e-05\nsamples = 22\nvalue = 0.99995", fillcolor="#e58139ff"] ;
34 -> 35 ;
36 [label="mae = 1e-05\nsamples = 4\nvalue = 0.9999", fillcolor="#e58139ff"] ;
35 -> 36 ;
37 [label="mae = 2e-05\nsamples = 18\nvalue = 0.99996", fillcolor="#e58139ff"] ;
35 -> 37 ;
38 [label="mae = 0.0\nsamples = 1\nvalue = -0.20707", fillcolor="#e5813965"] ;
34 -> 38 ;
39 [label="cache-misses <= -0.80144\nmae = 0.13356\nsamples = 87\nvalue = -0.2316", fillcolor="#e5813962"] ;
33 -> 39 ;
40 [label="cycles <= -0.08463\nmae = 1e-05\nsamples = 19\nvalue = 0.16917", fillcolor="#e5813995"] ;
39 -> 40 ;
41 [label="mae = 0.0\nsamples = 6\nvalue = 0.16918", fillcolor="#e5813995"] ;
40 -> 41 ;
42 [label="mae = 1e-05\nsamples = 13\nvalue = 0.16917", fillcolor="#e5813995"] ;
40 -> 42 ;
43 [label="L1-dcache-loads <= 0.57504\nmae = 0.05889\nsamples = 68\nvalue = -0.23161", fillcolor="#e5813962"] ;
39 -> 43 ;
44 [label="mae = 0.01227\nsamples = 46\nvalue = -0.21934", fillcolor="#e5813964"] ;
43 -> 44 ;
45 [label="mae = 0.0\nsamples = 22\nvalue = -0.38799", fillcolor="#e581394e"] ;
43 -> 45 ;
46 [label="L1-dcache-stores <= 0.09871\nmae = 0.08845\nsamples = 317\nvalue = -0.68095", fillcolor="#e5813929"] ;
32 -> 46 ;
47 [label="LLC-store-misses <= -0.64709\nmae = 0.08746\nsamples = 134\nvalue = -0.58741", fillcolor="#e5813935"] ;
46 -> 47 ;
48 [label="branches <= 0.88303\nmae = 0.0\nsamples = 20\nvalue = -0.51521", fillcolor="#e581393e"] ;
47 -> 48 ;
49 [label="mae = 0.0\nsamples = 13\nvalue = -0.51521", fillcolor="#e581393e"] ;
48 -> 49 ;
50 [label="mae = 0.0\nsamples = 7\nvalue = -0.51521", fillcolor="#e581393e"] ;
48 -> 50 ;
51 [label="L1-dcache-stores <= 0.00447\nmae = 0.08896\nsamples = 114\nvalue = -0.59414", fillcolor="#e5813934"] ;
47 -> 51 ;
52 [label="mae = 0.16221\nsamples = 10\nvalue = -0.99966", fillcolor="#e5813900"] ;
51 -> 52 ;
53 [label="mae = 0.07412\nsamples = 104\nvalue = -0.59414", fillcolor="#e5813934"] ;
51 -> 53 ;
54 [label="branch-misses <= -0.36165\nmae = 0.0355\nsamples = 183\nvalue = -0.72245", fillcolor="#e5813923"] ;
46 -> 54 ;
55 [label="L1-dcache-stores <= 0.99629\nmae = 0.0\nsamples = 16\nvalue = -0.56916", fillcolor="#e5813937"] ;
54 -> 55 ;
56 [label="mae = 0.0\nsamples = 12\nvalue = -0.56916", fillcolor="#e5813937"] ;
55 -> 56 ;
57 [label="mae = 0.0\nsamples = 4\nvalue = -0.56916", fillcolor="#e5813937"] ;
55 -> 57 ;
58 [label="branch-misses <= -0.33623\nmae = 0.02422\nsamples = 167\nvalue = -0.72245", fillcolor="#e5813923"] ;
54 -> 58 ;
59 [label="mae = 0.0\nsamples = 23\nvalue = -0.66692", fillcolor="#e581392a"] ;
58 -> 59 ;
60 [label="mae = 0.0191\nsamples = 144\nvalue = -0.73063", fillcolor="#e5813922"] ;
58 -> 60 ;
}