digraph Tree {
node [shape=box, style="filled, rounded", color="black", fontname=helvetica] ;
edge [fontname=helvetica] ;
0 [label="context-switches <= 0.4139\nmae = 0.54307\nsamples = 1417\nvalue = -0.41248", fillcolor="#e5813908"] ;
1 [label="L1-dcache-loads <= -0.53992\nmae = 0.14851\nsamples = 990\nvalue = -0.53759", fillcolor="#e5813903"] ;
0 -> 1 [labeldistance=2.5, labelangle=45, headlabel="True"] ;
2 [label="LLC-load-misses <= -0.43297\nmae = 0.06423\nsamples = 645\nvalue = -0.55784", fillcolor="#e5813902"] ;
1 -> 2 ;
3 [label="LLC-loads <= -0.72141\nmae = 0.05936\nsamples = 593\nvalue = -0.55902", fillcolor="#e5813902"] ;
2 -> 3 ;
4 [label="LLC-load-misses <= -0.59759\nmae = 0.05219\nsamples = 67\nvalue = -0.41248", fillcolor="#e5813908"] ;
3 -> 4 ;
5 [label="cycles <= -0.86757\nmae = 0.01233\nsamples = 28\nvalue = -0.48007", fillcolor="#e5813905"] ;
4 -> 5 ;
6 [label="mae = 0.0\nsamples = 22\nvalue = -0.48007", fillcolor="#e5813905"] ;
5 -> 6 ;
7 [label="mae = 0.0\nsamples = 6\nvalue = -0.53759", fillcolor="#e5813903"] ;
5 -> 7 ;
8 [label="branch-misses <= -0.92285\nmae = 0.0224\nsamples = 39\nvalue = -0.37748", fillcolor="#e5813909"] ;
4 -> 8 ;
9 [label="mae = 0.0\nsamples = 25\nvalue = -0.37748", fillcolor="#e5813909"] ;
8 -> 9 ;
10 [label="mae = 0.02741\nsamples = 14\nvalue = -0.41248", fillcolor="#e5813908"] ;
8 -> 10 ;
11 [label="LLC-stores <= -0.37071\nmae = 0.0511\nsamples = 526\nvalue = -0.56103", fillcolor="#e5813902"] ;
3 -> 11 ;
12 [label="instructions <= -0.68228\nmae = 0.05026\nsamples = 431\nvalue = -0.55902", fillcolor="#e5813902"] ;
11 -> 12 ;
13 [label="mae = 0.02086\nsamples = 405\nvalue = -0.55902", fillcolor="#e5813902"] ;
12 -> 13 ;
14 [label="mae = 0.0\nsamples = 26\nvalue = -0.05079", fillcolor="#e5813917"] ;
12 -> 14 ;
15 [label="instructions <= -0.53267\nmae = 0.01282\nsamples = 95\nvalue = -0.60436", fillcolor="#e5813900"] ;
11 -> 15 ;
16 [label="mae = 0.00035\nsamples = 93\nvalue = -0.60436", fillcolor="#e5813900"] ;
15 -> 16 ;
17 [label="mae = 0.0\nsamples = 2\nvalue = -0.01169", fillcolor="#e5813919"] ;
15 -> 17 ;
18 [label="L1-dcache-load-misses <= -0.51064\nmae = 0.01944\nsamples = 52\nvalue = -0.43903", fillcolor="#e5813907"] ;
2 -> 18 ;
19 [label="LLC-store-misses <= -0.40607\nmae = 0.01336\nsamples = 50\nvalue = -0.43903", fillcolor="#e5813907"] ;
18 -> 19 ;
20 [label="LLC-load-misses <= -0.4258\nmae = 0.0\nsamples = 24\nvalue = -0.43902", fillcolor="#e5813907"] ;
19 -> 20 ;
21 [label="mae = 0.0\nsamples = 3\nvalue = -0.43902", fillcolor="#e5813907"] ;
20 -> 21 ;
22 [label="mae = 0.0\nsamples = 21\nvalue = -0.43903", fillcolor="#e5813907"] ;
20 -> 22 ;
23 [label="instructions <= -0.54172\nmae = 0.01092\nsamples = 26\nvalue = -0.46303", fillcolor="#e5813906"] ;
19 -> 23 ;
24 [label="mae = 0.0\nsamples = 21\nvalue = -0.46303", fillcolor="#e5813906"] ;
23 -> 24 ;
25 [label="mae = 0.00756\nsamples = 5\nvalue = -0.41382", fillcolor="#e5813908"] ;
23 -> 25 ;
26 [label="LLC-stores <= -0.1995\nmae = 0.0\nsamples = 2\nvalue = -0.26756", fillcolor="#e581390e"] ;
18 -> 26 ;
27 [label="mae = 0.0\nsamples = 1\nvalue = -0.26756", fillcolor="#e581390e"] ;
26 -> 27 ;
28 [label="mae = 0.0\nsamples = 1\nvalue = -0.26757", fillcolor="#e581390e"] ;
26 -> 28 ;
29 [label="LLC-load-misses <= -0.45561\nmae = 0.22276\nsamples = 345\nvalue = -0.36005", fillcolor="#e581390a"] ;
1 -> 29 ;
30 [label="branches <= -0.49445\nmae = 0.29471\nsamples = 59\nvalue = 0.25314", fillcolor="#e5813924"] ;
29 -> 30 ;
31 [label="cycles <= -0.47678\nmae = 0.05336\nsamples = 23\nvalue = 0.86674", fillcolor="#e581393d"] ;
30 -> 31 ;
32 [label="L1-dcache-loads <= -0.22642\nmae = 0.0\nsamples = 21\nvalue = 0.86674", fillcolor="#e581393d"] ;
31 -> 32 ;
33 [label="mae = 0.0\nsamples = 10\nvalue = 0.86673", fillcolor="#e581393d"] ;
32 -> 33 ;
34 [label="mae = 0.0\nsamples = 11\nvalue = 0.86674", fillcolor="#e581393d"] ;
32 -> 34 ;
35 [label="branch-misses <= -0.56321\nmae = 0.0\nsamples = 2\nvalue = 0.25314", fillcolor="#e5813924"] ;
31 -> 35 ;
36 [label="mae = 0.0\nsamples = 1\nvalue = 0.25314", fillcolor="#e5813924"] ;
35 -> 36 ;
37 [label="mae = 0.0\nsamples = 1\nvalue = 0.25314", fillcolor="#e5813924"] ;
35 -> 37 ;
38 [label="cache-misses <= -0.46764\nmae = 0.12506\nsamples = 36\nvalue = 0.25314", fillcolor="#e5813924"] ;
30 -> 38 ;
39 [label="branch-misses <= -0.55841\nmae = 0.0\nsamples = 19\nvalue = 0.25314", fillcolor="#e5813924"] ;
38 -> 39 ;
40 [label="mae = 0.0\nsamples = 10\nvalue = 0.25314", fillcolor="#e5813924"] ;
39 -> 40 ;
41 [label="mae = 0.0\nsamples = 9\nvalue = 0.25314", fillcolor="#e5813924"] ;
39 -> 41 ;
42 [label="L1-dcache-stores <= -0.5625\nmae = 0.0\nsamples = 17\nvalue = -0.01169", fillcolor="#e5813919"] ;
38 -> 42 ;
43 [label="mae = 0.0\nsamples = 14\nvalue = -0.01169", fillcolor="#e5813919"] ;
42 -> 43 ;
44 [label="mae = 0.0\nsamples = 3\nvalue = -0.01169", fillcolor="#e5813919"] ;
42 -> 44 ;
45 [label="cpu-migrations <= -0.49303\nmae = 0.11245\nsamples = 286\nvalue = -0.37602", fillcolor="#e5813909"] ;
29 -> 45 ;
46 [label="cache-misses <= -0.11754\nmae = 0.06576\nsamples = 87\nvalue = -0.60038", fillcolor="#e5813900"] ;
45 -> 46 ;
47 [label="branches <= -0.26123\nmae = 0.09256\nsamples = 26\nvalue = -0.40144", fillcolor="#e5813908"] ;
46 -> 47 ;
48 [label="mae = 0.05218\nsamples = 23\nvalue = -0.41382", fillcolor="#e5813908"] ;
47 -> 48 ;
49 [label="mae = 0.0\nsamples = 3\nvalue = -0.01169", fillcolor="#e5813919"] ;
47 -> 49 ;
50 [label="L1-dcache-load-misses <= -0.51435\nmae = 0.0054\nsamples = 61\nvalue = -0.60048", fillcolor="#e5813900"] ;
46 -> 50 ;
51 [label="mae = 0.0\nsamples = 1\nvalue = -0.35426", fillcolor="#e581390a"] ;
50 -> 51 ;
52 [label="mae = 0.00138\nsamples = 60\nvalue = -0.60048", fillcolor="#e5813900"] ;
50 -> 52 ;
53 [label="LLC-load-misses <= -0.43107\nmae = 0.07379\nsamples = 199\nvalue = -0.35426", fillcolor="#e581390a"] ;
45 -> 53 ;
54 [label="cycles <= -0.45262\nmae = 0.0\nsamples = 22\nvalue = -0.16172", fillcolor="#e5813912"] ;
53 -> 54 ;
55 [label="mae = 0.0\nsamples = 19\nvalue = -0.16172", fillcolor="#e5813912"] ;
54 -> 55 ;
56 [label="mae = 0.0\nsamples = 3\nvalue = -0.16171", fillcolor="#e5813912"] ;
54 -> 56 ;
57 [label="cycles <= -0.43131\nmae = 0.05894\nsamples = 177\nvalue = -0.36005", fillcolor="#e581390a"] ;
53 -> 57 ;
58 [label="mae = 0.02535\nsamples = 65\nvalue = -0.29602", fillcolor="#e581390d"] ;
57 -> 58 ;
59 [label="mae = 0.05824\nsamples = 112\nvalue = -0.37602", fillcolor="#e5813909"] ;
57 -> 59 ;
60 [label="cache-misses <= 0.23677\nmae = 0.75276\nsamples = 427\nvalue = 0.64221", fillcolor="#e5813934"] ;
0 -> 60 [labeldistance=2.5, labelangle=-45, headlabel="False"] ;
61 [label="cpu-migrations <= -0.57459\nmae = 1.06806\nsamples = 110\nvalue = 1.83119", fillcolor="#e5813965"] ;
60 -> 61 ;
62 [label="minor-faults <= -0.24426\nmae = 0.16128\nsamples = 23\nvalue = 5.53883", fillcolor="#e58139ff"] ;
61 -> 62 ;
63 [label="mae = 0.0\nsamples = 1\nvalue = 1.83119", fillcolor="#e5813965"] ;
62 -> 63 ;
64 [label="L1-dcache-load-misses <= 1.5343\nmae = 8e-05\nsamples = 22\nvalue = 5.53884", fillcolor="#e58139ff"] ;
62 -> 64 ;
65 [label="minor-faults <= -0.14212\nmae = 3e-05\nsamples = 4\nvalue = 5.53871", fillcolor="#e58139ff"] ;
64 -> 65 ;
66 [label="mae = 0.0\nsamples = 1\nvalue = 5.53876", fillcolor="#e58139ff"] ;
65 -> 66 ;
67 [label="mae = 1e-05\nsamples = 3\nvalue = 5.5387", fillcolor="#e58139ff"] ;
65 -> 67 ;
68 [label="instructions <= 2.11396\nmae = 7e-05\nsamples = 18\nvalue = 5.53888", fillcolor="#e58139ff"] ;
64 -> 68 ;
69 [label="mae = 5e-05\nsamples = 9\nvalue = 5.53892", fillcolor="#e58139ff"] ;
68 -> 69 ;
70 [label="mae = 5e-05\nsamples = 9\nvalue = 5.53882", fillcolor="#e58139ff"] ;
68 -> 70 ;
71 [label="LLC-load-misses <= -0.00242\nmae = 0.41025\nsamples = 87\nvalue = 1.75585", fillcolor="#e5813962"] ;
61 -> 71 ;
72 [label="cycles <= 1.05693\nmae = 2e-05\nsamples = 19\nvalue = 2.98691", fillcolor="#e5813995"] ;
71 -> 72 ;
73 [label="cpu-migrations <= -0.54444\nmae = 1e-05\nsamples = 6\nvalue = 2.98694", fillcolor="#e5813995"] ;
72 -> 73 ;
74 [label="mae = 0.0\nsamples = 5\nvalue = 2.98694", fillcolor="#e5813995"] ;
73 -> 74 ;
75 [label="mae = 0.0\nsamples = 1\nvalue = 2.98691", fillcolor="#e5813995"] ;
73 -> 75 ;
76 [label="instructions <= 2.11508\nmae = 2e-05\nsamples = 13\nvalue = 2.9869", fillcolor="#e5813995"] ;
72 -> 76 ;
77 [label="mae = 1e-05\nsamples = 6\nvalue = 2.98688", fillcolor="#e5813995"] ;
76 -> 77 ;
78 [label="mae = 1e-05\nsamples = 7\nvalue = 2.98691", fillcolor="#e5813995"] ;
76 -> 78 ;
79 [label="context-switches <= 0.82655\nmae = 0.1809\nsamples = 68\nvalue = 1.75583", fillcolor="#e5813962"] ;
71 -> 79 ;
80 [label="instructions <= 0.88029\nmae = 0.03768\nsamples = 46\nvalue = 1.79352", fillcolor="#e5813964"] ;
79 -> 80 ;
81 [label="mae = 1e-05\nsamples = 23\nvalue = 1.75583", fillcolor="#e5813962"] ;
80 -> 81 ;
82 [label="mae = 0.0\nsamples = 23\nvalue = 1.83119", fillcolor="#e5813965"] ;
80 -> 82 ;
83 [label="L1-dcache-load-misses <= 1.53524\nmae = 0.0\nsamples = 22\nvalue = 1.27547", fillcolor="#e581394e"] ;
79 -> 83 ;
84 [label="mae = 0.0\nsamples = 13\nvalue = 1.27547", fillcolor="#e581394e"] ;
83 -> 84 ;
85 [label="mae = 0.0\nsamples = 9\nvalue = 1.27547", fillcolor="#e581394e"] ;
83 -> 85 ;
86 [label="L1-dcache-stores <= 0.84182\nmae = 0.2717\nsamples = 317\nvalue = 0.37558", fillcolor="#e5813929"] ;
60 -> 86 ;
87 [label="LLC-store-misses <= 0.49913\nmae = 0.26867\nsamples = 134\nvalue = 0.66289", fillcolor="#e5813935"] ;
86 -> 87 ;
88 [label="branches <= 2.09393\nmae = 0.0\nsamples = 20\nvalue = 0.88468", fillcolor="#e581393e"] ;
87 -> 88 ;
89 [label="cycles <= 0.93011\nmae = 0.0\nsamples = 13\nvalue = 0.88469", fillcolor="#e581393e"] ;
88 -> 89 ;
90 [label="mae = 0.0\nsamples = 12\nvalue = 0.88469", fillcolor="#e581393e"] ;
89 -> 90 ;
91 [label="mae = 0.0\nsamples = 1\nvalue = 0.88468", fillcolor="#e581393e"] ;
89 -> 91 ;
92 [label="page-faults <= 2.61803\nmae = 0.0\nsamples = 7\nvalue = 0.88468", fillcolor="#e581393e"] ;
88 -> 92 ;
93 [label="mae = 0.0\nsamples = 5\nvalue = 0.88468", fillcolor="#e581393e"] ;
92 -> 93 ;
94 [label="mae = 0.0\nsamples = 2\nvalue = 0.88468", fillcolor="#e581393e"] ;
92 -> 94 ;
95 [label="L1-dcache-stores <= 0.69427\nmae = 0.27326\nsamples = 114\nvalue = 0.64222", fillcolor="#e5813934"] ;
87 -> 95 ;
96 [label="cycles <= 1.57041\nmae = 0.49826\nsamples = 10\nvalue = -0.60343", fillcolor="#e5813900"] ;
95 -> 96 ;
97 [label="mae = 0.0\nsamples = 4\nvalue = 0.64222", fillcolor="#e5813934"] ;
96 -> 97 ;
98 [label="mae = 0.0\nsamples = 6\nvalue = -0.60344", fillcolor="#e5813900"] ;
96 -> 98 ;
99 [label="L1-dcache-stores <= 0.76804\nmae = 0.22767\nsamples = 104\nvalue = 0.64222", fillcolor="#e5813934"] ;
95 -> 99 ;
100 [label="mae = 0.2545\nsamples = 84\nvalue = 0.64221", fillcolor="#e5813934"] ;
99 -> 100 ;
101 [label="mae = 1e-05\nsamples = 20\nvalue = 0.75722", fillcolor="#e5813939"] ;
99 -> 101 ;
102 [label="branch-misses <= 0.21311\nmae = 0.10906\nsamples = 183\nvalue = 0.2481", fillcolor="#e5813923"] ;
86 -> 102 ;
103 [label="L1-dcache-stores <= 2.24721\nmae = 0.0\nsamples = 16\nvalue = 0.71897", fillcolor="#e5813937"] ;
102 -> 103 ;
104 [label="cache-misses <= 0.44734\nmae = 0.0\nsamples = 12\nvalue = 0.71897", fillcolor="#e5813937"] ;
103 -> 104 ;
105 [label="mae = 0.0\nsamples = 10\nvalue = 0.71896", fillcolor="#e5813937"] ;
104 -> 105 ;
106 [label="mae = 0.0\nsamples = 2\nvalue = 0.71897", fillcolor="#e5813937"] ;
104 -> 106 ;
107 [label="branches <= 1.12126\nmae = 0.0\nsamples = 4\nvalue = 0.71897", fillcolor="#e5813937"] ;
103 -> 107 ;
108 [label="mae = 0.0\nsamples = 1\nvalue = 0.71896", fillcolor="#e5813937"] ;
107 -> 108 ;
109 [label="mae = 0.0\nsamples = 3\nvalue = 0.71897", fillcolor="#e5813937"] ;
107 -> 109 ;
110 [label="LLC-store-misses <= 0.06613\nmae = 0.07439\nsamples = 167\nvalue = 0.2481", fillcolor="#e5813923"] ;
102 -> 110 ;
111 [label="branches <= 1.14048\nmae = 0.0\nsamples = 23\nvalue = 0.41867", fillcolor="#e581392a"] ;
110 -> 111 ;
112 [label="mae = 0.0\nsamples = 19\nvalue = 0.41867", fillcolor="#e581392a"] ;
111 -> 112 ;
113 [label="mae = 0.0\nsamples = 4\nvalue = 0.41866", fillcolor="#e581392a"] ;
111 -> 113 ;
114 [label="context-switches <= 1.07465\nmae = 0.05868\nsamples = 144\nvalue = 0.22298", fillcolor="#e5813922"] ;
110 -> 114 ;
115 [label="mae = 1e-05\nsamples = 25\nvalue = 0.37558", fillcolor="#e5813929"] ;
114 -> 115 ;
116 [label="mae = 0.03895\nsamples = 119\nvalue = 0.22296", fillcolor="#e5813922"] ;
114 -> 116 ;
}