digraph Tree {
node [shape=box, style="filled, rounded", color="black", fontname=helvetica] ;
edge [fontname=helvetica] ;
0 [label="matrix_workload <= -0.94197\nmae = 0.07195\nsamples = 1575\nvalue = -0.99984", fillcolor="#e5813900"] ;
1 [label="LLC-load-misses <= -0.69719\nmae = 0.42385\nsamples = 156\nvalue = -0.55066", fillcolor="#e5813939"] ;
0 -> 1 [labeldistance=2.5, labelangle=45, headlabel="True"] ;
2 [label="cycles <= -0.36839\nmae = 0.00779\nsamples = 24\nvalue = 0.98606", fillcolor="#e58139fd"] ;
1 -> 2 ;
3 [label="cycles <= -0.37429\nmae = 0.00427\nsamples = 14\nvalue = 0.98251", fillcolor="#e58139fd"] ;
2 -> 3 ;
4 [label="mae = 0.00033\nsamples = 2\nvalue = 0.96726", fillcolor="#e58139fb"] ;
3 -> 4 ;
5 [label="mae = 0.00241\nsamples = 12\nvalue = 0.98279", fillcolor="#e58139fd"] ;
3 -> 5 ;
6 [label="context-switches <= -0.51275\nmae = 0.00116\nsamples = 10\nvalue = 0.99654", fillcolor="#e58139ff"] ;
2 -> 6 ;
7 [label="mae = 0.00046\nsamples = 7\nvalue = 0.99614", fillcolor="#e58139ff"] ;
6 -> 7 ;
8 [label="mae = 0.00047\nsamples = 3\nvalue = 0.99879", fillcolor="#e58139ff"] ;
6 -> 8 ;
9 [label="instructions <= -0.33669\nmae = 0.21316\nsamples = 132\nvalue = -0.6535", fillcolor="#e581392c"] ;
1 -> 9 ;
10 [label="cache-misses <= -0.73803\nmae = 0.01237\nsamples = 19\nvalue = 0.11932", fillcolor="#e581398f"] ;
9 -> 10 ;
11 [label="mae = 0.00489\nsamples = 11\nvalue = 0.11262", fillcolor="#e581398e"] ;
10 -> 11 ;
12 [label="mae = 0.00451\nsamples = 8\nvalue = 0.13772", fillcolor="#e5813991"] ;
10 -> 12 ;
13 [label="Thread <= -0.27273\nmae = 0.11833\nsamples = 113\nvalue = -0.65769", fillcolor="#e581392c"] ;
9 -> 13 ;
14 [label="mae = 0.00266\nsamples = 23\nvalue = -0.34536", fillcolor="#e5813954"] ;
13 -> 14 ;
15 [label="mae = 0.06713\nsamples = 90\nvalue = -0.71655", fillcolor="#e5813924"] ;
13 -> 15 ;
16 [label="L1-dcache-load-misses <= -0.59353\nmae = 0.00034\nsamples = 1419\nvalue = -0.99988", fillcolor="#e5813900"] ;
0 -> 16 [labeldistance=2.5, labelangle=-45, headlabel="False"] ;
17 [label="L1-dcache-load-misses <= -0.96494\nmae = 8e-05\nsamples = 921\nvalue = -0.99993", fillcolor="#e5813900"] ;
16 -> 17 ;
18 [label="Thread <= -0.63636\nmae = 3e-05\nsamples = 484\nvalue = -0.99999", fillcolor="#e5813900"] ;
17 -> 18 ;
19 [label="mae = 3e-05\nsamples = 129\nvalue = -0.99993", fillcolor="#e5813900"] ;
18 -> 19 ;
20 [label="mae = 1e-05\nsamples = 355\nvalue = -0.99999", fillcolor="#e5813900"] ;
18 -> 20 ;
21 [label="Thread <= -0.63636\nmae = 9e-05\nsamples = 437\nvalue = -0.99989", fillcolor="#e5813900"] ;
17 -> 21 ;
22 [label="mae = 0.00011\nsamples = 100\nvalue = -0.99963", fillcolor="#e5813900"] ;
21 -> 22 ;
23 [label="mae = 3e-05\nsamples = 337\nvalue = -0.9999", fillcolor="#e5813900"] ;
21 -> 23 ;
24 [label="Thread <= -0.63636\nmae = 0.00047\nsamples = 498\nvalue = -0.99939", fillcolor="#e5813900"] ;
16 -> 24 ;
25 [label="Thread <= -0.90909\nmae = 0.00063\nsamples = 161\nvalue = -0.99839", fillcolor="#e5813900"] ;
24 -> 25 ;
26 [label="mae = 0.00055\nsamples = 92\nvalue = -0.99766", fillcolor="#e5813900"] ;
25 -> 26 ;
27 [label="mae = 0.00016\nsamples = 69\nvalue = -0.99871", fillcolor="#e5813900"] ;
25 -> 27 ;
28 [label="page-faults <= -0.51113\nmae = 0.00014\nsamples = 337\nvalue = -0.99947", fillcolor="#e5813900"] ;
24 -> 28 ;
29 [label="mae = 7e-05\nsamples = 150\nvalue = -0.99963", fillcolor="#e5813900"] ;
28 -> 29 ;
30 [label="mae = 9e-05\nsamples = 187\nvalue = -0.9994", fillcolor="#e5813900"] ;
28 -> 30 ;
}