digraph Tree {
node [shape=box, style="filled, rounded", color="black", fontname=helvetica] ;
edge [fontname=helvetica] ;
0 [label="matrix_workload <= -0.88933\nmae = 0.25186\nsamples = 1575\nvalue = -0.254", fillcolor="#e5813900"] ;
1 [label="cache-misses <= 0.13078\nmae = 1.48363\nsamples = 156\nvalue = 1.31829", fillcolor="#e5813939"] ;
0 -> 1 [labeldistance=2.5, labelangle=45, headlabel="True"] ;
2 [label="cycles <= 0.42071\nmae = 0.02726\nsamples = 24\nvalue = 6.69734", fillcolor="#e58139fd"] ;
1 -> 2 ;
3 [label="context-switches <= 0.10765\nmae = 0.01495\nsamples = 14\nvalue = 6.68489", fillcolor="#e58139fd"] ;
2 -> 3 ;
4 [label="cycles <= 0.40352\nmae = 0.00115\nsamples = 2\nvalue = 6.63151", fillcolor="#e58139fb"] ;
3 -> 4 ;
5 [label="mae = 0.0\nsamples = 1\nvalue = 6.63036", fillcolor="#e58139fb"] ;
4 -> 5 ;
6 [label="mae = 0.0\nsamples = 1\nvalue = 6.63265", fillcolor="#e58139fb"] ;
4 -> 6 ;
7 [label="cycles <= 0.41555\nmae = 0.00843\nsamples = 12\nvalue = 6.6859", fillcolor="#e58139fd"] ;
3 -> 7 ;
8 [label="mae = 0.00522\nsamples = 7\nvalue = 6.67859", fillcolor="#e58139fd"] ;
7 -> 8 ;
9 [label="mae = 0.00209\nsamples = 5\nvalue = 6.69522", fillcolor="#e58139fd"] ;
7 -> 9 ;
10 [label="cycles <= 0.42573\nmae = 0.00406\nsamples = 10\nvalue = 6.734", fillcolor="#e58139ff"] ;
2 -> 10 ;
11 [label="cycles <= 0.42414\nmae = 0.00161\nsamples = 7\nvalue = 6.73262", fillcolor="#e58139ff"] ;
10 -> 11 ;
12 [label="mae = 0.0\nsamples = 1\nvalue = 6.72793", fillcolor="#e58139fe"] ;
11 -> 12 ;
13 [label="mae = 0.0011\nsamples = 6\nvalue = 6.73312", fillcolor="#e58139ff"] ;
11 -> 13 ;
14 [label="LLC-store-misses <= -0.48292\nmae = 0.00165\nsamples = 3\nvalue = 6.7419", fillcolor="#e58139ff"] ;
10 -> 14 ;
15 [label="mae = 0.0\nsamples = 1\nvalue = 6.74612", fillcolor="#e58139ff"] ;
14 -> 15 ;
16 [label="mae = 0.00037\nsamples = 2\nvalue = 6.74153", fillcolor="#e58139ff"] ;
14 -> 16 ;
17 [label="Thread <= -0.82798\nmae = 0.74613\nsamples = 132\nvalue = 0.95832", fillcolor="#e581392c"] ;
1 -> 17 ;
18 [label="cache-misses <= 0.1405\nmae = 0.04329\nsamples = 19\nvalue = 3.66343", fillcolor="#e581398f"] ;
17 -> 18 ;
19 [label="cache-references <= 2.05168\nmae = 0.01713\nsamples = 11\nvalue = 3.64", fillcolor="#e581398e"] ;
18 -> 19 ;
20 [label="mae = 0.01041\nsamples = 3\nvalue = 3.60656", fillcolor="#e581398d"] ;
19 -> 20 ;
21 [label="mae = 0.01037\nsamples = 8\nvalue = 3.64056", fillcolor="#e581398e"] ;
19 -> 21 ;
22 [label="cycles <= 0.39987\nmae = 0.01579\nsamples = 8\nvalue = 3.72784", fillcolor="#e5813991"] ;
18 -> 22 ;
23 [label="mae = 0.0017\nsamples = 2\nvalue = 3.69233", fillcolor="#e5813990"] ;
22 -> 23 ;
24 [label="mae = 0.00867\nsamples = 6\nvalue = 3.73285", fillcolor="#e5813991"] ;
22 -> 24 ;
25 [label="branch-misses <= -0.37703\nmae = 0.41421\nsamples = 113\nvalue = 0.94366", fillcolor="#e581392c"] ;
17 -> 25 ;
26 [label="cycles <= 0.50717\nmae = 0.00932\nsamples = 23\nvalue = 2.03692", fillcolor="#e5813953"] ;
25 -> 26 ;
27 [label="mae = 0.00407\nsamples = 9\nvalue = 2.02562", fillcolor="#e5813953"] ;
26 -> 27 ;
28 [label="mae = 0.00589\nsamples = 14\nvalue = 2.04096", fillcolor="#e5813954"] ;
26 -> 28 ;
29 [label="branches <= 0.27741\nmae = 0.23498\nsamples = 90\nvalue = 0.73763", fillcolor="#e5813924"] ;
25 -> 29 ;
30 [label="mae = 0.01132\nsamples = 19\nvalue = 1.32091", fillcolor="#e5813939"] ;
29 -> 30 ;
31 [label="mae = 0.13948\nsamples = 71\nvalue = 0.72435", fillcolor="#e5813924"] ;
29 -> 31 ;
32 [label="L1-dcache-load-misses <= -0.40828\nmae = 0.00118\nsamples = 1419\nvalue = -0.25412", fillcolor="#e5813900"] ;
0 -> 32 [labeldistance=2.5, labelangle=-45, headlabel="False"] ;
33 [label="L1-dcache-load-misses <= -0.89293\nmae = 0.00027\nsamples = 921\nvalue = -0.25432", fillcolor="#e5813900"] ;
32 -> 33 ;
34 [label="Thread <= -0.82798\nmae = 9e-05\nsamples = 484\nvalue = -0.25451", fillcolor="#e5813900"] ;
33 -> 34 ;
35 [label="LLC-load-misses <= -0.64623\nmae = 0.00011\nsamples = 129\nvalue = -0.25429", fillcolor="#e5813900"] ;
34 -> 35 ;
36 [label="mae = 2e-05\nsamples = 66\nvalue = -0.25436", fillcolor="#e5813900"] ;
35 -> 36 ;
37 [label="mae = 3e-05\nsamples = 63\nvalue = -0.25416", fillcolor="#e5813900"] ;
35 -> 37 ;
38 [label="Thread <= 0.22581\nmae = 2e-05\nsamples = 355\nvalue = -0.25453", fillcolor="#e5813900"] ;
34 -> 38 ;
39 [label="mae = 2e-05\nsamples = 136\nvalue = -0.25449", fillcolor="#e5813900"] ;
38 -> 39 ;
40 [label="mae = 1e-05\nsamples = 219\nvalue = -0.25454", fillcolor="#e5813900"] ;
38 -> 40 ;
41 [label="cpu-migrations <= -0.60234\nmae = 0.00032\nsamples = 437\nvalue = -0.25418", fillcolor="#e5813900"] ;
33 -> 41 ;
42 [label="Thread <= -1.22315\nmae = 0.00037\nsamples = 100\nvalue = -0.25327", fillcolor="#e5813900"] ;
41 -> 42 ;
43 [label="mae = 0.00011\nsamples = 43\nvalue = -0.25272", fillcolor="#e5813900"] ;
42 -> 43 ;
44 [label="mae = 7e-05\nsamples = 57\nvalue = -0.25351", fillcolor="#e5813900"] ;
42 -> 44 ;
45 [label="Thread <= -0.30108\nmae = 0.00011\nsamples = 337\nvalue = -0.25421", fillcolor="#e5813900"] ;
41 -> 45 ;
46 [label="mae = 5e-05\nsamples = 71\nvalue = -0.25396", fillcolor="#e5813900"] ;
45 -> 46 ;
47 [label="mae = 7e-05\nsamples = 266\nvalue = -0.25423", fillcolor="#e5813900"] ;
45 -> 47 ;
48 [label="Thread <= -0.82798\nmae = 0.00164\nsamples = 498\nvalue = -0.25243", fillcolor="#e5813900"] ;
32 -> 48 ;
49 [label="Thread <= -1.22315\nmae = 0.00222\nsamples = 161\nvalue = -0.24892", fillcolor="#e5813900"] ;
48 -> 49 ;
50 [label="L1-dcache-stores <= 0.15616\nmae = 0.00192\nsamples = 92\nvalue = -0.24635", fillcolor="#e5813900"] ;
49 -> 50 ;
51 [label="mae = 0.0\nsamples = 22\nvalue = -0.25224", fillcolor="#e5813900"] ;
50 -> 51 ;
52 [label="mae = 0.00067\nsamples = 70\nvalue = -0.24628", fillcolor="#e5813900"] ;
50 -> 52 ;
53 [label="context-switches <= 0.68443\nmae = 0.00058\nsamples = 69\nvalue = -0.25003", fillcolor="#e5813900"] ;
49 -> 53 ;
54 [label="mae = 0.00035\nsamples = 49\nvalue = -0.25004", fillcolor="#e5813900"] ;
53 -> 54 ;
55 [label="mae = 2e-05\nsamples = 20\nvalue = -0.24891", fillcolor="#e5813900"] ;
53 -> 55 ;
56 [label="page-faults <= 1.00355\nmae = 0.00048\nsamples = 337\nvalue = -0.25268", fillcolor="#e5813900"] ;
48 -> 56 ;
57 [label="LLC-stores <= 1.90992\nmae = 0.00026\nsamples = 150\nvalue = -0.25326", fillcolor="#e5813900"] ;
56 -> 57 ;
58 [label="mae = 0.0002\nsamples = 130\nvalue = -0.25329", fillcolor="#e5813900"] ;
57 -> 58 ;
59 [label="mae = 3e-05\nsamples = 20\nvalue = -0.25267", fillcolor="#e5813900"] ;
57 -> 59 ;
60 [label="Thread <= -0.30108\nmae = 0.00031\nsamples = 187\nvalue = -0.25244", fillcolor="#e5813900"] ;
56 -> 60 ;
61 [label="mae = 0.00014\nsamples = 62\nvalue = -0.25188", fillcolor="#e5813900"] ;
60 -> 61 ;
62 [label="mae = 0.00014\nsamples = 125\nvalue = -0.25249", fillcolor="#e5813900"] ;
60 -> 62 ;
}