digraph Tree {
node [shape=box, style="filled, rounded", color="black", fontname=helvetica] ;
edge [fontname=helvetica] ;
0 [label="matrix_workload <= -0.88933\nmae = 0.25186\nsamples = 1575\nvalue = -0.254", fillcolor="#e5813900"] ;
1 [label="cache-misses <= 0.13078\nmae = 1.48363\nsamples = 156\nvalue = 1.31829", fillcolor="#e5813939"] ;
0 -> 1 [labeldistance=2.5, labelangle=45, headlabel="True"] ;
2 [label="cycles <= 0.42071\nmae = 0.02726\nsamples = 24\nvalue = 6.69734", fillcolor="#e58139fd"] ;
1 -> 2 ;
3 [label="context-switches <= 0.10765\nmae = 0.01495\nsamples = 14\nvalue = 6.68489", fillcolor="#e58139fd"] ;
2 -> 3 ;
4 [label="mae = 0.00115\nsamples = 2\nvalue = 6.63151", fillcolor="#e58139fb"] ;
3 -> 4 ;
5 [label="mae = 0.00843\nsamples = 12\nvalue = 6.6859", fillcolor="#e58139fd"] ;
3 -> 5 ;
6 [label="context-switches <= 0.1206\nmae = 0.00406\nsamples = 10\nvalue = 6.734", fillcolor="#e58139ff"] ;
2 -> 6 ;
7 [label="mae = 0.00161\nsamples = 7\nvalue = 6.73262", fillcolor="#e58139ff"] ;
6 -> 7 ;
8 [label="mae = 0.00165\nsamples = 3\nvalue = 6.7419", fillcolor="#e58139ff"] ;
6 -> 8 ;
9 [label="Thread <= -0.82798\nmae = 0.74613\nsamples = 132\nvalue = 0.95832", fillcolor="#e581392c"] ;
1 -> 9 ;
10 [label="context-switches <= 0.27548\nmae = 0.04329\nsamples = 19\nvalue = 3.66343", fillcolor="#e581398f"] ;
9 -> 10 ;
11 [label="mae = 0.01713\nsamples = 11\nvalue = 3.64", fillcolor="#e581398e"] ;
10 -> 11 ;
12 [label="mae = 0.01579\nsamples = 8\nvalue = 3.72784", fillcolor="#e5813991"] ;
10 -> 12 ;
13 [label="branch-misses <= -0.37703\nmae = 0.41421\nsamples = 113\nvalue = 0.94366", fillcolor="#e581392c"] ;
9 -> 13 ;
14 [label="mae = 0.00932\nsamples = 23\nvalue = 2.03692", fillcolor="#e5813954"] ;
13 -> 14 ;
15 [label="mae = 0.23498\nsamples = 90\nvalue = 0.73763", fillcolor="#e5813924"] ;
13 -> 15 ;
16 [label="L1-dcache-load-misses <= -0.40828\nmae = 0.00118\nsamples = 1419\nvalue = -0.25412", fillcolor="#e5813900"] ;
0 -> 16 [labeldistance=2.5, labelangle=-45, headlabel="False"] ;
17 [label="L1-dcache-load-misses <= -0.89293\nmae = 0.00027\nsamples = 921\nvalue = -0.25432", fillcolor="#e5813900"] ;
16 -> 17 ;
18 [label="Thread <= -0.82798\nmae = 9e-05\nsamples = 484\nvalue = -0.25451", fillcolor="#e5813900"] ;
17 -> 18 ;
19 [label="mae = 0.00011\nsamples = 129\nvalue = -0.25429", fillcolor="#e5813900"] ;
18 -> 19 ;
20 [label="mae = 2e-05\nsamples = 355\nvalue = -0.25453", fillcolor="#e5813900"] ;
18 -> 20 ;
21 [label="Thread <= -0.82798\nmae = 0.00032\nsamples = 437\nvalue = -0.25418", fillcolor="#e5813900"] ;
17 -> 21 ;
22 [label="mae = 0.00037\nsamples = 100\nvalue = -0.25327", fillcolor="#e5813900"] ;
21 -> 22 ;
23 [label="mae = 0.00011\nsamples = 337\nvalue = -0.25421", fillcolor="#e5813900"] ;
21 -> 23 ;
24 [label="Thread <= -0.82798\nmae = 0.00164\nsamples = 498\nvalue = -0.25243", fillcolor="#e5813900"] ;
16 -> 24 ;
25 [label="Thread <= -1.22315\nmae = 0.00222\nsamples = 161\nvalue = -0.24892", fillcolor="#e5813900"] ;
24 -> 25 ;
26 [label="mae = 0.00192\nsamples = 92\nvalue = -0.24635", fillcolor="#e5813900"] ;
25 -> 26 ;
27 [label="mae = 0.00058\nsamples = 69\nvalue = -0.25003", fillcolor="#e5813900"] ;
25 -> 27 ;
28 [label="page-faults <= 1.00355\nmae = 0.00048\nsamples = 337\nvalue = -0.25268", fillcolor="#e5813900"] ;
24 -> 28 ;
29 [label="mae = 0.00026\nsamples = 150\nvalue = -0.25326", fillcolor="#e5813900"] ;
28 -> 29 ;
30 [label="mae = 0.00031\nsamples = 187\nvalue = -0.25244", fillcolor="#e5813900"] ;
28 -> 30 ;
}