digraph Tree {
node [shape=box, style="filled, rounded", color="black", fontname=helvetica] ;
edge [fontname=helvetica] ;
0 [label="matrix_workload <= 139264.0\nmae = 27412.21538\nsamples = 1575\nvalue = 67.02", fillcolor="#e5813900"] ;
1 [label="cache-misses <= 5791630336.0\nmae = 161478.78205\nsamples = 156\nvalue = 171195.0", fillcolor="#e5813939"] ;
0 -> 1 [labeldistance=2.5, labelangle=45, headlabel="True"] ;
2 [label="cycles <= 2318424211456.0\nmae = 2966.66667\nsamples = 24\nvalue = 756650.0", fillcolor="#e58139fd"] ;
1 -> 2 ;
3 [label="context-switches <= 62830.0\nmae = 1627.14286\nsamples = 14\nvalue = 755295.0", fillcolor="#e58139fd"] ;
2 -> 3 ;
4 [label="page-faults <= 18151.0\nmae = 125.0\nsamples = 2\nvalue = 749485.0", fillcolor="#e58139fb"] ;
3 -> 4 ;
5 [label="mae = 0.0\nsamples = 1\nvalue = 749610.0", fillcolor="#e58139fb"] ;
4 -> 5 ;
6 [label="mae = 0.0\nsamples = 1\nvalue = 749360.0", fillcolor="#e58139fb"] ;
4 -> 6 ;
7 [label="cycles <= 2310314131456.0\nmae = 917.5\nsamples = 12\nvalue = 755405.0", fillcolor="#e58139fd"] ;
3 -> 7 ;
8 [label="mae = 568.57143\nsamples = 7\nvalue = 754610.0", fillcolor="#e58139fd"] ;
7 -> 8 ;
9 [label="mae = 228.0\nsamples = 5\nvalue = 756420.0", fillcolor="#e58139fd"] ;
7 -> 9 ;
10 [label="instructions <= 2390167781376.0\nmae = 442.0\nsamples = 10\nvalue = 760640.0", fillcolor="#e58139ff"] ;
2 -> 10 ;
11 [label="cache-references <= 38400985088.0\nmae = 180.0\nsamples = 3\nvalue = 761500.0", fillcolor="#e58139ff"] ;
10 -> 11 ;
12 [label="mae = 40.0\nsamples = 2\nvalue = 761460.0", fillcolor="#e58139ff"] ;
11 -> 12 ;
13 [label="mae = 0.0\nsamples = 1\nvalue = 761960.0", fillcolor="#e58139ff"] ;
11 -> 13 ;
14 [label="cycles <= 2323808780288.0\nmae = 175.71429\nsamples = 7\nvalue = 760490.0", fillcolor="#e58139ff"] ;
10 -> 14 ;
15 [label="mae = 0.0\nsamples = 1\nvalue = 759980.0", fillcolor="#e58139fe"] ;
14 -> 15 ;
16 [label="mae = 120.0\nsamples = 6\nvalue = 760545.0", fillcolor="#e58139ff"] ;
14 -> 16 ;
17 [label="branch-misses <= 47792274.0\nmae = 81209.01515\nsamples = 132\nvalue = 132015.0", fillcolor="#e581392c"] ;
1 -> 17 ;
18 [label="cache-misses <= 5862743808.0\nmae = 4712.10526\nsamples = 19\nvalue = 426440.0", fillcolor="#e581398f"] ;
17 -> 18 ;
19 [label="cache-references <= 38367258624.0\nmae = 1864.54545\nsamples = 11\nvalue = 423890.0", fillcolor="#e581398e"] ;
18 -> 19 ;
20 [label="mae = 1133.33333\nsamples = 3\nvalue = 420250.0", fillcolor="#e581398d"] ;
19 -> 20 ;
21 [label="mae = 1128.75\nsamples = 8\nvalue = 423950.0", fillcolor="#e581398e"] ;
19 -> 21 ;
22 [label="cycles <= 2285691076608.0\nmae = 1718.75\nsamples = 8\nvalue = 433450.0", fillcolor="#e5813991"] ;
18 -> 22 ;
23 [label="mae = 185.0\nsamples = 2\nvalue = 429585.0", fillcolor="#e5813990"] ;
22 -> 23 ;
24 [label="mae = 943.33333\nsamples = 6\nvalue = 433995.0", fillcolor="#e5813991"] ;
22 -> 24 ;
25 [label="branches <= 108494970880.0\nmae = 45082.65487\nsamples = 113\nvalue = 130420.0", fillcolor="#e581392c"] ;
17 -> 25 ;
26 [label="cycles <= 2454197239808.0\nmae = 1014.78261\nsamples = 23\nvalue = 249410.0", fillcolor="#e5813953"] ;
25 -> 26 ;
27 [label="mae = 443.33333\nsamples = 9\nvalue = 248180.0", fillcolor="#e5813953"] ;
26 -> 27 ;
28 [label="mae = 641.42857\nsamples = 14\nvalue = 249850.0", fillcolor="#e5813954"] ;
26 -> 28 ;
29 [label="branches <= 109448499200.0\nmae = 25575.44444\nsamples = 90\nvalue = 107995.0", fillcolor="#e5813924"] ;
25 -> 29 ;
30 [label="mae = 1232.10526\nsamples = 19\nvalue = 171480.0", fillcolor="#e5813939"] ;
29 -> 30 ;
31 [label="mae = 15180.70423\nsamples = 71\nvalue = 106550.0", fillcolor="#e5813924"] ;
29 -> 31 ;
32 [label="L1-dcache-load-misses <= 29649180672.0\nmae = 128.80908\nsamples = 1419\nvalue = 53.27", fillcolor="#e5813900"] ;
0 -> 32 [labeldistance=2.5, labelangle=-45, headlabel="False"] ;
33 [label="L1-dcache-load-misses <= 6942796032.0\nmae = 29.66929\nsamples = 921\nvalue = 32.19", fillcolor="#e5813900"] ;
32 -> 33 ;
34 [label="Thread <= 3.0\nmae = 9.8318\nsamples = 484\nvalue = 10.505", fillcolor="#e5813900"] ;
33 -> 34 ;
35 [label="LLC-load-misses <= 202261864.0\nmae = 11.58519\nsamples = 129\nvalue = 34.64", fillcolor="#e5813900"] ;
34 -> 35 ;
36 [label="mae = 1.92076\nsamples = 66\nvalue = 27.53", fillcolor="#e5813900"] ;
35 -> 36 ;
37 [label="mae = 3.4627\nsamples = 63\nvalue = 48.99", fillcolor="#e5813900"] ;
35 -> 37 ;
38 [label="Thread <= 7.0\nmae = 2.32575\nsamples = 355\nvalue = 8.76", fillcolor="#e5813900"] ;
34 -> 38 ;
39 [label="mae = 2.18169\nsamples = 136\nvalue = 13.24", fillcolor="#e5813900"] ;
38 -> 39 ;
40 [label="mae = 0.67731\nsamples = 219\nvalue = 8.22", fillcolor="#e5813900"] ;
38 -> 40 ;
41 [label="Thread <= 3.0\nmae = 35.16622\nsamples = 437\nvalue = 47.14", fillcolor="#e5813900"] ;
33 -> 41 ;
42 [label="Thread <= 1.5\nmae = 40.2234\nsamples = 100\nvalue = 146.48", fillcolor="#e5813900"] ;
41 -> 42 ;
43 [label="mae = 11.77442\nsamples = 43\nvalue = 206.15", fillcolor="#e5813900"] ;
42 -> 43 ;
44 [label="mae = 7.61474\nsamples = 57\nvalue = 119.91", fillcolor="#e5813900"] ;
42 -> 44 ;
45 [label="Thread <= 5.0\nmae = 11.60487\nsamples = 337\nvalue = 43.52", fillcolor="#e5813900"] ;
41 -> 45 ;
46 [label="mae = 5.46465\nsamples = 71\nvalue = 70.48", fillcolor="#e5813900"] ;
45 -> 46 ;
47 [label="mae = 7.14628\nsamples = 266\nvalue = 41.085", fillcolor="#e5813900"] ;
45 -> 47 ;
48 [label="Thread <= 3.0\nmae = 178.77749\nsamples = 498\nvalue = 236.915", fillcolor="#e5813900"] ;
32 -> 48 ;
49 [label="Thread <= 1.5\nmae = 241.09826\nsamples = 161\nvalue = 619.78", fillcolor="#e5813900"] ;
48 -> 49 ;
50 [label="cache-references <= 6081215744.0\nmae = 209.37022\nsamples = 92\nvalue = 899.31", fillcolor="#e5813900"] ;
49 -> 50 ;
51 [label="mae = 0.34864\nsamples = 22\nvalue = 258.07", fillcolor="#e5813900"] ;
50 -> 51 ;
52 [label="mae = 72.51329\nsamples = 70\nvalue = 906.635", fillcolor="#e5813900"] ;
50 -> 52 ;
53 [label="instructions <= 5430504325120.0\nmae = 62.69725\nsamples = 69\nvalue = 498.33", fillcolor="#e5813900"] ;
49 -> 53 ;
54 [label="mae = 38.12306\nsamples = 49\nvalue = 497.11", fillcolor="#e5813900"] ;
53 -> 54 ;
55 [label="mae = 1.724\nsamples = 20\nvalue = 620.15", fillcolor="#e5813900"] ;
53 -> 55 ;
56 [label="minor-faults <= 108463.0\nmae = 52.67546\nsamples = 337\nvalue = 209.88", fillcolor="#e5813900"] ;
48 -> 56 ;
57 [label="cache-references <= 22835170304.0\nmae = 28.2014\nsamples = 150\nvalue = 146.87", fillcolor="#e5813900"] ;
56 -> 57 ;
58 [label="mae = 22.11823\nsamples = 130\nvalue = 144.24", fillcolor="#e5813900"] ;
57 -> 58 ;
59 [label="mae = 3.221\nsamples = 20\nvalue = 211.35", fillcolor="#e5813900"] ;
57 -> 59 ;
60 [label="Thread <= 5.0\nmae = 33.54481\nsamples = 187\nvalue = 236.3", fillcolor="#e5813900"] ;
56 -> 60 ;
61 [label="mae = 15.17774\nsamples = 62\nvalue = 297.525", fillcolor="#e5813900"] ;
60 -> 61 ;
62 [label="mae = 15.62624\nsamples = 125\nvalue = 230.78", fillcolor="#e5813900"] ;
60 -> 62 ;
}