digraph Tree {
node [shape=box, style="filled, rounded", color="black", fontname=helvetica] ;
edge [fontname=helvetica] ;
0 [label="matrix_workload <= 139264.0\nmae = 27412.21538\nsamples = 1575\nvalue = 67.02", fillcolor="#e5813900"] ;
1 [label="branches <= 106410405888.0\nmae = 161478.78205\nsamples = 156\nvalue = 171195.0", fillcolor="#e5813939"] ;
0 -> 1 [labeldistance=2.5, labelangle=45, headlabel="True"] ;
2 [label="cycles <= 2318424211456.0\nmae = 2966.66667\nsamples = 24\nvalue = 756650.0", fillcolor="#e58139fd"] ;
1 -> 2 ;
3 [label="context-switches <= 62830.0\nmae = 1627.14286\nsamples = 14\nvalue = 755295.0", fillcolor="#e58139fd"] ;
2 -> 3 ;
4 [label="branches <= 105994338304.0\nmae = 125.0\nsamples = 2\nvalue = 749485.0", fillcolor="#e58139fb"] ;
3 -> 4 ;
5 [label="mae = 0.0\nsamples = 1\nvalue = 749610.0", fillcolor="#e58139fb"] ;
4 -> 5 ;
6 [label="mae = 0.0\nsamples = 1\nvalue = 749360.0", fillcolor="#e58139fb"] ;
4 -> 6 ;
7 [label="cycles <= 2310314131456.0\nmae = 917.5\nsamples = 12\nvalue = 755405.0", fillcolor="#e58139fd"] ;
3 -> 7 ;
8 [label="cycles <= 2307704356864.0\nmae = 568.57143\nsamples = 7\nvalue = 754610.0", fillcolor="#e58139fd"] ;
7 -> 8 ;
9 [label="mae = 240.0\nsamples = 4\nvalue = 754110.0", fillcolor="#e58139fc"] ;
8 -> 9 ;
10 [label="mae = 73.33333\nsamples = 3\nvalue = 755370.0", fillcolor="#e58139fd"] ;
8 -> 10 ;
11 [label="cycles <= 2312493727744.0\nmae = 228.0\nsamples = 5\nvalue = 756420.0", fillcolor="#e58139fd"] ;
7 -> 11 ;
12 [label="mae = 63.33333\nsamples = 3\nvalue = 756400.0", fillcolor="#e58139fd"] ;
11 -> 12 ;
13 [label="mae = 5.0\nsamples = 2\nvalue = 756885.0", fillcolor="#e58139fd"] ;
11 -> 13 ;
14 [label="context-switches <= 63551.5\nmae = 442.0\nsamples = 10\nvalue = 760640.0", fillcolor="#e58139ff"] ;
2 -> 14 ;
15 [label="LLC-load-misses <= 5749010944.0\nmae = 175.71429\nsamples = 7\nvalue = 760490.0", fillcolor="#e58139ff"] ;
14 -> 15 ;
16 [label="mae = 0.0\nsamples = 1\nvalue = 759980.0", fillcolor="#e58139fe"] ;
15 -> 16 ;
17 [label="context-switches <= 63506.5\nmae = 120.0\nsamples = 6\nvalue = 760545.0", fillcolor="#e58139ff"] ;
15 -> 17 ;
18 [label="mae = 53.33333\nsamples = 3\nvalue = 760460.0", fillcolor="#e58139fe"] ;
17 -> 18 ;
19 [label="mae = 40.0\nsamples = 3\nvalue = 760680.0", fillcolor="#e58139ff"] ;
17 -> 19 ;
20 [label="LLC-load-misses <= 5752176896.0\nmae = 180.0\nsamples = 3\nvalue = 761500.0", fillcolor="#e58139ff"] ;
14 -> 20 ;
21 [label="LLC-loads <= 38220441600.0\nmae = 40.0\nsamples = 2\nvalue = 761460.0", fillcolor="#e58139ff"] ;
20 -> 21 ;
22 [label="mae = 0.0\nsamples = 1\nvalue = 761500.0", fillcolor="#e58139ff"] ;
21 -> 22 ;
23 [label="mae = 0.0\nsamples = 1\nvalue = 761420.0", fillcolor="#e58139ff"] ;
21 -> 23 ;
24 [label="mae = 0.0\nsamples = 1\nvalue = 761960.0", fillcolor="#e58139ff"] ;
20 -> 24 ;
25 [label="branch-misses <= 47792274.0\nmae = 81209.01515\nsamples = 132\nvalue = 132015.0", fillcolor="#e581392c"] ;
1 -> 25 ;
26 [label="context-switches <= 72184.5\nmae = 4712.10526\nsamples = 19\nvalue = 426440.0", fillcolor="#e581398f"] ;
25 -> 26 ;
27 [label="cache-references <= 38367258624.0\nmae = 1864.54545\nsamples = 11\nvalue = 423890.0", fillcolor="#e581398e"] ;
26 -> 27 ;
28 [label="context-switches <= 70786.0\nmae = 1133.33333\nsamples = 3\nvalue = 420250.0", fillcolor="#e581398d"] ;
27 -> 28 ;
29 [label="mae = 0.0\nsamples = 1\nvalue = 418300.0", fillcolor="#e581398c"] ;
28 -> 29 ;
30 [label="mae = 725.0\nsamples = 2\nvalue = 420975.0", fillcolor="#e581398d"] ;
28 -> 30 ;
31 [label="LLC-stores <= 11879961600.0\nmae = 1128.75\nsamples = 8\nvalue = 423950.0", fillcolor="#e581398e"] ;
27 -> 31 ;
32 [label="mae = 396.66667\nsamples = 6\nvalue = 423905.0", fillcolor="#e581398e"] ;
31 -> 32 ;
33 [label="mae = 805.0\nsamples = 2\nvalue = 427245.0", fillcolor="#e581398f"] ;
31 -> 33 ;
34 [label="context-switches <= 72647.0\nmae = 1718.75\nsamples = 8\nvalue = 433450.0", fillcolor="#e5813991"] ;
26 -> 34 ;
35 [label="LLC-loads <= 38174963712.0\nmae = 185.0\nsamples = 2\nvalue = 429585.0", fillcolor="#e5813990"] ;
34 -> 35 ;
36 [label="mae = 0.0\nsamples = 1\nvalue = 429770.0", fillcolor="#e5813990"] ;
35 -> 36 ;
37 [label="mae = 0.0\nsamples = 1\nvalue = 429400.0", fillcolor="#e5813990"] ;
35 -> 37 ;
38 [label="context-switches <= 73317.0\nmae = 943.33333\nsamples = 6\nvalue = 433995.0", fillcolor="#e5813991"] ;
34 -> 38 ;
39 [label="mae = 672.0\nsamples = 5\nvalue = 433630.0", fillcolor="#e5813991"] ;
38 -> 39 ;
40 [label="mae = 0.0\nsamples = 1\nvalue = 435930.0", fillcolor="#e5813992"] ;
38 -> 40 ;
41 [label="branch-misses <= 72925578.0\nmae = 45082.65487\nsamples = 113\nvalue = 130420.0", fillcolor="#e581392c"] ;
25 -> 41 ;
42 [label="cycles <= 2454197239808.0\nmae = 1014.78261\nsamples = 23\nvalue = 249410.0", fillcolor="#e5813953"] ;
41 -> 42 ;
43 [label="instructions <= 2397236887552.0\nmae = 443.33333\nsamples = 9\nvalue = 248180.0", fillcolor="#e5813953"] ;
42 -> 43 ;
44 [label="mae = 45.0\nsamples = 2\nvalue = 247115.0", fillcolor="#e5813953"] ;
43 -> 44 ;
45 [label="mae = 261.42857\nsamples = 7\nvalue = 248210.0", fillcolor="#e5813953"] ;
43 -> 45 ;
46 [label="cycles <= 2466494152704.0\nmae = 641.42857\nsamples = 14\nvalue = 249850.0", fillcolor="#e5813954"] ;
42 -> 46 ;
47 [label="mae = 281.42857\nsamples = 7\nvalue = 249600.0", fillcolor="#e5813954"] ;
46 -> 47 ;
48 [label="mae = 587.14286\nsamples = 7\nvalue = 250760.0", fillcolor="#e5813954"] ;
46 -> 48 ;
49 [label="branches <= 109448499200.0\nmae = 25575.44444\nsamples = 90\nvalue = 107995.0", fillcolor="#e5813924"] ;
41 -> 49 ;
50 [label="cycles <= 2465204535296.0\nmae = 1232.10526\nsamples = 19\nvalue = 171480.0", fillcolor="#e5813939"] ;
49 -> 50 ;
51 [label="mae = 366.66667\nsamples = 3\nvalue = 168200.0", fillcolor="#e5813938"] ;
50 -> 51 ;
52 [label="mae = 845.625\nsamples = 16\nvalue = 172025.0", fillcolor="#e581393a"] ;
50 -> 52 ;
53 [label="Thread <= 9.0\nmae = 15180.70423\nsamples = 71\nvalue = 106550.0", fillcolor="#e5813924"] ;
49 -> 53 ;
54 [label="mae = 955.6\nsamples = 25\nvalue = 130820.0", fillcolor="#e581392c"] ;
53 -> 54 ;
55 [label="mae = 8998.04348\nsamples = 46\nvalue = 89755.0", fillcolor="#e581391e"] ;
53 -> 55 ;
56 [label="L1-dcache-load-misses <= 29649180672.0\nmae = 128.80908\nsamples = 1419\nvalue = 53.27", fillcolor="#e5813900"] ;
0 -> 56 [labeldistance=2.5, labelangle=-45, headlabel="False"] ;
57 [label="L1-dcache-load-misses <= 6942796032.0\nmae = 29.66929\nsamples = 921\nvalue = 32.19", fillcolor="#e5813900"] ;
56 -> 57 ;
58 [label="Thread <= 3.0\nmae = 9.8318\nsamples = 484\nvalue = 10.505", fillcolor="#e5813900"] ;
57 -> 58 ;
59 [label="Thread <= 1.5\nmae = 11.58519\nsamples = 129\nvalue = 34.64", fillcolor="#e5813900"] ;
58 -> 59 ;
60 [label="L1-dcache-load-misses <= 6202237952.0\nmae = 3.4627\nsamples = 63\nvalue = 48.99", fillcolor="#e5813900"] ;
59 -> 60 ;
61 [label="mae = 0.28109\nsamples = 46\nvalue = 48.71", fillcolor="#e5813900"] ;
60 -> 61 ;
62 [label="mae = 0.07294\nsamples = 17\nvalue = 60.87", fillcolor="#e5813900"] ;
60 -> 62 ;
63 [label="cycles <= 166622740480.0\nmae = 1.92076\nsamples = 66\nvalue = 27.53", fillcolor="#e5813900"] ;
59 -> 63 ;
64 [label="mae = 0.57458\nsamples = 48\nvalue = 27.315", fillcolor="#e5813900"] ;
63 -> 64 ;
65 [label="mae = 1.10944\nsamples = 18\nvalue = 32.85", fillcolor="#e5813900"] ;
63 -> 65 ;
66 [label="Thread <= 7.0\nmae = 2.32575\nsamples = 355\nvalue = 8.76", fillcolor="#e5813900"] ;
58 -> 66 ;
67 [label="Thread <= 5.0\nmae = 2.18169\nsamples = 136\nvalue = 13.24", fillcolor="#e5813900"] ;
66 -> 67 ;
68 [label="mae = 1.52209\nsamples = 67\nvalue = 14.76", fillcolor="#e5813900"] ;
67 -> 68 ;
69 [label="mae = 0.9658\nsamples = 69\nvalue = 10.67", fillcolor="#e5813900"] ;
67 -> 69 ;
70 [label="instructions <= 243726483456.0\nmae = 0.67731\nsamples = 219\nvalue = 8.22", fillcolor="#e5813900"] ;
66 -> 70 ;
71 [label="mae = 0.56931\nsamples = 72\nvalue = 7.21", fillcolor="#e5813900"] ;
70 -> 71 ;
72 [label="mae = 0.42014\nsamples = 147\nvalue = 8.56", fillcolor="#e5813900"] ;
70 -> 72 ;
73 [label="Thread <= 3.0\nmae = 35.16622\nsamples = 437\nvalue = 47.14", fillcolor="#e5813900"] ;
57 -> 73 ;
74 [label="Thread <= 1.5\nmae = 40.2234\nsamples = 100\nvalue = 146.48", fillcolor="#e5813900"] ;
73 -> 74 ;
75 [label="matrix_workload <= 661676.0\nmae = 11.77442\nsamples = 43\nvalue = 206.15", fillcolor="#e5813900"] ;
74 -> 75 ;
76 [label="mae = 0.14\nsamples = 2\nvalue = 61.24", fillcolor="#e5813900"] ;
75 -> 76 ;
77 [label="mae = 5.27512\nsamples = 41\nvalue = 206.35", fillcolor="#e5813900"] ;
75 -> 77 ;
78 [label="instructions <= 1332769226752.0\nmae = 7.61474\nsamples = 57\nvalue = 119.91", fillcolor="#e5813900"] ;
74 -> 78 ;
79 [label="mae = 2.02136\nsamples = 44\nvalue = 119.525", fillcolor="#e5813900"] ;
78 -> 79 ;
80 [label="mae = 3.38769\nsamples = 13\nvalue = 148.31", fillcolor="#e5813900"] ;
78 -> 80 ;
81 [label="Thread <= 5.0\nmae = 11.60487\nsamples = 337\nvalue = 43.52", fillcolor="#e5813900"] ;
73 -> 81 ;
82 [label="cycles <= 753181556736.0\nmae = 5.46465\nsamples = 71\nvalue = 70.48", fillcolor="#e5813900"] ;
81 -> 82 ;
83 [label="mae = 2.43976\nsamples = 41\nvalue = 64.07", fillcolor="#e5813900"] ;
82 -> 83 ;
84 [label="mae = 1.42833\nsamples = 30\nvalue = 78.175", fillcolor="#e5813900"] ;
82 -> 84 ;
85 [label="Thread <= 9.0\nmae = 7.14628\nsamples = 266\nvalue = 41.085", fillcolor="#e5813900"] ;
81 -> 85 ;
86 [label="mae = 4.9583\nsamples = 135\nvalue = 44.93", fillcolor="#e5813900"] ;
85 -> 86 ;
87 [label="mae = 4.81321\nsamples = 131\nvalue = 33.0", fillcolor="#e5813900"] ;
85 -> 87 ;
88 [label="Thread <= 3.0\nmae = 178.77749\nsamples = 498\nvalue = 236.915", fillcolor="#e5813900"] ;
56 -> 88 ;
89 [label="Thread <= 1.5\nmae = 241.09826\nsamples = 161\nvalue = 619.78", fillcolor="#e5813900"] ;
88 -> 89 ;
90 [label="L1-dcache-load-misses <= 65554186240.0\nmae = 209.37022\nsamples = 92\nvalue = 899.31", fillcolor="#e5813900"] ;
89 -> 90 ;
91 [label="LLC-stores <= 2482478976.0\nmae = 0.34864\nsamples = 22\nvalue = 258.07", fillcolor="#e5813900"] ;
90 -> 91 ;
92 [label="mae = 0.16579\nsamples = 19\nvalue = 258.05", fillcolor="#e5813900"] ;
91 -> 92 ;
93 [label="mae = 0.48667\nsamples = 3\nvalue = 259.11", fillcolor="#e5813900"] ;
91 -> 93 ;
94 [label="L1-dcache-stores <= 639159795712.0\nmae = 72.51329\nsamples = 70\nvalue = 906.635", fillcolor="#e5813900"] ;
90 -> 94 ;
95 [label="mae = 21.17468\nsamples = 47\nvalue = 898.92", fillcolor="#e5813900"] ;
94 -> 95 ;
96 [label="mae = 4.54783\nsamples = 23\nvalue = 1079.04", fillcolor="#e5813900"] ;
94 -> 96 ;
97 [label="instructions <= 5430504325120.0\nmae = 62.69725\nsamples = 69\nvalue = 498.33", fillcolor="#e5813900"] ;
89 -> 97 ;
98 [label="LLC-load-misses <= 2587741504.0\nmae = 38.12306\nsamples = 49\nvalue = 497.11", fillcolor="#e5813900"] ;
97 -> 98 ;
99 [label="mae = 1.604\nsamples = 5\nvalue = 149.7", fillcolor="#e5813900"] ;
98 -> 99 ;
100 [label="mae = 2.86727\nsamples = 44\nvalue = 497.34", fillcolor="#e5813900"] ;
98 -> 100 ;
101 [label="cycles <= 3301684674560.0\nmae = 1.724\nsamples = 20\nvalue = 620.15", fillcolor="#e5813900"] ;
97 -> 101 ;
102 [label="mae = 0.76167\nsamples = 12\nvalue = 619.315", fillcolor="#e5813900"] ;
101 -> 102 ;
103 [label="mae = 0.885\nsamples = 8\nvalue = 622.425", fillcolor="#e5813900"] ;
101 -> 103 ;
104 [label="page-faults <= 108463.0\nmae = 52.67546\nsamples = 337\nvalue = 209.88", fillcolor="#e5813900"] ;
88 -> 104 ;
105 [label="cache-references <= 22835170304.0\nmae = 28.2014\nsamples = 150\nvalue = 146.87", fillcolor="#e5813900"] ;
104 -> 105 ;
106 [label="minor-faults <= 17470.5\nmae = 22.11823\nsamples = 130\nvalue = 144.24", fillcolor="#e5813900"] ;
105 -> 106 ;
107 [label="mae = 5.51333\nsamples = 9\nvalue = 35.34", fillcolor="#e5813900"] ;
106 -> 107 ;
108 [label="mae = 15.99562\nsamples = 121\nvalue = 145.6", fillcolor="#e5813900"] ;
106 -> 108 ;
109 [label="branches <= 268558385152.0\nmae = 3.221\nsamples = 20\nvalue = 211.35", fillcolor="#e5813900"] ;
105 -> 109 ;
110 [label="mae = 0.0\nsamples = 1\nvalue = 243.57", fillcolor="#e5813900"] ;
109 -> 110 ;
111 [label="mae = 1.68105\nsamples = 19\nvalue = 211.09", fillcolor="#e5813900"] ;
109 -> 111 ;
112 [label="Thread <= 5.0\nmae = 33.54481\nsamples = 187\nvalue = 236.3", fillcolor="#e5813900"] ;
104 -> 112 ;
113 [label="context-switches <= 114757.5\nmae = 15.17774\nsamples = 62\nvalue = 297.525", fillcolor="#e5813900"] ;
112 -> 113 ;
114 [label="mae = 6.2022\nsamples = 41\nvalue = 291.83", fillcolor="#e5813900"] ;
113 -> 114 ;
115 [label="mae = 0.68524\nsamples = 21\nvalue = 327.89", fillcolor="#e5813900"] ;
113 -> 115 ;
116 [label="L1-dcache-load-misses <= 125178646528.0\nmae = 15.62624\nsamples = 125\nvalue = 230.78", fillcolor="#e5813900"] ;
112 -> 116 ;
117 [label="mae = 10.21235\nsamples = 34\nvalue = 202.33", fillcolor="#e5813900"] ;
116 -> 117 ;
118 [label="mae = 7.4333\nsamples = 91\nvalue = 233.75", fillcolor="#e5813900"] ;
116 -> 118 ;
}